tree
version=v4
num_class=1
num_tree_per_iteration=1
label_index=0
max_feature_idx=17
objective=quantile
feature_names=Column_0 Column_1 Column_2 Column_3 Column_4 Column_5 Column_6 Column_7 Column_8 Column_9 Column_10 Column_11 Column_12 Column_13 Column_14 Column_15 Column_16 Column_17
feature_infos=[1:419128] [1:10338] [1:105057] [0:1] [0:800] none [0:250] [0:1] [0:976023576] [0:6526440] [0:951432192] [0:982550016] [1:18] [0:6] [0:1] [0:1] [-1:6] none
tree_sizes=2857 2947 2931 2928 2992 2981 2915 2935 2913 2898 2925 2905 2906 2927 2922 2887 2877 2928 2938 2907 2966 2962 2899 2933 2930 2952 2959 2962 2986 2901 2924 2923 2947 2977

Tree=0
num_leaves=31
num_cat=0
split_feature=8 2 14 11 15 2 9 1 1 8 9 10 15 2 9 1 12 10 10 12 10 12 1 2 2 1 8 12 9 10
split_gain=78.8048 15.3821 12.3242 5.75142 5.66027 4.63388 2.6916 2.466 3.02798 2.46058 2.3235 2.16046 2.04247 4.12571 1.8835 1.89394 1.73937 1.55519 1.52381 1.70461 1.48522 1.5942 1.46347 1.91304 1.49558 2.3093 1.43027 1.36563 1.2 1.18154
threshold=47461.000000000007 10.500000000000002 1.0000000180025095e-35 10876595.000000002 1.0000000180025095e-35 43.500000000000007 39173.500000000007 1212.0000000000002 11.500000000000002 671.00000000000011 39173.500000000007 35626959.000000007 1.0000000180025095e-35 6.5000000000000009 320623.00000000006 2.5000000000000004 14.500000000000002 561611.50000000012 316476.00000000006 9.5000000000000018 6254669.0000000009 13.500000000000002 18.500000000000004 76.500000000000014 1601.5000000000002 172.00000000000003 7741.0000000000009 7.5000000000000009 294014.00000000006 94330682.500000015
decision_type=2 2 2 2 2 2 2 2 2 2 2 2 2 2 2 2 2 2 2 2 2 2 2 2 2 2 2 2 2 2
left_child=1 17 3 4 18 6 16 8 10 -10 -5 -12 13 -2 29 -16 -4 -1 19 -3 21 -7 -11 -24 25 27 -9 28 -25 -13
right_child=12 2 5 7 -6 20 -8 26 9 22 11 14 -14 -15 15 -17 -18 -19 -20 -21 -22 -23 23 24 -26 -27 -28 -29 -30 -31
leaf_value=0.21974260862916709 0.22607613019645215 0.22413457483053206 0.22581094354391099 0.23805997818708419 0.25589979290962217 0.23028307110071183 0.23563870638608933 0.25471296906471252 0.22234073020517825 0.22393846251070498 0.22427020985633134 0.23181666880846025 0.40820535421371462 0.27050331830978391 0.22253440432250499 0.23226379454135895 0.23204656094312667 0.2232141625136137 0.22199522126466037 0.24365384578704835 0.25865935534238815 0.2530053570866585 0.2346848502755165 0.2210589012131095 0.22367748506367208 0.23463887721300125 0.2285274587571621 0.22647262364625931 0.24312381744384765 0.24276006892323493
leaf_weight=52 9.9999999999999982 43 85 9.9999999999999982 14.999999999999998 23 188 28 75 47 58 65 263 25 14.999999999999998 40 12.999999999999998 426 168 12.999999999999998 50 9.9999999999999982 12.999999999999998 15.000000000000002 10.999999999999998 13.999999999999998 21 67 14.999999999999998 9.9999999999999982
leaf_count=52 10 43 85 10 15 23 188 28 75 47 58 65 263 25 15 40 13 426 168 13 50 10 13 15 11 14 21 67 15 10
internal_value=0.229607 0.225184 0.228409 0.224699 0.218311 0.235878 0.23286 0.227729 0.226581 0.223001 0.231228 0.229979 0.253203 0.241856 0.233559 0.226531 0.226141 0.217683 0.21632 0.223463 0.246279 0.238046 0.226141 0.228787 0.226844 0.228587 0.238386 0.225847 0.234713 0.238713
internal_weight=1888 1590 1112 743 239 369 286 504 455 257 198 188 298 35 130 55 98 478 224 56 83 33 182 135 122 111 49 97 30 75
internal_count=1888 1590 1112 743 239 369 286 504 455 257 198 188 298 35 130 55 98 478 224 56 83 33 182 135 122 111 49 97 30 75
is_linear=0
shrinkage=1


Tree=1
num_leaves=31
num_cat=0
split_feature=8 2 14 10 2 8 8 12 4 16 9 10 1 9 2 9 12 8 9 10 12 1 13 16 6 2 13 13 8 6
split_gain=68.7515 16.5033 9.87606 8.29757 5.96465 4.59034 3.48104 2.91173 2.71684 2.45655 2.42524 2.30752 2.21651 2.01802 1.87778 1.83046 1.82163 2.40079 2.08333 1.82086 1.78562 1.67517 1.5 1.49575 1.30512 1.20858 1.20201 1.31406 1.27712 2.13318
threshold=584007.00000000012 9.5000000000000018 1.0000000180025095e-35 11287053.000000002 36.500000000000007 47220.500000000007 36.000000000000007 10.500000000000002 14.500000000000002 3.5000000000000004 9224.0000000000018 3924298.5000000005 11.500000000000002 44043.500000000007 59.500000000000007 28839.500000000004 9.5000000000000018 399.00000000000006 220407.50000000003 1976341.5000000002 6.5000000000000009 1249.5000000000002 2.5000000000000004 3.5000000000000004 1.5000000000000002 58.500000000000007 1.0000000180025095e-35 1.5000000000000002 29711.500000000004 111.50000000000001
decision_type=2 2 2 2 2 2 2 2 2 2 2 2 2 2 2 2 2 2 2 2 2 2 2 2 2 2 2 2 2 2
left_child=1 15 3 6 10 7 9 16 -8 14 24 -12 25 -13 -3 -1 -5 -18 -19 23 -17 -14 -16 -6 -4 -9 -15 -28 29 -29
right_child=-2 2 4 5 19 -7 8 12 -10 -11 11 13 21 26 22 20 17 18 -20 -21 -22 -23 -24 -25 -26 -27 27 28 -30 -31
leaf_value=-0.0085365477856248623 0.17341876804828646 -0.0062813680758699785 -0.003403688408434392 -0.00099701327271759519 -0.0010448949784040457 0.040415410399436955 -0.0067400534544140109 -0.0017478160653263326 0.014003335600718855 0.028307917416095736 0.0030682659894227986 -0.0026573642343282705 -0.0062335380911827084 -0.0023385594785213476 0.017949099317193032 -0.0073085908778011801 -0.0048856938816606993 0.010862021204084159 0.0014104145113378764 0.025845006480813029 -0.0049654907546937471 0.0036924282833933827 -0.0058907496975734832 0.099649818167090426 -0.007659844234585763 0.016743142381310465 0.018529694238677622 0.0044374913722276688 0.020816807523369792 -0.0033776222914457324
leaf_weight=124 239 36 32 244 20 17 171 57 9.9999999999999982 12.999999999999998 27 41 95 28 12.000000000000002 58 14.999999999999998 24 24 72 259 20 11.999999999999998 11.000000000000002 13.999999999999998 10.999999999999998 24 117 21 9.9999999999999982
leaf_count=124 239 36 32 244 20 17 171 57 10 13 27 41 95 28 12 58 15 24 24 72 259 20 12 11 14 11 24 117 21 10
internal_value=-0.000242196 -0.00393762 -0.000848896 -0.00423784 0.00533573 -0.000542406 -0.0116142 -0.00142857 -0.0153315 -0.00239726 0.00191083 0.00373134 -0.00642077 0.00217842 -0.00666667 -0.0121882 0.00154723 0.00912698 0.0145833 0.0157767 -0.0101735 -0.0106522 0.00416667 0.00564516 -0.00869565 0.000735294 0.00425 0.00581395 0.00405405 0.00216535
internal_weight=1858 1619 1178 761 417 507 254 490 181 73 314 268 183 241 60 441 307 63 48 103 317 115 24 31 46 68 200 172 148 127
internal_count=1858 1619 1178 761 417 507 254 490 181 73 314 268 183 241 60 441 307 63 48 103 317 115 24 31 46 68 200 172 148 127
is_linear=0
shrinkage=0.05


Tree=2
num_leaves=31
num_cat=0
split_feature=8 2 6 0 2 9 15 6 2 11 6 12 8 10 12 8 12 0 13 2 10 10 8 8 0 8 11 2 8 4
split_gain=73.0349 13.7987 9.77159 7.05222 8.69209 3.79991 5.46493 4.06765 3.40485 2.95698 2.88936 2.21148 3.13396 2.92196 1.9963 1.93978 1.8457 1.82635 1.79201 1.69761 1.68929 1.67917 1.79225 1.65029 1.60383 1.55331 1.42234 1.42222 1.40381 1.37065
threshold=941104.50000000012 9.5000000000000018 173.50000000000003 312.00000000000006 159.50000000000003 22651.500000000004 1.0000000180025095e-35 96.500000000000014 71.500000000000014 49095146.500000007 12.500000000000002 10.500000000000002 2116.5000000000005 26806749.500000004 5.5000000000000009 36.000000000000007 11.500000000000002 50.500000000000007 3.5000000000000004 3550.5000000000005 561611.50000000012 22163575.500000004 443.00000000000006 243.50000000000003 123.50000000000001 10925.500000000002 9101430.0000000019 894.50000000000011 671.00000000000011 1.5000000000000002
decision_type=2 2 2 2 2 2 2 2 2 2 2 2 2 2 2 2 2 2 2 2 2 2 2 2 2 2 2 2 2 2
left_child=1 20 3 5 15 6 25 8 9 10 16 12 13 27 18 -5 23 -9 -11 29 -1 -12 -23 26 -16 -3 -7 -6 -17 -13
right_child=-2 2 -4 4 11 7 -8 17 -10 14 21 19 -14 -15 24 28 -18 -19 -20 -21 -22 22 -24 -25 -26 -27 -28 -29 -30 -31
leaf_value=-0.0090060086459852751 0.16474782964587212 -0.0044834492679219698 0.037510899592190984 0.0019193369299173369 -0.0043190900473855445 0.00074400993925519208 0.023462318941950801 -0.006126084511633963 0.019912487061694267 -0.0052731060585938395 -0.0050405366010963923 0.00020189717784523944 -0.0026527181691490126 0.015943630489055068 0.0098207333676982676 -0.0084559538632165646 0.0079197574816644196 -0.0017491611815057693 0.0035815741680562509 0.023966976502910256 -0.0056235823268070825 0.0090760966022498911 -0.0016604252620600155 0.0082074380046688027 -0.0012812434672378012 0.0043196596484631295 -0.0039616717621684073 0.019945886103203522 -0.0063790317862294629 -0.0072064018547534948
leaf_weight=53 243 160 62 9.9999999999999982 20 14.000000000000002 31 23 27 13.000000000000002 81 23 69 27 122 56 25 41 17 10.999999999999998 390 19 97 36 12.999999999999998 9.9999999999999982 10.999999999999998 15.999999999999998 108 67
leaf_count=53 243 160 62 10 20 14 31 23 27 13 81 23 69 27 122 56 25 41 17 11 390 19 97 36 13 10 11 16 108 67
internal_value=-0.000593668 -0.00435835 -0.00159222 -0.00263731 -0.00792383 0.00027027 -0.00559701 0.00245826 0.00405263 0.00301339 -8.83392e-05 -0.00160944 0.00265152 0.0107143 0.00833333 -0.0163793 0.00755814 -0.009375 -0.00333333 -0.00717822 -0.0119074 -0.0034264 0.000431034 0.00286885 0.0109259 -0.00911765 -0.007 0.00138889 -0.0176829 -0.00944444
internal_weight=1895 1652 1209 1147 407 740 201 539 475 448 283 233 132 63 165 174 86 64 30 101 443 197 116 61 135 170 25 36 164 90
internal_count=1895 1652 1209 1147 407 740 201 539 475 448 283 233 132 63 165 174 86 64 30 101 443 197 116 61 135 170 25 36 164 90
is_linear=0
shrinkage=0.05


Tree=3
num_leaves=31
num_cat=0
split_feature=8 2 14 11 0 8 15 6 8 13 6 11 6 8 11 11 1 12 8 12 6 0 11 2 0 6 16 0 0 0
split_gain=69.2971 14.3823 10.1713 6.59425 4.64007 3.87187 2.79518 2.69668 2.68425 2.174 2.36453 1.97516 2.19429 1.70855 1.94266 2.62673 1.66694 1.61529 1.75312 2.13785 1.59508 1.5391 1.48977 1.58614 1.96183 2.07141 2.56953 1.44126 2.08802 2.2052
threshold=941104.50000000012 10.500000000000002 1.0000000180025095e-35 10876595.000000002 76.500000000000014 30.500000000000004 1.0000000180025095e-35 187.50000000000003 15398.000000000002 5.5000000000000009 85.500000000000014 1700829.0000000002 1.5000000000000002 4893.0000000000009 163354508.00000003 59556421.500000007 5.5000000000000009 10.500000000000002 372.50000000000006 9.5000000000000018 26.500000000000004 52.500000000000007 665161.00000000012 1.5000000000000002 13.500000000000002 76.500000000000014 1.0000000180025095e-35 11029.500000000002 302.00000000000006 246.50000000000003
decision_type=2 2 2 2 2 2 2 2 2 2 2 2 2 2 2 2 2 2 2 2 2 2 2 2 2 2 2 2 2 2
left_child=1 22 3 5 8 6 -3 9 11 17 -11 12 -4 14 15 20 21 18 -5 -20 -13 -7 -1 -24 -25 26 -26 28 29 -19
right_child=-2 2 4 7 -6 16 -8 -9 -10 10 -12 13 -14 -15 -16 -17 -18 27 19 -21 -22 -23 23 24 25 -27 -28 -29 -30 -31
leaf_value=-0.0082439289828529581 0.15651043816357851 -0.0039473122870840593 -0.0021121584253967749 -0.0060939781342633078 0.022400686839816629 -0.0062443730195635011 0.02394156593754888 0.039886483172979208 0.013206450734246755 0.010629845242109151 -0.0017880935257882813 0.005513626532605849 -0.0068622080742032276 -0.0038374081628979196 -0.0028883501385571445 0.01011938744041836 -0.0063301917871111087 -0.002153788680047728 -0.0011475517713697633 0.0049675047978525975 -0.0019203222884447329 0.0016983988423889956 0.00055689349048770875 -0.0060439945228863527 -0.0052084797692950827 -0.0068087735844310389 0.0030138377411232792 0.0074010019186884161 -0.0057753527987748389 0.0095356849186588079
leaf_weight=58 230 46 35 33 95 14.999999999999998 14.999999999999998 19 60 15.000000000000002 13.999999999999998 71 14.999999999999998 41 12.999999999999998 33 145 68 210 43 20 24 29 229 73 43 62 19 92 9.9999999999999982
leaf_count=58 230 46 35 33 95 15 15 19 60 15 14 71 15 41 13 33 145 68 210 43 20 24 29 229 73 43 62 19 92 10
internal_value=-0.000706667 -0.00430091 -0.00123805 -0.00455729 0.00541775 -0.0113265 -0.000409836 -0.00138623 0.00225694 -0.00208333 0.0112069 -0.000219298 -0.009 0.00224719 0.00492701 0.00685484 -0.0149457 -0.00289474 -0.000524476 0.000889328 0.00247253 -0.00576923 -0.0114372 -0.0104358 -0.0112408 -0.00730337 -0.00425926 -0.00648148 -0.00794118 -0.00192308
internal_weight=1875 1645 1151 768 383 245 61 523 288 504 29 228 50 178 137 124 184 475 286 253 91 39 494 436 407 178 135 189 170 78
internal_count=1875 1645 1151 768 383 245 61 523 288 504 29 228 50 178 137 124 184 475 286 253 91 39 494 436 407 178 135 189 170 78
is_linear=0
shrinkage=0.05


Tree=4
num_leaves=31
num_cat=0
split_feature=8 2 14 10 0 11 10 6 10 6 10 16 10 8 11 8 1 0 8 6 6 1 2 6 11 10 6 1 12 6
split_gain=68.7612 13.2155 10.0827 6.25961 4.70318 3.33095 3.24519 3.03328 2.59595 2.35017 2.92135 2.12428 2.11398 1.90057 1.69418 2.0981 2.05652 1.85494 1.94485 1.63127 1.58034 1.51623 4.45354 1.41749 1.5935 1.37459 1.37266 1.30016 1.31312 1.27273
threshold=941104.50000000012 11.500000000000002 1.0000000180025095e-35 26806749.500000004 51.500000000000007 24476852.000000004 25843046.000000004 173.50000000000003 205530253.50000003 1.5000000000000002 9651617.5000000019 3.5000000000000004 78660389.000000015 23755.500000000004 18085442.500000004 11981.000000000002 241.50000000000003 464.50000000000006 311.50000000000006 16.500000000000004 151.50000000000003 15.500000000000002 28.500000000000004 101.50000000000001 55180449.500000007 32248416.500000004 81.500000000000014 28.500000000000004 9.5000000000000018 16.500000000000004
decision_type=2 2 2 2 2 2 2 2 2 2 2 2 2 2 2 2 2 2 2 2 2 2 2 2 2 2 2 2 2 2
left_child=1 5 3 9 13 -1 -7 8 19 11 21 27 -6 23 16 -16 17 18 -12 -5 -10 22 -11 24 -4 -21 -15 28 -3 -19
right_child=-2 2 4 7 12 6 -8 -9 20 10 14 -13 -14 26 15 -17 -18 29 -20 25 -22 -23 -24 -25 -26 -27 -28 -29 -30 -31
leaf_value=-0.0065620998560950109 0.14858256315939131 -0.0055209684323155664 -0.0017935482055626952 0.0051336460264225035 0.0091842662668574476 0.0079249416017721508 -0.0047922386631320119 0.035851778641431589 -0.0063881849455641355 -0.0052796986379887671 -0.0015097044773085509 0.019922172214704478 0.031757566935943615 0.018653971648812002 -0.0071709546629514084 0.0021870120134443271 0.01040858868151554 -0.0063924670162156701 0.0059372418666072194 -0.0080412216726504279 0.0017680616865458439 -0.0072013151739194307 0.00719102575259807 -0.0030900384764846246 0.0035013113274570771 3.7178191471612391e-05 0.018221190276650884 0.010788463582018449 0.0032210286230445495 -0.0079285531194059882
leaf_weight=274 226 35 123 15.999999999999998 119 12.999999999999998 243 30 32 35 18 20 37 15.999999999999998 67 9.9999999999999982 12.999999999999998 14.000000000000002 15.999999999999998 21 12.999999999999998 102 23 9.9999999999999982 41 270 17 11.999999999999998 11.999999999999998 10.999999999999998
leaf_count=274 226 35 123 16 119 13 243 30 32 35 18 20 37 16 67 10 13 14 16 21 13 102 23 10 41 270 17 12 12 11
internal_value=-0.00109846 -0.00461515 -0.00156664 -0.00480519 0.00530303 -0.0111321 -0.00703125 -0.00026178 -0.0015625 -0.00927835 -0.011246 -0.00158228 0.011859 0.000362319 -0.00620805 -0.0113636 -0.000694444 -0.00466102 0.00294118 8.14332e-05 -0.0127778 -0.0159375 -0.00948276 -0.00172414 -0.000609756 -0.000773196 0.0113636 -0.00635593 -0.0101064 -0.015
internal_weight=1889 1663 1133 770 363 530 256 382 352 388 309 79 156 207 149 77 72 59 34 307 45 160 58 174 164 291 33 59 47 25
internal_count=1889 1663 1133 770 363 530 256 382 352 388 309 79 156 207 149 77 72 59 34 307 45 160 58 174 164 291 33 59 47 25
is_linear=0
shrinkage=0.05


Tree=5
num_leaves=31
num_cat=0
split_feature=8 2 11 14 6 8 6 15 2 2 11 6 1 10 16 2 2 15 12 8 12 11 1 8 10 11 16 12 11 6
split_gain=62.8529 12.405 9.81054 7.53401 4.37339 3.23078 2.92776 2.82092 2.81215 2.72958 2.4706 4.11502 2.86821 2.81851 2.09921 1.91895 1.67749 1.66731 1.65559 1.93978 2.69129 1.8963 1.59862 1.84277 1.53219 1.95111 1.86633 1.50417 1.47308 2.08146
threshold=8050941.0000000009 9.5000000000000018 29363101.000000004 1.0000000180025095e-35 185.50000000000003 584007.00000000012 99.500000000000014 1.0000000180025095e-35 89.500000000000014 180.50000000000003 10876595.000000002 3.5000000000000004 14.500000000000002 602922.00000000012 1.0000000180025095e-35 22.500000000000004 21.500000000000004 1.0000000180025095e-35 11.500000000000002 8120.0000000000009 8.5000000000000018 77640739.500000015 4.5000000000000009 46226.500000000007 1909275.0000000002 17730593.500000004 1.0000000180025095e-35 7.5000000000000009 18085442.500000004 14.500000000000002
decision_type=2 2 2 2 2 2 2 2 2 2 2 2 2 2 2 2 2 2 2 2 2 2 2 2 2 2 2 2 2 2
left_child=1 5 3 10 6 -1 8 15 -4 -10 11 12 13 17 -8 -5 -6 27 19 -11 -21 -20 -16 -24 26 -26 -17 -3 -12 -30
right_child=-2 2 4 7 16 -7 14 -9 9 18 28 -13 -14 -15 22 24 -18 -19 21 20 -22 -23 23 -25 25 -27 -28 -29 29 -31
leaf_value=-0.0054141226660602421 0.14125578809743003 -0.005252078314288036 0.0037413849770034147 -0.0039495920904121448 0.0028476060844466414 0.023836575040865685 0.0038722656723345289 0.023836575040865685 -0.0062171190113399074 0.013922747440628304 0.00040208001037803505 -0.0054061062242326315 -0.0065254064688316741 0.020249094275573025 -0.0055448150637250936 0.0020692069497476469 0.039098292834039795 0.022637298860258476 -0.0087651802924798693 -0.0068320832472061159 0.0051771311018849369 0.010506509306527499 0.00032525362886635451 -0.0060760110565868958 0.018866231192179738 -0.0004699405985984312 -0.0070011686277058772 0.0030599771918923217 0.0019058515171529137 -0.0070799715236530758
leaf_weight=456 215 24 273 107 10.999999999999998 10.999999999999998 42 32 45 28 69 144 61 13.999999999999998 26 22 31 11.999999999999998 15.000000000000002 13.000000000000002 13.999999999999998 11.999999999999998 42 15.999999999999998 31 21 15.999999999999998 15.999999999999998 27 59
leaf_count=456 215 24 273 107 11 11 42 32 45 28 69 144 61 14 26 22 31 12 15 13 14 12 42 16 31 21 16 16 27 59
internal_value=-0.000695538 -0.00393491 -0.00128782 -0.00545802 0.00352113 -0.0108672 0.00228137 0.0018559 0.004375 -0.00177165 -0.00938967 -0.0122694 -0.00570866 0.00151515 -0.00436508 -0.000380711 0.0190476 -0.00384615 0.00365854 0.00863636 -0.000925926 -0.00648148 -0.00892857 -0.00431034 0.005 0.0105769 -0.00263158 -0.00875 -0.00435484 -0.00872093
internal_weight=1905 1690 1223 655 568 467 526 229 400 127 426 271 127 66 126 197 42 52 82 55 27 27 84 58 90 52 38 40 155 86
internal_count=1905 1690 1223 655 568 467 526 229 400 127 426 271 127 66 126 197 42 52 82 55 27 27 84 58 90 52 38 40 155 86
is_linear=0
shrinkage=0.05


Tree=6
num_leaves=31
num_cat=0
split_feature=8 2 14 11 8 2 6 13 15 6 10 6 10 0 0 8 6 10 13 6 8 2 12 6 8 8 0 8 1 0
split_gain=59.5745 8.03926 9.03488 6.06756 4.27026 3.73034 3.37855 2.92292 3.28324 2.47115 2.97605 2.2766 2.27397 2.22506 2.14887 2.01436 1.76372 1.74735 1.73911 1.93393 1.74849 1.61302 1.39434 1.33559 1.20632 1.06667 1.2221 1.05783 1.04167 1.02806
threshold=8050941.0000000009 9.5000000000000018 1.0000000180025095e-35 10876595.000000002 15398.000000000002 24.500000000000004 2.5000000000000004 1.5000000000000002 1.0000000180025095e-35 173.50000000000003 205530253.50000003 95.500000000000014 59484267.000000007 2.5000000000000004 2178.5000000000005 609.50000000000011 55.500000000000007 1105376.0000000002 5.5000000000000009 85.500000000000014 28812.500000000004 5.5000000000000009 12.500000000000002 70.500000000000014 126.00000000000001 353.50000000000006 72.500000000000014 46855.500000000007 10.500000000000002 267.50000000000006
decision_type=2 2 2 2 2 2 2 2 2 2 2 2 2 2 2 2 2 2 2 2 2 2 2 2 2 2 2 2 2 2
left_child=1 13 3 6 5 11 7 22 -9 10 18 12 -4 15 -8 -1 -14 -7 20 -20 29 24 -3 -22 -15 -19 -27 -6 -10 -5
right_child=-2 2 4 9 27 17 14 8 28 -11 -12 -13 16 21 -16 -17 -18 25 19 -21 23 -23 -24 -25 -26 26 -28 -29 -30 -31
leaf_value=-0.0073131504701895696 0.13419299869255852 0.00063468764836417115 -0.0030209059969449111 -0.00052652186769159008 0.010178916713187207 0.00077276554101052557 -0.0051348351873904789 -0.0076551067307843767 0.021505433917245555 0.029393140193637854 -0.0058816047620311729 -0.0044577830650907651 0.011972623406540742 -0.0076437382260782704 0.0038027471996844226 0.0067665611320529093 0.00041986373167987871 0.026336892165663824 0.010419023579832161 -0.0011759160334998244 0.0050773595885493517 -0.0037903088038638761 0.016835682724270256 -0.00060052232888027082 -0.0057770693964203871 -0.00098787380598305981 0.018734543911739652 0.022644746288822393 -0.0013326459158534171 -0.0037168254983218369
leaf_weight=10.999999999999998 201 17.000000000000004 152 179 56 49 152 51 12.000000000000002 28 39 10.999999999999998 19 30 20 26 28 20 16.000000000000004 13.999999999999998 19 225 9.9999999999999982 21 163 19 41 38 11.999999999999998 209
leaf_count=11 201 17 152 179 56 49 152 51 12 28 39 11 19 30 20 26 28 20 16 14 19 225 10 21 163 19 41 38 12 209
internal_value=-0.000979873 -0.00404564 -0.00194805 -0.00510013 0.00386836 0.00125369 -0.0111314 -0.00392157 -0.009 -0.00195238 -0.0027666 -0.00285714 -0.00163317 -0.00972527 -0.015407 0.00202703 0.00797872 0.00794574 -0.00163755 0.01 -0.00245327 -0.0107656 0.0101852 0.0075 -0.0141192 0.0125 0.00916667 0.0132979 0.00625 -0.00347938
internal_weight=1888 1687 1232 799 433 339 274 102 75 525 497 210 199 455 172 37 47 129 458 30 428 418 27 40 193 80 60 94 24 388
internal_count=1888 1687 1232 799 433 339 274 102 75 525 497 210 199 455 172 37 47 129 458 30 428 418 27 40 193 80 60 94 24 388
is_linear=0
shrinkage=0.05


Tree=7
num_leaves=31
num_cat=0
split_feature=8 0 6 14 11 2 9 8 6 16 9 9 8 2 8 12 1 8 10 0 8 2 13 0 8 2 0 8 6 10
split_gain=59.9853 9.05474 7.48049 5.59212 5.11392 4.65257 3.96275 3.2998 3.00536 3.33462 2.72281 2.63727 2.60918 3.91323 1.90302 1.89679 1.95409 1.88221 1.78471 1.77289 1.66667 1.5325 1.44231 1.38473 1.2844 2.34747 2.8342 1.99862 1.6822 1.49334
threshold=5875011.0000000009 13.500000000000002 175.50000000000003 1.0000000180025095e-35 11863572.500000002 36.500000000000007 446092.00000000006 29711.500000000004 2.5000000000000004 3.5000000000000004 525742.00000000012 9224.0000000000018 168.50000000000003 1.5000000000000002 671.00000000000011 7.5000000000000009 78.500000000000014 319.50000000000006 1976341.5000000002 576.50000000000011 484.50000000000006 10.500000000000002 1.5000000000000002 8.5000000000000018 4994.5000000000009 146.50000000000003 387.00000000000006 12783.500000000002 68.500000000000014 18530937.500000004
decision_type=2 2 2 2 2 2 2 2 2 2 2 2 2 2 2 2 2 2 2 2 2 2 2 2 2 2 2 2 2 2
left_child=1 12 3 4 8 6 7 11 9 22 14 -5 -1 -14 15 19 -17 23 -7 -6 -18 -4 -3 -15 25 26 28 29 -16 -26
right_child=-2 2 21 5 10 18 -8 -9 -10 -11 -12 -13 13 17 24 16 20 -19 -20 -21 -22 -23 -24 -25 27 -27 -28 -29 -30 -31
leaf_value=-0.0070284957567187173 0.1274833487579306 -0.0014341426864668202 -0.0026241195524487173 -0.0063054285241415271 0.0094679851500038097 0.0039351339472810543 -0.0045517858532753861 0.021475038514443226 -0.0048814424993796788 0.017228620166574896 -0.0058031160752673831 0.00066229423530971422 0.0044066318717713897 -0.0061034965144979849 0.0046021487239957066 -0.0047778931126325188 0.0052453196822812749 -0.0051066170116259293 0.020302996957967404 -0.0073184844500571809 -0.0063519979148632362 0.03231831219453795 -0.0064617400408109663 0.0025847134364259355 0.0010929480616972576 0.0095051665884270057 -0.0060787745832549317 0.0013071462634971611 -0.0046272177656619257 -0.0053951310005965593
leaf_weight=61 209 26 10.999999999999998 52 14.000000000000002 38 24 26 184 30 49 290 31 12.999999999999998 66 81 20.000000000000004 182 59 11.999999999999998 9.9999999999999982 52 52 20 15.999999999999998 33 15.999999999999998 113 27 73
leaf_count=61 209 26 11 52 14 38 24 26 184 30 49 290 31 13 66 81 20 182 59 12 10 52 52 20 16 33 16 113 27 73
internal_value=-0.000740741 -0.00388162 -0.00214702 -0.00295576 -0.00547445 0.00127812 -0.00114796 0.00013587 -0.0107877 -0.00416667 -0.00254717 -0.00116959 -0.011645 -0.00934959 -0.00140333 -0.00638686 -0.00923423 -0.0117442 0.0110825 0.00576923 0.00166667 0.0146825 -0.00961538 -0.000757576 0.000581395 0.00422535 0.000688073 -0.0019802 0.00403226 -0.00758427
internal_weight=1890 1681 1374 1311 822 489 392 368 292 108 530 342 307 246 481 137 111 215 97 26 30 63 78 33 344 142 109 202 93 89
internal_count=1890 1681 1374 1311 822 489 392 368 292 108 530 342 307 246 481 137 111 215 97 26 30 63 78 33 344 142 109 202 93 89
is_linear=0
shrinkage=0.05


Tree=8
num_leaves=31
num_cat=0
split_feature=8 2 6 14 11 0 6 8 8 6 9 11 0 1 9 8 6 0 6 11 12 0 1 6 0 0 9 8 13 12
split_gain=60.9983 7.38663 6.57476 6.01266 4.01484 3.62554 3.06461 3.43468 2.91773 2.91688 2.40688 2.21743 1.81238 4.88486 2.14551 2.01684 2.14807 1.81602 2.18182 1.86042 1.7547 1.8559 1.70168 2.57565 2.3512 1.71607 1.68318 1.64062 1.56705 1.94712
threshold=8050941.0000000009 9.5000000000000018 177.50000000000003 1.0000000180025095e-35 10876595.000000002 76.500000000000014 111.50000000000001 29711.500000000004 584007.00000000012 1.5000000000000002 22651.500000000004 2291545.0000000005 337.50000000000006 78.500000000000014 39903.000000000007 399.00000000000006 20.500000000000004 96.500000000000014 112.50000000000001 35722247.500000007 12.500000000000002 71.500000000000014 15.500000000000002 3.5000000000000004 2178.5000000000005 97.500000000000014 7610.5000000000009 671.00000000000011 1.5000000000000002 12.500000000000002
decision_type=2 2 2 2 2 2 2 2 2 2 2 2 2 2 2 2 2 2 2 2 2 2 2 2 2 2 2 2 2 2
left_child=1 8 3 4 9 6 7 10 26 28 -5 -7 14 27 -6 -16 -17 20 19 -19 21 -18 23 -11 -24 -25 -1 -14 29 -3
right_child=-2 2 -4 5 12 11 -8 -9 -10 22 -12 -13 13 -15 15 16 17 18 -20 -21 -22 -23 24 25 -26 -27 -28 -29 -30 -31
leaf_value=-0.0069813379166700357 0.12110918132003406 -0.0040183093000580343 0.029970061999126819 -0.0043972392840401307 0.0068578962695665024 0.0042171221292819682 -0.0033825191266165693 0.013887077649673982 0.023188930609224702 0.0086145375405718462 0.0013557169012368032 0.019487956853625553 -0.006361753953761407 0.00036730893446412923 -0.0039217424073730274 0.0078948451535951376 0.0018818087467753334 -0.0060028105286752649 -0.0022144399119942942 0.0045493973633803494 -0.0070137462903310764 -0.0061919103199463543 -0.0062897392216914351 -0.0046062606700743259 -0.0015192668364436405 0.00040533440361103238 -0.0039526398533364674 -0.0048760523991284808 -0.002655585747595729 0.021795283558464953
leaf_weight=58 205 16.000000000000004 57 67 11.999999999999998 38 15.999999999999998 27 10.999999999999998 20 203 56 35 129 24 27 48 14.999999999999998 21 62 19 26 91 48 23 14.999999999999998 390 86 61 9.9999999999999982
leaf_count=58 205 16 57 67 12 38 16 27 11 20 203 56 35 129 24 27 48 15 21 62 19 26 91 48 23 15 390 86 61 10
internal_value=-0.00101775 -0.00410579 -0.00211661 -0.00290795 -0.00545685 0.00202703 -0.000559105 0.000589226 -0.00953159 -0.0102113 -0.00111111 0.0106383 -0.00277778 -0.0058 0.00019685 -0.000826446 0.000688073 -0.00117801 0.00357143 0.00746753 -0.0061828 -0.0027027 -0.0135787 -0.00813253 -0.0175439 -0.0130952 -0.0101563 -0.0130165 -0.00258621 0.00769231
internal_weight=1916 1711 1252 1195 788 407 313 297 459 284 270 94 504 250 254 242 218 191 98 77 93 74 197 83 114 63 448 121 87 26
internal_count=1916 1711 1252 1195 788 407 313 297 459 284 270 94 504 250 254 242 218 191 98 77 93 74 197 83 114 63 448 121 87 26
is_linear=0
shrinkage=0.05


Tree=9
num_leaves=31
num_cat=0
split_feature=8 0 6 14 6 10 6 8 2 9 8 8 2 13 1 1 13 0 8 6 2 9 10 0 0 0 2 6 0 0
split_gain=60.7806 9.40173 6.63014 3.94268 4.82063 4.7653 2.88615 2.82735 3.06587 2.98524 2.6568 2.65325 3.0375 2.49858 2.05042 1.78778 1.89197 1.77956 2.89828 2.802 2.37173 1.89369 2.13887 1.76471 1.73611 2.28333 2.09199 1.72707 1.68137 1.58716
threshold=11624080.500000002 13.500000000000002 177.50000000000003 1.0000000180025095e-35 99.500000000000014 11287053.000000002 3.5000000000000004 29711.500000000004 24.500000000000004 49447.000000000007 339409.50000000006 119.50000000000001 1.5000000000000002 1.5000000000000002 4.5000000000000009 77.000000000000014 4.5000000000000009 337.50000000000006 671.00000000000011 103.50000000000001 71.500000000000014 39173.500000000007 34362351.000000007 46.500000000000007 46.500000000000007 68.500000000000014 35.500000000000007 20.500000000000004 29.500000000000004 1603.5000000000002
decision_type=2 2 2 2 2 2 2 2 2 2 2 2 2 2 2 2 2 2 2 2 2 2 2 2 2 2 2 2 2 2
left_child=1 11 3 5 7 6 10 8 9 -5 13 -1 -13 -3 -10 17 29 19 -19 20 21 -7 27 -6 -24 -26 -27 -23 -29 -17
right_child=-2 2 -4 4 23 15 -8 -9 14 -11 -12 12 -14 -15 -16 16 -18 18 -20 -21 -22 22 24 -25 25 26 -28 28 -30 -31
leaf_value=-0.006660097218747588 0.13496141134857581 0.0069210034303813159 0.028410669983062676 -0.0036175194351285066 -0.0050285102813272956 0.0067797125078654791 -0.0044013249238200524 0.019744403166175407 0.011748610577151576 0.0024648846794316885 0.021919731662398318 0.0022824762138482259 -0.0045315299583350696 -0.004305630215808663 0.0027130787393233047 0.0033456703610924886 0.021997479680533696 -0.0060985602712663222 -0.0027767983382769204 -0.0055785207815383471 0.010725488530229744 -7.9094605114962693e-05 -0.002304541956050875 0.0048686533465913603 0.0084088004700740276 -0.0044020672949513211 0.0036775761843199392 9.9195130817283927e-05 -0.0071268878472467911 -0.0012225295036468256
leaf_weight=47 200 40 54 122 24 9.9999999999999982 167 39 67 158 9.9999999999999982 30 240 94 68 12.999999999999998 12.999999999999998 36 80 46 25 41 30 9.9999999999999982 17 34 39 13.999999999999998 34 93
leaf_count=47 200 40 54 122 24 10 167 39 67 158 10 30 240 94 68 13 13 36 80 46 25 41 30 10 17 34 39 14 34 93
internal_value=-0.0010686 -0.00414454 -0.00235849 -0.00305891 0.000512295 -0.00514354 -0.0100482 0.00187225 0.000662651 -0.00232143 -0.00486111 -0.0119085 -0.01 -0.00671642 0.00685185 -0.0022381 0.00315126 -0.00381773 -0.00905172 -0.00172414 0.000409836 -0.00125571 -0.00227273 -0.0176471 0.00208333 0.00555556 0.00171233 -0.00814607 -0.0145833 0.000943396
internal_weight=1895 1695 1378 1324 488 836 311 454 415 280 144 317 270 134 135 525 119 406 116 290 244 219 209 34 120 90 73 89 48 106
internal_count=1895 1695 1378 1324 488 836 311 454 415 280 144 317 270 134 135 525 119 406 116 290 244 219 209 34 120 90 73 89 48 106
is_linear=0
shrinkage=0.05


Tree=10
num_leaves=31
num_cat=0
split_feature=8 11 0 6 8 6 11 2 13 0 2 2 1 9 15 12 6 10 2 0 10 12 12 8 6 9 0 2 0 1
split_gain=58.0831 6.86199 5.82729 4.33707 6.37702 3.65177 3.31612 2.79723 2.38253 2.31094 4.29208 3.08597 2.01666 3.05231 3.58042 2.47009 2.09402 1.99839 1.72684 1.63241 1.6268 1.68831 1.59266 1.50472 2.76817 1.45185 1.40675 1.4 1.38846 1.37982
threshold=11624080.500000002 10876595.000000002 18.500000000000004 5.5000000000000009 584007.00000000012 173.50000000000003 208596010.00000003 5.5000000000000009 5.5000000000000009 267.50000000000006 159.50000000000003 71.500000000000014 14.500000000000002 9224.0000000000018 1.0000000180025095e-35 9.5000000000000018 1.0000000180025095e-35 66193751.500000007 12.500000000000002 58.500000000000007 39906015.500000007 11.500000000000002 11.500000000000002 23879.500000000004 74.500000000000014 57294.500000000007 387.00000000000006 25.500000000000004 46.500000000000007 206.00000000000003
decision_type=2 2 2 2 2 2 2 2 2 2 2 2 2 2 2 2 2 2 2 2 2 2 2 2 2 2 2 2 2 2
left_child=1 3 -3 4 7 6 8 -1 9 11 -11 23 13 14 15 -9 -14 20 -15 -8 22 -22 -12 -4 -25 -24 -21 -17 -16 -5
right_child=-2 2 5 29 -6 -7 19 12 -10 10 17 -13 16 18 28 27 -18 -19 -20 26 21 -23 25 24 -26 -27 -28 -29 -30 -31
leaf_value=-0.0061332195870500011 0.10830565168660358 -0.0038030085232018799 1.0117492713812572e-05 -0.0045371060793540181 0.021763004217370225 0.022827947958277004 -0.0062094201065687098 -0.0051264584111549542 0.0082273495221973029 -0.0048636172911904006 -0.0032848275767815892 0.021784355887430367 0.011302301670841867 -0.00066187771619724979 -0.0039273696788888496 -0.0037332525663927515 -0.0066588541963347242 0.015366692725057411 0.0055935472607662462 0.00063630695180659437 -0.00063405630483512896 -0.0080091290719744527 3.1263801313545501e-05 0.0057056573074643503 -0.0010476203541525141 0.0069369067417761627 -0.0051587245632756353 0.0062331721529812261 0.030909891155643989 0.0085296206894545264
leaf_weight=42 191 279 363 212 28 54 21 81 45 90 46 18 18 31 10.000000000000002 14.999999999999998 60 29 47 26 22 12.999999999999998 15.000000000000002 24 13.999999999999998 11.999999999999998 21 21 15.999999999999998 12.999999999999998
leaf_count=42 191 279 363 212 28 54 21 81 45 90 46 18 18 31 10 15 60 29 47 26 22 13 15 24 14 12 21 21 16 13
internal_value=-0.00113213 -0.00409253 -0.00173993 -0.00841751 -0.0050813 0.000399754 -0.000494071 -0.00696481 0.000542692 -0.000232198 -0.00429515 0.00196897 -0.00526756 -0.00282805 -0.00716783 -0.0108974 -0.0121795 0.00127737 0.00512821 -0.0110294 -0.00185185 -0.0107143 0.00239726 0.00105985 0.0105263 0.012037 -0.00585106 0 0.00961538 -0.0138889
internal_weight=1877 1686 1092 594 369 813 759 341 691 646 227 419 299 221 143 117 78 137 78 68 108 35 73 401 38 27 47 36 26 225
internal_count=1877 1686 1092 594 369 813 759 341 691 646 227 419 299 221 143 117 78 137 78 68 108 35 73 401 38 27 47 36 26 225
is_linear=0
shrinkage=0.05


Tree=11
num_leaves=31
num_cat=0
split_feature=8 2 6 0 2 2 12 15 8 0 10 8 8 1 10 6 11 6 12 12 8 12 0 10 10 10 0 6 8 10
split_gain=56.2445 7.365 6.80548 5.16601 10.8764 2.935 2.88582 3.00189 2.41758 2.44565 2.28532 2.19049 2.09043 1.96459 1.82052 1.7219 1.70107 2.44599 1.94877 1.84443 2.43567 1.6268 1.56554 2.10947 2.68149 1.50372 1.4717 1.39862 1.79499 1.95375
threshold=11624080.500000002 10.500000000000002 177.50000000000003 337.50000000000006 159.50000000000003 32.500000000000007 9.5000000000000018 1.0000000180025095e-35 15398.000000000002 41.500000000000007 66193751.500000007 584007.00000000012 44880.500000000007 2.5000000000000004 561611.50000000012 97.500000000000014 37714338.000000007 38.500000000000007 2.5000000000000004 12.500000000000002 443.00000000000006 10.500000000000002 81.500000000000014 156082558.00000003 102900964.00000001 128085.50000000001 191.50000000000003 47.500000000000007 372.50000000000006 10081737.500000002
decision_type=2 2 2 2 2 2 2 2 2 2 2 2 2 2 2 2 2 2 2 2 2 2 2 2 2 2 2 2 2 2
left_child=1 11 3 5 -5 8 7 13 16 -10 -6 14 -12 -7 -1 27 18 -18 -3 -20 -21 -8 23 24 -19 -15 -27 28 29 -16
right_child=-2 2 -4 4 10 6 21 -9 9 -11 12 -13 -14 25 15 -17 17 22 19 20 -22 -23 -24 -25 -26 26 -28 -29 -30 -31
leaf_value=-0.0058916728514886319 0.10289036910227339 0.0052665691370253447 0.026641962587787733 -0.0051940155444473272 -0.00089029453861372016 0.010543818039717053 0.011107609942506903 0.025396193350429305 0.013392203955425742 -0.00078594185018212312 0.018023081024185175 0.017970793374438555 -0.00094773120817589769 -0.0042499771522807274 -0.0040373467103663853 -0.004747930022889927 0.0093673512729956967 -0.0040734191100212794 -0.0036231766124653272 0.0059963722692050392 -0.0023046634496218898 0.0054427456080318008 -0.0065978033352308068 -0.0013056271752745153 0.0062250694452772931 0.0013599207572270969 -0.0055721580365549993 -0.0017330878410266315 -0.004845594681166944 0.0020992054579802551
leaf_weight=52 189 9.9999999999999982 54 162 175 14.999999999999998 31 10.999999999999998 46 46 37 15.999999999999998 13.999999999999998 19 66 80 32 30 177 32 23 79 14.999999999999998 17 29 69 39 67 175 48
leaf_count=52 189 10 54 162 175 15 31 11 46 46 37 16 14 19 66 80 32 30 177 32 23 79 15 17 29 69 39 67 175 48
internal_value=-0.000849057 -0.00378151 -0.00159208 -0.00243682 -0.00708763 6.94444e-05 0.00427757 -0.000163399 -0.0023523 0.0048913 0 -0.00882937 0.00931373 -0.00211268 -0.00942623 -0.00837156 -0.00417808 0.000609756 -0.00661157 -0.0075431 0.000454545 0.0104545 -0.00357143 -0.000657895 0.00381356 -0.00413386 -0.00185185 -0.00688202 -0.008391 -0.00350877
internal_weight=1855 1666 1162 1108 388 720 263 153 457 92 226 504 51 142 488 436 365 123 242 232 55 110 91 76 59 127 108 356 289 114
internal_count=1855 1666 1162 1108 388 720 263 153 457 92 226 504 51 142 488 436 365 123 242 232 55 110 91 76 59 127 108 356 289 114
is_linear=0
shrinkage=0.05


Tree=12
num_leaves=31
num_cat=0
split_feature=8 2 14 6 8 9 2 9 1 2 2 9 8 2 0 6 0 6 1 4 1 0 0 12 0 2 1 8 13 15
split_gain=58.3639 6.17774 6.09799 3.34502 3.02554 2.9158 3.24796 2.54341 2.52208 4.2074 3.13305 2.34678 1.94444 1.69818 1.75833 1.63268 1.54762 1.54649 1.48764 1.80288 1.48205 1.43738 1.44727 1.38792 2.46914 2.19872 1.38674 1.47005 1.37812 1.352
threshold=11624080.500000002 11.500000000000002 1.0000000180025095e-35 177.50000000000003 339409.50000000006 34782.000000000007 37.500000000000007 4140.0000000000009 11.500000000000002 31.500000000000004 171.00000000000003 93873.500000000015 21114.500000000004 1.5000000000000002 7.5000000000000009 111.50000000000001 816.50000000000011 177.50000000000003 228.00000000000003 1.5000000000000002 555.50000000000011 78.500000000000014 43.500000000000007 7.5000000000000009 123.50000000000001 57.500000000000007 5.5000000000000009 228.50000000000003 3.5000000000000004 1.0000000180025095e-35
decision_type=2 2 2 2 2 2 2 2 2 2 2 2 2 2 2 2 2 2 2 2 2 2 2 2 2 2 2 2 2 2
left_child=1 4 3 8 7 29 15 -1 9 21 11 -10 -13 -9 -15 -7 -12 -17 19 -18 -20 22 -3 -11 -25 -26 -24 -28 -22 -4
right_child=-2 2 5 -5 -6 6 -8 13 10 23 16 12 -14 14 -16 17 18 -19 20 -21 28 -23 26 24 25 -27 27 -29 -30 -31
leaf_value=-0.0057576346093030856 0.097745850647159724 -0.0031185851488642283 -0.0017558070438464211 0.029175887380031323 0.015862685525862182 0.0034222402654349535 0.018587402218724004 0.0016981003039242229 -0.0052894989717179111 -0.00034238633348217392 0.0065054301069219916 -0.00053795241372028846 -0.004552573506169803 -0.0057633108642017655 -0.003077889548451878 -0.0012403458165107892 0.00090231894830634376 0.0077945697493041954 0.0042278196540461253 -0.0056997936948913414 -0.0029661055625394709 -0.005339072301337372 0.00098213853526799011 0.008122281964309943 -0.001725820704614986 0.0090438696277745576 -0.0045845751160876087 -9.1466111419291621e-05 0.011958887696082511 0.016924481679350744
leaf_weight=56 186 42 100 25 15.999999999999998 163 61 28 146 38 12.999999999999998 63 42 85 356 13.000000000000002 30 9.9999999999999982 24 48 64 44 57 27 26 28 10.000000000000002 19 15.999999999999998 25
leaf_count=56 186 42 100 25 16 163 61 28 146 38 13 63 42 85 356 13 30 10 24 48 64 44 57 27 26 28 10 19 16 25
internal_value=-0.00157174 -0.00452239 -0.00242504 -0.00498688 -0.00891867 0.00282258 0.00597166 -0.00957143 -0.00559701 -0.00197595 -0.00795964 -0.0116534 -0.00595238 -0.00836887 -0.00912698 0.00268817 -0.00320513 -0.00978261 -0.0043956 -0.00961538 -0.000480769 -0.00697674 -0.00429688 0.0052521 0.00895062 0.00277778 -0.000581395 -0.00948276 -0.00375 -0.0034
internal_weight=1861 1675 1134 762 541 372 247 525 737 291 446 251 105 469 441 186 195 23 182 78 104 172 128 119 81 54 86 29 80 125
internal_count=1861 1675 1134 762 541 372 247 525 737 291 446 251 105 469 441 186 195 23 182 78 104 172 128 119 81 54 86 29 80 125
is_linear=0
shrinkage=0.05


Tree=13
num_leaves=31
num_cat=0
split_feature=8 2 11 0 2 9 10 6 6 8 9 6 12 11 16 6 10 2 9 12 2 0 8 10 6 12 6 2 11 8
split_gain=57.6326 7.18547 5.67661 5.58588 3.65558 3.3522 3.22904 3.05137 3.34571 2.17066 2.25477 1.91943 2.86749 2.61583 2.19978 1.9055 1.90487 1.87097 2.17893 1.79701 1.66287 1.59712 1.5391 1.46314 1.4067 1.23305 2.24804 3.26667 1.96 1.805
threshold=11624080.500000002 11.500000000000002 24476852.000000004 381.00000000000006 159.50000000000003 7610.5000000000009 2236344.0000000005 20.500000000000004 185.50000000000003 46004.500000000007 93873.500000000015 13.500000000000002 15.500000000000002 2485261.0000000005 3.5000000000000004 1.5000000000000002 50082491.500000007 28.500000000000004 61745.000000000007 9.5000000000000018 3218.5000000000005 216.50000000000003 452.00000000000006 5124682.0000000009 151.50000000000003 7.5000000000000009 112.50000000000001 94.500000000000014 110961081.00000001 925.50000000000011
decision_type=2 2 2 2 2 2 2 2 2 2 2 2 2 2 2 2 2 2 2 2 2 2 2 2 2 2 2 2 2 2
left_child=1 5 3 11 -5 -1 -7 -4 9 10 16 12 13 14 19 -16 22 18 23 -3 -6 -19 -9 -15 -11 28 -27 -28 29 -12
right_child=-2 2 7 4 20 6 -8 8 -10 24 25 -13 -14 17 15 -17 -18 21 -20 -21 -22 -23 -24 -25 -26 26 27 -29 -30 -31
leaf_value=-0.0053823136095960157 0.092858558114801731 -0.0041155112950905766 0.0090621234143607853 -0.0049649730260057914 -0.0037875295539419999 0.0064536623740980327 -0.0033624591371020363 0.0038994288980449044 0.024136889939383455 -0.0046070763754951982 0.014358124493239553 -0.0039644558472989649 0.012366025909473095 0.0053799961434456318 0.017349465191426956 -0.00206169161328279 0.021892030525275417 0.016594010504403674 0.027586899172018217 0.0011591500367354583 0.0085861684834369883 -0.0022287900544602419 -0.0058490552462603356 -0.0025531034140501754 0.0011146049619840663 0.0033899293940416828 -0.0015317405204594266 0.009850617139048945 0.0013664845289134615 -0.0049342631163803467
leaf_weight=69 199 81 56 90 101 29 446 11.999999999999998 40 33 9.9999999999999982 86 19 19 26 10.999999999999998 10.999999999999998 30 13.999999999999998 36 13.999999999999998 10.999999999999998 40 32 24 229 20.000000000000004 9.9999999999999982 50 40
leaf_count=69 199 81 56 90 101 29 446 12 40 33 10 86 19 19 26 11 11 30 14 36 14 11 40 32 24 229 20 10 50 40
internal_value=-0.000450212 -0.00344879 -0.00120087 -0.00473684 -0.0113415 -0.00818015 -0.00668421 0.00230435 0.0011079 -5.21921e-05 0.00118483 -0.0010274 0.000985663 -0.000384615 -0.00454545 0.00608108 -0.00753968 0.00566038 0.000384615 -0.00790598 -0.00543478 0.0140244 -0.0115385 -0.00441176 -0.00921053 0.00271588 0.00453668 -0.00833333 -0.002 -0.009
internal_weight=1888 1689 1145 570 205 544 475 575 519 479 422 365 279 260 154 37 63 106 65 117 115 41 52 51 57 359 259 30 100 50
internal_count=1888 1689 1145 570 205 544 475 575 519 479 422 365 279 260 154 37 63 106 65 117 115 41 52 51 57 359 259 30 100 50
is_linear=0
shrinkage=0.05


Tree=14
num_leaves=31
num_cat=0
split_feature=9 15 11 11 0 6 11 0 14 2 11 6 1 1 6 0 6 9 11 2 0 11 6 4 2 9 12 6 11 9
split_gain=42.8267 9.41828 10.6147 6.64264 4.97088 2.35989 4.70012 2.91212 2.15609 4.19279 2.0592 3.429 2.01364 1.86768 1.84389 1.82701 2.1667 1.95023 2.68299 1.88368 2.12675 1.73767 2.66811 1.55896 1.7162 1.51942 1.37614 1.35665 1.96923 1.925
threshold=786200.00000000012 1.0000000180025095e-35 10585091.500000002 10876595.000000002 17.500000000000004 2.5000000000000004 314548.50000000006 46.500000000000007 1.0000000180025095e-35 39.500000000000007 3084136.0000000005 8.5000000000000018 70.500000000000014 10.500000000000002 222.50000000000003 337.50000000000006 103.50000000000001 93873.500000000015 43615896.000000007 34.500000000000007 71.500000000000014 35722247.500000007 18.500000000000004 15.500000000000002 2748.0000000000005 607881.50000000012 8.5000000000000018 69.500000000000014 59556421.500000007 320623.00000000006
decision_type=2 2 2 2 2 2 2 2 2 2 2 2 2 2 2 2 2 2 2 2 2 2 2 2 2 2 2 2 2 2
left_child=1 3 5 -1 -5 6 7 -3 12 27 -7 -12 15 -9 -2 16 19 -17 -19 20 -6 22 -21 -14 -25 -18 -26 28 -10 -29
right_child=14 2 -4 4 8 10 -8 13 9 -11 11 -13 23 -15 -16 17 25 18 -20 21 -22 -23 -24 24 26 -27 -28 29 -30 -31
leaf_value=-0.0038218433831901711 0.10812331930360511 -0.0044877353132121321 0.088113277113053348 -0.0032044182481804706 0.00031252097102548311 -0.0031045480005380947 0.01833127085116083 0.05237202839430101 -0.00080528497788652791 0.017937874288958346 0.015352138941899497 -0.0046494066450329828 0.0027577775756002193 -0.0010321918031210048 0.017969177099113078 -0.0050603946741608966 -0.0048793379246660235 0.0047203261238445305 -0.0039035731837755226 0.0058521087578159003 -0.0048496507121785206 0.0034293129217692038 -0.0060814740879474556 -0.006363098505217696 -0.0079726267381497028 0.0028775080274274292 0.010616894018263863 -0.0062829432286586155 0.008910507756530104 -0.00084924833265809664
leaf_weight=478 148 22 59 266 95 15.999999999999998 23 14.999999999999998 117 45 10.000000000000002 10.999999999999998 67 18 23 45 36 9.9999999999999982 72 13.999999999999998 54 58 22 22 12.999999999999998 17 27 10.999999999999998 45 45
leaf_count=478 148 22 59 266 95 16 23 15 117 45 10 11 67 18 23 45 36 10 72 14 54 58 22 22 13 17 27 11 45 45
internal_value=-0.000919118 -0.00327467 0.00775862 -0.00450609 -0.0023358 -0.00108696 0.00384615 -0.00409091 -0.000398773 0.003327 -0.0114865 -0.00119048 -0.00217391 0.00530303 0.0229532 -0.00384161 -0.00168919 -0.00885827 -0.00426829 0.000308642 -0.00318792 0.00585106 -0.00277778 0.00329457 -0.00241935 -0.0108491 0.00375 0.000458716 0.00277778 -0.00625
internal_weight=1904 1733 174 1559 1081 115 78 55 815 263 37 21 552 33 171 423 296 127 82 243 149 94 36 129 62 53 40 218 162 56
internal_count=1904 1733 174 1559 1081 115 78 55 815 263 37 21 552 33 171 423 296 127 82 243 149 94 36 129 62 53 40 218 162 56
is_linear=0
shrinkage=0.05


Tree=15
num_leaves=31
num_cat=0
split_feature=8 0 14 6 1 11 11 6 8 1 11 12 0 0 8 11 11 8 0 1 11 4 11 0 2 1 8 12 0 11
split_gain=59.7522 5.31735 7.09213 3.77277 2.8925 2.88829 2.53981 3.77556 3.16487 3.04768 3.33622 2.47846 2.25558 2.1558 2.1477 2.6591 2.48062 2.04849 1.7539 1.50341 1.39007 2.45623 2.33472 1.98003 2.47831 2.05922 1.92734 1.76164 1.36109 1.35747
threshold=11624080.500000002 19.500000000000004 1.0000000180025095e-35 151.50000000000003 10.500000000000002 665161.00000000012 10876595.000000002 2.5000000000000004 46226.500000000007 11.500000000000002 272716.00000000006 10.500000000000002 2.5000000000000004 76.500000000000014 41056.000000000007 147714588.50000003 1700829.0000000002 319.50000000000006 6.5000000000000009 37.500000000000007 29060602.500000004 1.0000000180025095e-35 22821262.500000004 583.50000000000011 85.500000000000014 16.500000000000004 2116.5000000000005 8.5000000000000018 393.50000000000006 2116070.0000000005
decision_type=2 2 2 2 2 2 2 2 2 2 2 2 2 2 2 2 2 2 2 2 2 2 2 2 2 2 2 2 2 2
left_child=1 5 3 6 14 -1 7 9 11 10 13 20 -7 -3 15 16 -4 18 -14 -11 21 22 -8 24 25 -22 -25 -28 -5 -9
right_child=-2 2 4 28 -6 12 8 29 -10 19 -12 -13 17 -15 -16 -17 -18 -19 -20 -21 23 -23 -24 26 -26 -27 27 -29 -30 -31
leaf_value=-0.0049983743733480988 0.10271715333842485 -0.0040092263315863394 -0.0020865662887646639 0.0027336326260560583 0.029338030891934947 0.0030583924635683257 0.0041308579331267338 -0.004871238403564019 -0.0042303332461715946 -0.0051708065064459408 0.01322193150533655 -0.0027104455076048086 -0.0044882520559487021 0.0053303174508645863 0.011446583938254568 -0.0013640501001861817 0.0034368261887049636 -0.0030596561211352589 0.0010785211972816941 0.0069458479234614824 -3.0201849104287418e-06 -0.0054493739503071494 -0.005262348252796048 0.015490736308125816 -0.0044813677108214598 0.0058529442379028577 -0.0022557344073418223 0.0090483413377215865 0.021507313928374714 -0.0034131618686485277
leaf_weight=54 199 13.999999999999998 70 31 26 35 30 44 21 33 15.999999999999998 186 20 29 57 28 232 272 73 14.999999999999998 100 46 18 21 22 12.999999999999998 19 12.999999999999998 24 137
leaf_count=54 199 14 70 31 26 35 30 44 21 33 16 186 20 29 57 28 232 272 73 15 100 46 18 21 22 13 19 13 24 137
internal_value=-0.000922023 -0.00395821 -0.00226908 -0.00492788 0.00308717 -0.00859031 -0.00582368 -0.00954861 -0.00362986 -0.0021028 0.00550847 -0.00277778 -0.007125 -0.00174419 0.00200258 0.000454545 0.00182119 -0.00828767 -0.00188172 -0.0114583 0.000177305 -0.00478723 0.003125 0.00265957 -0.000555556 0.00243363 0.0108491 0.003125 0.00772727 -0.0139503
internal_weight=1898 1699 1245 832 413 454 777 288 489 107 59 468 400 43 387 330 302 365 93 48 282 94 48 188 135 113 53 32 55 181
internal_count=1898 1699 1245 832 413 454 777 288 489 107 59 468 400 43 387 330 302 365 93 48 282 94 48 188 135 113 53 32 55 181
is_linear=0
shrinkage=0.05


Tree=16
num_leaves=31
num_cat=0
split_feature=8 9 6 2 14 9 2 1 6 2 2 9 1 2 6 6 8 6 13 12 6 8 6 8 2 1 8 1 1 12
split_gain=56.5365 5.16913 4.49138 3.12981 5.90245 3.98059 3.38754 3.01787 3.26036 3.99459 2.7501 2.82622 2.72999 2.49964 1.93215 1.78965 1.71875 1.62427 1.6 1.48052 1.44604 1.69268 1.41178 1.4072 1.38866 1.37143 1.31651 1.30455 1.55303 1.73611
threshold=11624080.500000002 9224.0000000000018 1.5000000000000002 10.500000000000002 1.0000000180025095e-35 707800.00000000012 47.500000000000007 216.50000000000003 27.500000000000004 91.000000000000014 1.5000000000000002 425831.50000000006 3.5000000000000004 18.500000000000004 37.500000000000007 20.500000000000004 23879.500000000004 1.5000000000000002 2.5000000000000004 8.5000000000000018 44.500000000000007 372.50000000000006 66.500000000000014 13089.500000000002 30.500000000000004 6.5000000000000009 1644.0000000000002 555.50000000000011 1212.0000000000002 11.500000000000002
decision_type=2 2 2 2 2 2 2 2 2 2 2 2 2 2 2 2 2 2 2 2 2 2 2 2 2 2 2 2 2 2
left_child=1 13 19 10 5 7 23 8 9 12 16 20 24 -1 18 26 -4 -15 -10 -3 21 -12 -22 -6 -5 -19 -14 -9 -29 -30
right_child=-2 2 3 4 6 -7 -8 27 14 -11 11 -13 15 17 -16 -17 -18 25 -20 -21 22 -23 -24 -25 -26 -27 -28 28 29 -31
leaf_value=-0.0046388924447882023 0.097581295671503601 0.0042929340714471988 -0.0013731044521121923 -0.002745788387992889 4.4552361999886104e-05 0.02587852605956649 0.020809244626987286 0.0039031549380868519 0.0031955787492318915 -0.0043841821997341046 -0.00083518116913627459 -0.0044935813668721914 0.0069417516021253239 -0.00093796742426595229 -0.0013173285908983424 -0.0050112007280492766 0.02533699362988949 0.0030918095665002942 -0.0030028772566989196 0.016024109733184754 0.0054975441327251677 -0.0032969238088618458 -0.0030683583162276437 0.0076731336653227877 0.0006161699761210352 -0.0052599660768229139 -0.00078448110161791207 -0.0053703010757843155 0.0096671547219564363 -0.0038011097464356563
leaf_weight=105 194 13.999999999999998 22 38 191 14.999999999999998 45 28 36 123 100 67 41 110 222 20 9.9999999999999982 11.999999999999998 24 19 31 169 34 72 13.999999999999998 30 34 22 36 24
leaf_count=105 194 14 22 38 191 15 45 28 36 123 100 67 41 110 222 20 10 12 24 19 31 169 34 72 14 30 34 22 36 24
internal_value=-0.000578339 -0.00348361 -0.00232598 -0.00275035 -0.00119289 -0.00380355 0.00454545 -0.00438066 -0.00588768 -0.00981481 -0.0062933 -0.00741895 -0.0042517 -0.0100195 -0.00212766 0.000789474 0.0078125 -0.00592105 0.00583333 0.0159091 -0.00553892 -0.00715613 0.00115385 0.00237643 -0.0134615 -0.0142857 0.00433333 0.00318182 0 0.00416667
internal_weight=1902 1708 1451 1418 985 677 308 662 552 270 433 401 147 257 282 95 32 152 60 33 334 269 65 263 52 42 75 110 82 60
internal_count=1902 1708 1451 1418 985 677 308 662 552 270 433 401 147 257 282 95 32 152 60 33 334 269 65 263 52 42 75 110 82 60
is_linear=0
shrinkage=0.05


Tree=17
num_leaves=31
num_cat=0
split_feature=8 0 6 14 10 1 0 1 2 2 6 1 2 8 6 10 10 10 16 6 13 8 9 10 4 10 9 6 0 10
split_gain=54.825 6.32967 5.39063 4.53854 3.12874 2.96677 3.59879 3.18587 2.39899 2.30394 2.73265 2.18904 1.91435 1.77615 1.72697 1.70314 2.62331 1.61004 1.49593 1.4948 2.33044 2.07258 2.05214 1.45043 1.44971 1.44048 1.54286 1.38408 1.86803 1.38223
threshold=19240265.500000004 19.500000000000004 177.50000000000003 1.0000000180025095e-35 561611.50000000012 261.50000000000006 337.50000000000006 29.500000000000004 88.500000000000014 43.500000000000007 111.50000000000001 14.500000000000002 1.5000000000000002 29882.000000000004 2.5000000000000004 148045142.50000003 34362351.000000007 10081737.500000002 1.0000000180025095e-35 10.500000000000002 3.5000000000000004 452.00000000000006 14878.000000000002 10692739.000000002 10.500000000000002 118912151.00000001 91053.000000000015 22.500000000000004 7.5000000000000009 381109.50000000006
decision_type=2 2 2 2 2 2 2 2 2 2 2 2 2 2 2 2 2 2 2 2 2 2 2 2 2 2 2 2 2 2
left_child=1 4 3 5 -1 6 8 11 15 10 13 -8 -6 -5 -11 16 -3 29 25 20 21 22 -14 -21 -19 26 -18 28 -25 -9
right_child=-2 2 -4 9 12 -7 7 17 -10 14 -12 -13 19 -15 -16 -17 18 24 -20 23 -22 -23 -24 27 -26 -27 -28 -29 -30 -31
leaf_value=-0.004516511032441284 0.092702230887928422 -0.0020329959282795484 0.021426428493111934 -4.2182436742171925e-05 0.0044715171851171815 0.0012539860804696074 0.0019204391467404248 2.3424863302803913e-05 0.0159521805759609 -2.459555004251865e-05 -0.0040179141542015196 -0.0049448570154035018 -0.0047027180291157704 0.012102491186736534 0.019406146135005634 -0.0039529501543180984 0.011910239506574978 0.00052473814782130692 0.0017646126709881305 -0.0043014197686303702 0.0056384082714875071 -0.002522603365409889 0.001091314493484838 -0.0056593493475966235 -0.0043747302769456967 0.0075049582149827355 -0.0046029785967008656 -0.0036787015147454333 0.0012716502405600309 -0.0050423131167114344
leaf_weight=52 191 246 51 269 30 104 11.999999999999998 14.999999999999998 19 28 13.999999999999998 112 12.999999999999998 29 48 51 9.9999999999999982 70 69 21 20 24 32 19 11.999999999999998 11.999999999999998 32 195 35 44
leaf_count=52 191 246 51 269 30 104 12 15 19 28 14 112 13 29 48 51 10 70 69 21 20 24 32 19 12 12 32 195 35 44
internal_value=-0.000651943 -0.00352488 -0.00170409 -0.00238294 -0.00867347 -0.00451733 -0.00568182 -0.010283 -0.00290433 0.00206186 0.000160256 -0.016129 -0.00713368 0.0011745 0.00986842 -0.00369048 -0.00250678 -0.00514184 0.00345528 -0.00814763 -0.00252809 -0.00688406 -0.000555556 -0.01 -0.000609756 -0.00277778 -0.00714286 -0.00893574 -0.00185185 -0.0114407
internal_weight=1879 1688 1247 1196 441 808 704 265 439 388 312 124 389 298 76 420 369 141 123 359 89 69 45 270 82 54 42 249 54 59
internal_count=1879 1688 1247 1196 441 808 704 265 439 388 312 124 389 298 76 420 369 141 123 359 89 69 45 270 82 54 42 249 54 59
is_linear=0
shrinkage=0.05


Tree=18
num_leaves=31
num_cat=0
split_feature=8 0 6 9 0 1 6 0 10 10 9 15 9 6 8 10 8 6 10 0 0 0 0 8 4 0 13 1 0 0
split_gain=53.9489 6.22391 3.02884 2.63679 2.29658 4.89419 2.69155 2.68305 3.06312 2.53169 2.37238 3.04283 2.35311 2.31631 1.98367 1.85204 1.83358 1.53164 1.51099 1.48262 1.41132 1.5783 1.44266 1.3394 1.25014 1.20617 1.20511 1.57049 1.43595 1.35
threshold=11624080.500000002 13.500000000000002 207.50000000000003 4140.0000000000009 337.50000000000006 46.500000000000007 103.50000000000001 23.500000000000004 249205924.50000003 66193751.500000007 14878.000000000002 1.0000000180025095e-35 93873.500000000015 1.5000000000000002 472.50000000000006 3607013.5000000005 23879.500000000004 30.500000000000004 316476.00000000006 582.50000000000011 138.50000000000003 121.50000000000001 103.50000000000001 44880.500000000007 1.0000000180025095e-35 12318.000000000002 1.5000000000000002 6.5000000000000009 51.500000000000007 16.500000000000004
decision_type=2 2 2 2 2 2 2 2 2 2 2 2 2 2 2 2 2 2 2 2 2 2 2 2 2 2 2 2 2 2
left_child=1 3 4 -1 6 12 10 -8 -9 14 11 26 18 -12 -7 -16 19 -17 -6 24 21 22 -15 25 -14 -11 -3 28 29 -28
right_child=-2 2 -4 -5 5 9 7 8 -10 23 13 -13 16 20 15 17 -18 -19 -20 -21 -22 -23 -24 -25 -26 -27 27 -29 -30 -31
leaf_value=-0.0043402908437637257 0.069159932358516141 -0.00048488270380260686 0.017613932086453243 -0.0031309174044211077 -0.00048228249767804933 0.00066123588234283869 -0.0052706217364813061 -0.0021248043716037357 0.019485685701591055 0.015249236678278787 0.018237573499581276 0.014614990020779773 0.00067244915932573738 -0.00017592315076061518 -0.0063413743776977102 -0.00076390110502412849 -0.0038993187245115997 -0.004486203896485126 -0.0047048811546190313 0.0075379148909964422 0.0042028618047930764 -0.003304943505900361 0.004845001893117807 -0.00058519112714670244 -0.0039095090768375947 0.00049640041968895268 0.0058333306124798553 -0.0038267962469248069 0.0005535295658691292 -0.0037973921194578994
leaf_weight=32 193 47 28 275 19 70 25 56 18 24 13.999999999999998 32 19 513 13.999999999999998 55 32 29 83 11.999999999999998 97 12.999999999999998 34 15.999999999999998 12.000000000000002 12.999999999999998 11.999999999999998 38 31 48
leaf_count=32 193 47 28 275 19 70 25 56 18 24 14 32 19 513 14 55 32 29 83 12 97 13 34 16 12 13 12 38 31 48
internal_value=-0.000577731 -0.00340444 -0.0019943 -0.00985342 -0.00232558 -0.00552764 -0.00102249 -0.00883838 -0.00405405 -0.000565611 -0.000142207 -0.00480769 -0.0117232 0.00130402 -0.00357143 -0.00816327 -0.005 -0.00535714 -0.0166667 0.00174419 0.00087519 -8.92857e-05 0.000319927 0.00896226 -0.00403226 0.0141892 -0.00738636 -0.00988372 -0.00631868 -0.0108333
internal_weight=1904 1711 1404 307 1376 398 978 99 74 221 879 208 177 671 168 98 75 84 102 43 657 560 547 53 31 37 176 129 91 60
internal_count=1904 1711 1404 307 1376 398 978 99 74 221 879 208 177 671 168 98 75 84 102 43 657 560 547 53 31 37 176 129 91 60
is_linear=0
shrinkage=0.05


Tree=19
num_leaves=31
num_cat=0
split_feature=8 2 6 14 10 0 6 10 8 10 6 6 16 12 8 1 0 2 13 1 8 6 6 16 10 10 8 1 10 10
split_gain=52.7666 5.99563 5.36437 3.33623 3.28024 3.0427 2.33855 2.11111 2.36979 1.99965 2.1774 1.92599 2.65289 1.51295 2.80254 1.50569 4.69209 1.91536 1.66822 1.51927 1.43893 1.56105 1.33636 1.32368 2.42248 1.50893 1.45833 2.4794 1.2047 1.79005
threshold=19240265.500000004 10.500000000000002 177.50000000000003 1.0000000180025095e-35 381109.50000000006 76.500000000000014 111.50000000000001 1909275.0000000002 29711.500000000004 26806749.500000004 20.500000000000004 3.5000000000000004 1.0000000180025095e-35 13.500000000000002 264.50000000000006 42.500000000000007 302.00000000000006 29.500000000000004 2.5000000000000004 16.500000000000004 46226.500000000007 30.500000000000004 2.5000000000000004 1.0000000180025095e-35 91154608.500000015 45172985.000000007 1259.5000000000002 6.5000000000000009 21036048.500000004 9450886.5000000019
decision_type=2 2 2 2 2 2 2 2 2 2 2 2 2 2 2 2 2 2 2 2 2 2 2 2 2 2 2 2 2 2
left_child=1 4 3 9 -1 6 7 -5 -9 13 -11 12 -6 15 -15 16 17 18 -3 -19 21 -12 -7 24 26 -25 27 -23 29 -17
right_child=-2 2 -4 5 11 22 -8 8 -10 10 20 -13 -14 14 -16 28 -18 19 -20 -21 -22 23 -24 25 -26 -27 -28 -29 -30 -31
leaf_value=-0.0040197601245606481 0.065701935740590342 -0.0009542536446674008 0.019380822783376786 -0.0034607196923681222 -0.0028895686886603934 0.0015757382733331687 -0.0035623546843987332 0.00083476400962941011 0.019163354407110891 0.0067513033405406341 -0.0042126298817507244 -0.0028360287273843129 0.014811810455365795 0.0056515547252335516 -0.0021776402742997719 -0.0027268829925794812 -0.0044935263043179175 0.0036968477171395496 -0.0045258237956982087 -0.0026172046684960898 -0.0037037612720138518 0.0062655098490813511 0.014705057816037152 0.0036005179532551087 0.005515760974565076 0.00024969658304513294 -0.0061409984533294304 -0.0040762212623211436 -0.0061753975890383615 0.00094070682674661239
leaf_weight=53 189 51 47 56 12.999999999999998 33 12.999999999999998 187 19 28 30 437 24 19 51 51 76 65 47 19 34 13.999999999999998 55 24 32 144 13.999999999999998 26 11.999999999999998 30
leaf_count=53 189 51 47 56 13 33 13 187 19 28 30 437 24 19 51 51 76 65 47 19 34 14 55 24 32 144 14 26 12 30
internal_value=-0.000330164 -0.00311033 -0.00112574 -0.00181416 -0.00754269 0.00213499 -0.000454545 0.000572519 0.00291262 -0.00368318 -0.000867052 -0.00622363 0.00472973 -0.00599762 0.000714286 -0.00733618 -0.00930233 -0.00494505 -0.00969388 0.000595238 -0.00204403 -0.000880282 0.0102273 0.000393701 -0.00465116 0.00297619 -0.0111111 -0.00625 -0.00188172 0.000308642
internal_weight=1893 1704 1177 1130 527 363 275 262 206 767 346 474 37 421 70 351 258 182 98 84 318 284 88 254 86 168 54 40 93 81
internal_count=1893 1704 1177 1130 527 363 275 262 206 767 346 474 37 421 70 351 258 182 98 84 318 284 88 254 86 168 54 40 93 81
is_linear=0
shrinkage=0.05


Tree=20
num_leaves=31
num_cat=0
split_feature=8 9 2 6 14 6 0 6 2 15 12 8 12 1 0 8 9 10 0 8 9 1 0 8 10 12 6 10 6 13
split_gain=55.1304 4.82368 3.40419 4.6172 3.60177 3.39355 2.61418 3.26684 2.56844 2.57292 2.58026 2.14675 1.93241 1.63231 2.62222 2.2672 2.08276 3.08025 1.84651 1.73596 1.70672 1.58899 1.56416 1.49425 1.46278 1.62104 1.41429 2.14295 1.40821 1.39839
threshold=19240265.500000004 14878.000000000002 10.500000000000002 181.50000000000003 1.0000000180025095e-35 5.5000000000000009 135.50000000000003 111.50000000000001 5.5000000000000009 1.0000000180025095e-35 12.500000000000002 23755.500000000004 7.5000000000000009 1216.0000000000002 321.50000000000006 3927.0000000000005 39173.500000000007 34362351.000000007 594.50000000000011 5039.0000000000009 128529.00000000001 75.500000000000014 12.500000000000002 941104.50000000012 26806749.500000004 10.500000000000002 12.500000000000002 11831569.000000002 38.500000000000007 1.5000000000000002
decision_type=2 2 2 2 2 2 2 2 2 2 2 2 2 2 2 2 2 2 2 2 2 2 2 2 2 2 2 2 2 2
left_child=1 8 5 4 13 23 7 11 -1 10 21 -6 22 14 16 18 -4 26 -16 -17 28 -10 -7 -3 -20 -26 27 -18 -19 -12
right_child=-2 2 3 -5 6 12 -8 -9 9 -11 29 -13 -14 -15 15 19 17 20 24 -21 -22 -23 -24 -25 25 -27 -28 -29 -30 -31
leaf_value=-0.0039596865331337234 0.081324025938576683 0.0022964000970541686 0.0021050282871439966 0.019839576978673775 0.0011461050572838527 -0.0044765073811587367 0.023212984857153802 -0.0017428341359462308 -0.0039567299441882744 0.011442432313186219 0.0053740838047445618 0.014970597483819357 -0.0018512129576148117 0.0037384310717051479 -0.0037785232738233644 0.0045883291852636633 -0.00099992800159816536 0.0079599732310530313 -0.0030719391333164539 -0.0015592781044213022 -0.0004942981955415427 0.0066860369499900573 -0.0037710126261024271 0.023175464198497999 0.014570097003774244 -0.0026123296420459035 -0.0047938227716916087 0.0086119306656754994 -0.0054956771221827717 -0.0010620832830865196
leaf_weight=47 193 29 49 43 215 47 25 17 168 45 15.000000000000002 32 274 53 62 10.999999999999998 15.999999999999998 20.000000000000004 43 131 129 10.999999999999998 60 9.9999999999999982 14.000000000000002 10.999999999999998 55 19 10.999999999999998 15.999999999999998
leaf_count=47 193 29 49 43 215 47 25 17 168 45 15 32 274 53 62 11 16 20 43 131 129 11 60 10 14 11 55 19 11 16
internal_value=-0.000307322 -0.00321812 -0.00196221 -0.000313808 -0.00106791 -0.00571429 0.00354671 0.00208333 -0.0089404 -0.00696078 -0.00928571 0.00354251 -0.00715223 -0.00320513 -0.00398424 -0.00753676 -0.000752508 -0.0026 -0.0123077 -0.00316901 0.0015625 -0.0115922 -0.0128505 0.00833333 -0.00661765 0.003 -0.01 -0.00214286 0.0120968 0.00403226
internal_weight=1871 1678 1376 956 913 420 289 264 302 255 210 247 381 624 571 272 299 250 130 142 160 179 107 39 68 25 90 35 31 31
internal_count=1871 1678 1376 956 913 420 289 264 302 255 210 247 381 624 571 272 299 250 130 142 160 179 107 39 68 25 90 35 31 31
is_linear=0
shrinkage=0.05


Tree=21
num_leaves=31
num_cat=0
split_feature=8 10 0 15 6 6 6 10 0 1 4 10 9 2 13 8 11 0 6 10 11 0 6 0 2 8 6 16 9 9
split_gain=53.0118 4.49139 3.42782 2.81069 2.62523 3.24115 2.4275 3.1647 1.93074 1.84878 2.5579 2.34578 2.83088 2.10468 1.59408 1.72271 2.10076 1.53936 1.96078 1.38868 2.03555 1.41939 1.37781 1.33535 1.29292 1.22222 1.21743 1.34877 1.18469 1.64788
threshold=19240265.500000004 10081737.500000002 17.500000000000004 1.0000000180025095e-35 177.50000000000003 112.50000000000001 8.5000000000000018 1723776.5000000002 50.500000000000007 14.500000000000002 1.0000000180025095e-35 8543160.5000000019 14878.000000000002 27.500000000000004 5.5000000000000009 12938.000000000002 17460599.000000004 14.500000000000002 1.5000000000000002 50527983.500000007 163354508.00000003 20.500000000000004 1.0000000180025095e-35 12779.500000000002 6.5000000000000009 2033.0000000000002 5.5000000000000009 1.0000000180025095e-35 344075.00000000006 312411.50000000006
decision_type=2 2 2 2 2 2 2 2 2 2 2 2 2 2 2 2 2 2 2 2 2 2 2 2 2 2 2 2 2 2
left_child=1 3 -3 9 5 14 7 17 -7 10 11 12 24 -14 15 16 26 -5 -19 21 28 -18 -11 -23 -1 -16 -4 -28 29 -21
right_child=-2 2 4 6 -6 8 -8 -9 -10 22 -12 -13 13 -15 25 -17 19 18 -20 20 -22 23 -24 -25 -26 -27 27 -29 -30 -31
leaf_value=-0.0041114423655954245 0.058350637656632003 -0.0019308473120288135 -0.0018701458677309762 -0.002516399390573916 0.013741583380392153 -0.0053058528614692213 -0.0040484273055709456 0.018052235110147641 -0.00099095742785711431 0.006351735102490555 0.0012282471694292807 -0.0038567493247947445 -0.0015049870179842343 0.025436272232723156 0.0044542203171757666 0.002994197292531359 0.0068382654551768039 0.012130793265865282 -0.0010852699059391237 0.0014786074697985653 -0.0053992326826891486 -0.0032917129809320561 -0.004507096612308437 0.0071415127403031938 -0.0026984651940110227 0.0092653165516350198 0.00035549091014792092 0.010046874766471287 0.012413494016596756 -0.0040424384053175085
leaf_weight=38 192 269 15.999999999999998 12.999999999999998 54 15.999999999999998 11.999999999999998 21 73 12.999999999999998 25 28 93 17 25 137 13.999999999999998 51 17 121 19 232 113 10.999999999999998 132 10.999999999999998 49 20 12.999999999999998 24
leaf_count=38 192 269 16 13 54 16 12 21 73 13 25 28 93 17 25 137 14 51 17 121 19 232 113 11 132 11 49 20 13 24
internal_value=-0.000147138 -0.00299642 -0.00113225 -0.00658813 0.000449102 -0.000288092 0.000438596 0.00294118 -0.00926966 -0.00833333 -0.00638138 -0.00762987 -0.00625 0 0.000867052 0.000304878 -0.00101156 -0.00154321 0.00147059 -0.00241935 0.000988701 -0.00476654 -0.0134921 -0.00565844 -0.0102941 0.0111111 0.00617647 0.00905797 0.0028481 0.00155172
internal_weight=1869 1677 1104 573 835 781 114 102 89 459 333 308 280 110 692 656 519 81 68 434 177 257 126 243 170 36 85 69 158 145
internal_count=1869 1677 1104 573 835 781 114 102 89 459 333 308 280 110 692 656 519 81 68 434 177 257 126 243 170 36 85 69 158 145
is_linear=0
shrinkage=0.05


Tree=22
num_leaves=31
num_cat=0
split_feature=8 11 0 6 9 6 0 9 14 10 6 9 0 13 1 11 8 6 6 6 8 0 2 2 8 9 8 8 10 9
split_gain=52.4972 4.5226 2.88147 3.74155 2.52564 2.31183 4.32364 3.62587 2.24071 3.52531 1.7421 1.81321 1.59265 1.22612 1.24776 1.23119 1.32726 1.19233 1.87454 1.19704 1.37603 1.10611 3.8541 2.69475 1.94973 1.09971 2.11132 1.09682 1.37578 1.09649
threshold=19240265.500000004 10876595.000000002 18.500000000000004 177.50000000000003 525742.00000000012 1.5000000000000002 13.500000000000002 8472.0000000000018 1.0000000180025095e-35 503728.00000000006 10.500000000000002 22010.500000000004 36.500000000000007 5.5000000000000009 23.500000000000004 11863572.500000002 28812.500000000004 22.500000000000004 28.500000000000004 19.500000000000004 319.50000000000006 294.00000000000006 71.500000000000014 171.00000000000003 1925.0000000000002 122068.00000000001 1107.0000000000002 87.500000000000014 2372365.0000000005 320623.00000000006
decision_type=2 2 2 2 2 2 2 2 2 2 2 2 2 2 2 2 2 2 2 2 2 2 2 2 2 2 2 2 2 2
left_child=1 5 17 4 13 6 -1 -8 -7 -10 11 27 -12 15 -15 -4 21 19 -19 20 -3 22 -17 24 -23 -20 -27 -11 -29 -18
right_child=-2 2 3 -5 -6 8 7 -9 9 10 12 -13 -14 14 -16 16 29 18 25 -21 -22 23 -24 -25 -26 26 -28 28 -30 -31
leaf_value=-0.0035215688988112144 0.055433105773800409 0.0024421424158147451 0.0043033522561009459 0.015711143285101068 -0.0033080689766651948 -0.0029880679803915597 -0.00070462968657378786 0.011475772107708213 -0.0038489137844016901 -0.0034512375140003633 -0.0037843861821145776 0.0021377367827598581 0.00018556119720243154 0.004665830198920147 0.01391036264164397 -0.00045534550855702506 0.0031570789811609379 -0.004134709380382455 0.00074815718810136711 0.0024264390979479539 -0.0025588146189029944 -0.0040594662991829964 0.013720205933485117 8.735673133588723e-05 -0.0012096216757367273 -0.0044387816735577306 -0.0008687983885828206 0.0040639481436010438 -0.0020832774504810276 0.00051135750048003018
leaf_weight=26 187 22 13.999999999999998 54 59 225 147 24 31 19 24 53 9.9999999999999982 34 12.999999999999998 366 27 36 28 12.999999999999998 40 42 22 119 34 14.999999999999998 118 22 31 30
leaf_count=26 187 22 14 54 59 225 147 24 31 19 24 53 10 34 13 366 27 36 28 13 40 42 22 119 34 15 118 22 31 30
internal_value=-0.000411141 -0.00318021 -0.00124309 0.0002457 -0.000657895 -0.00661765 -0.00215736 0.000730994 -0.00873494 -0.00473684 -0.00172956 0.001 -0.0117647 0.000178317 0.00797872 -0.000382263 -0.000703125 -0.00569853 -0.00774112 -0.000333333 -0.00322581 -0.00141509 0.000128866 -0.00448718 -0.0118421 -0.00543478 -0.00733083 -0.00416667 -0.000471698 0.00657895
internal_weight=1885 1698 1086 814 760 612 197 171 415 190 159 125 34 701 47 654 640 272 197 75 62 583 388 195 76 161 133 72 53 57
internal_count=1885 1698 1086 814 760 612 197 171 415 190 159 125 34 701 47 654 640 272 197 75 62 583 388 195 76 161 133 72 53 57
is_linear=0
shrinkage=0.05


Tree=23
num_leaves=31
num_cat=0
split_feature=8 9 6 2 15 6 2 14 9 0 10 9 10 12 2 0 0 10 6 1 10 2 0 0 6 6 6 1 0 8
split_gain=53.1611 4.81941 5.0943 3.58178 3.29204 2.57223 1.91641 2.92955 2.78858 2.5244 1.88561 2.53831 1.86517 1.70217 1.70145 1.64855 1.71376 1.41186 1.39452 1.49483 1.41873 1.32722 2.29377 1.38889 1.48761 1.31907 2.15682 1.29603 2.10638 1.4
threshold=19240265.500000004 9224.0000000000018 1.5000000000000002 7.5000000000000009 1.0000000180025095e-35 165.50000000000003 11.500000000000002 1.0000000180025095e-35 425831.50000000006 142.50000000000003 11287053.000000002 29800.500000000004 1357701.5000000002 14.500000000000002 120.50000000000001 632.00000000000011 173.50000000000003 133118051.50000001 6.5000000000000009 2.5000000000000004 10081737.500000002 99.500000000000014 177.50000000000003 21.500000000000004 185.50000000000003 51.500000000000007 35.500000000000007 1216.0000000000002 11503.500000000002 7820.0000000000009
decision_type=2 2 2 2 2 2 2 2 2 2 2 2 2 2 2 2 2 2 2 2 2 2 2 2 2 2 2 2 2 2
left_child=1 3 -3 -1 13 6 8 10 18 12 11 14 -9 15 -8 16 -5 25 19 -4 -20 22 23 24 -7 26 -14 -12 -29 -30
right_child=-2 2 5 4 -6 21 7 9 -10 -11 27 -13 17 -15 -16 -17 -18 -19 20 -21 -22 -23 -24 -25 -26 -27 -28 28 29 -31
leaf_value=-0.0036064684547310491 0.052661450485110395 0.013707933638482781 0.0032366797429452658 -0.0028808103096261651 0.012786499972340576 0.016137726716113378 0.00043291011897767521 -0.0043566440677921007 -0.0042776766848720031 0.021406365353606772 -0.00077300351830525763 -0.0040701615590608958 0.0047564262465016188 0.0014183123476978754 -0.0020669903961570658 0.0085079426229865054 -0.0047431619018928712 -0.0015916943829660983 -0.0036989944119713626 -0.0018035614569250451 -0.0019368220302644736 0.020108881566912713 -0.0062808827259470679 0.016270376591924391 -0.0011797493586195599 0.0094942797115501014 -0.003775512245047494 0.026060855777535887 0.015479063215781639 -0.0070982872308679133
leaf_weight=48 190 30 48 100 38 9.9999999999999982 49 9.9999999999999982 39 23 412 72 139 11.999999999999998 38 12.999999999999998 36 34 67 9.9999999999999982 259 19 9.9999999999999982 36 26 30 28 10.999999999999998 21 14.999999999999998
leaf_count=48 190 30 48 100 38 10 49 10 39 23 412 72 139 12 38 13 36 34 67 10 259 19 10 36 26 30 28 11 21 15
internal_value=-0.000333689 -0.00316399 -0.00205432 -0.00961538 -0.00665829 -0.00248933 -0.00308429 -0.00175737 -0.00585106 0.00265152 -0.00364078 -0.00833333 0.00114108 -0.00978261 -0.00258621 -0.0112416 -0.0128676 0.00205628 -0.00455729 0.00258621 -0.00582822 0.00519802 0.00243902 0.00555556 -0.00138889 0.0036802 0.00194611 -0.00201525 0.00585106 0
internal_weight=1873 1683 1436 247 199 1406 1305 882 423 264 618 159 241 161 87 149 136 231 384 58 326 101 82 72 36 197 167 459 47 36
internal_count=1873 1683 1436 247 199 1406 1305 882 423 264 618 159 241 161 87 149 136 231 384 58 326 101 82 72 36 197 167 459 47 36
is_linear=0
shrinkage=0.05


Tree=24
num_leaves=31
num_cat=0
split_feature=8 0 10 0 2 2 0 11 1 11 8 10 6 0 1 10 6 6 10 6 6 2 2 6 13 0 11 2 2 10
split_gain=53.3048 3.38142 3.80806 3.14318 5.00851 3.39732 2.67788 2.45069 2.37943 1.79386 2.32493 2.32796 1.70147 1.52079 1.42939 1.41033 1.41306 1.39021 1.31364 1.90385 3.11538 1.26965 1.25996 1.27258 1.17005 1.12667 1.11477 1.00249 1.12578 0.982677
threshold=19240265.500000004 13.500000000000002 561611.50000000012 321.50000000000006 146.50000000000003 34.500000000000007 2.5000000000000004 6406934.0000000009 35.500000000000007 149536949.00000003 23755.500000000004 109209879.50000001 177.50000000000003 585.50000000000011 4.5000000000000009 40697895.000000007 35.500000000000007 1.5000000000000002 503728.00000000006 5.5000000000000009 44.500000000000007 61.500000000000007 7.5000000000000009 15.500000000000002 3.5000000000000004 21.500000000000004 17730593.500000004 15.500000000000002 19.500000000000004 66193751.500000007
decision_type=2 2 2 2 2 2 2 2 2 2 2 2 2 2 2 2 2 2 2 2 2 2 2 2 2 2 2 2 2 2
left_child=1 2 -1 5 8 9 -4 17 -5 10 11 22 27 -9 -7 21 -17 -6 -12 -20 -21 26 23 -3 -13 -14 -16 -11 -29 -15
right_child=-2 3 6 4 7 14 -8 13 -10 12 18 24 25 29 15 16 -18 -19 19 20 -22 -23 -24 -25 -26 -27 -28 28 -30 -31
leaf_value=-0.0031997282205201531 0.06893556494587072 0.0040102239134564505 0.0045565669281789943 -0.0038589955415396886 0.00027462814285650203 0.0080414377862139015 -0.0023101164794454261 0.0074372717759065878 -0.00068967311169721996 -0.0035540378682839915 -0.002716222431498569 0.016983691378325626 -0.0028511906991500963 -0.0012497920809537268 -0.0007973790355655521 0.0074335888838390459 0.0036568999199847771 -0.004364038665290941 0.021917969594037474 -0.00086034526986845667 0.0084582516989081449 0.0058115269076439106 -0.0015582760507550268 -0.0013797477223529407 -0.0021766321265596564 0.004416432765765521 -0.0046535245455048974 0.00012167395113672069 -0.0028151223382901812 0.0033541393936462882
leaf_weight=39 193 22 28 103 17 67 228 9.9999999999999982 35 40 10.999999999999998 21 10.000000000000002 127 40 9.9999999999999982 67 42 18 13.000000000000002 12.999999999999998 47 472 21 10.999999999999998 14.999999999999998 21 12.999999999999998 24 65
leaf_count=39 193 22 28 103 17 67 228 10 35 40 11 21 10 127 40 10 67 42 18 13 13 47 472 21 11 15 21 13 24 65
internal_value=-0.000122084 -0.0030303 -0.00788136 -0.00197417 -0.00570175 -0.00041841 -0.00566406 -0.00162835 -0.0134058 -0.0022017 -0.00116279 -0.00214808 -0.00833333 0.000990099 0.00456349 0.0022973 0.00746753 -0.0105932 0.00863636 0.0125 0.00384615 -0.00138889 -0.00296117 0.00523256 0.0109375 0.003 -0.00614754 -0.012013 -0.00608108 0
internal_weight=1843 1650 295 1355 399 956 256 261 138 704 602 547 102 202 252 185 77 59 55 44 26 108 515 43 32 25 61 77 37 192
internal_count=1843 1650 295 1355 399 956 256 261 138 704 602 547 102 202 252 185 77 59 55 44 26 108 515 43 32 25 61 77 37 192
is_linear=0
shrinkage=0.05


Tree=25
num_leaves=31
num_cat=0
split_feature=8 9 6 2 6 2 14 2 11 9 10 8 12 10 16 6 11 9 6 9 6 6 10 6 9 10 13 13 4 9
split_gain=50.8269 3.77857 6.27021 2.98464 2.26398 2.05327 2.94007 2.47685 2.31054 2.15209 1.87386 1.56833 1.5615 1.41697 1.32601 1.26627 1.25756 1.47357 1.44106 1.35234 1.5 1.25134 1.43231 1.17102 1.13333 1.97038 2.09973 1.34861 1.11728 1.04167
threshold=19240265.500000004 9224.0000000000018 1.5000000000000002 12.500000000000002 237.50000000000003 9.5000000000000018 1.0000000180025095e-35 67.500000000000014 10876595.000000002 425831.50000000006 561611.50000000012 30.500000000000004 7.5000000000000009 834753.50000000012 1.0000000180025095e-35 5.5000000000000009 59556421.500000007 261499.50000000003 37.500000000000007 335371.50000000006 69.500000000000014 115.50000000000001 232398172.00000003 185.50000000000003 41336.000000000007 7344514.5000000009 1.0000000180025095e-35 2.5000000000000004 1.0000000180025095e-35 5760.0000000000009
decision_type=2 2 2 2 2 2 2 2 2 2 2 2 2 2 2 2 2 2 2 2 2 2 2 2 2 2 2 2 2 2
left_child=1 3 -3 10 5 9 8 16 -7 12 -1 28 -4 -13 23 -14 18 -18 24 20 -19 -21 -23 -11 -8 -26 -27 -28 -5 -15
right_child=-2 2 4 11 -6 6 7 -9 -10 14 -12 13 15 29 -16 -17 17 19 -20 21 -22 22 -24 -25 25 26 27 -29 -30 -31
leaf_value=-0.0032638409363932482 0.065488786698577189 0.011941877674626712 -0.0029908281522628339 -0.0013878662582166913 0.0076528823911707379 -0.0018899808223830196 -0.0015479541436974782 0.020111737362434035 -0.00051434339720664443 0.006426507769967134 -0.0015463920964602662 -0.0042670951100190506 0.0058084742401954097 0.0098314173704758118 -0.0044588628249574618 -0.00084900653882542809 0.0082000665601982946 0.0015935400005887544 -0.0037426060483746505 0.012600233556860369 -0.0049592570954253706 -0.0031473637164726996 0.007126486034820057 -0.0021153545754234409 0.010270021056977869 -0.005822571913811833 0.0060779410624900998 -0.0022657933414423916 0.0054336580396019494 -0.0023568791275839279
leaf_weight=55 189 35 87 93 10.999999999999998 149 68 23 519 11.000000000000002 18 35 18 12.000000000000002 34 213 39 12.000000000000002 24 24 11.999999999999998 12.999999999999998 25 18 9.9999999999999982 9.9999999999999982 44 38 26 11.999999999999998
leaf_count=55 189 35 87 93 11 149 68 23 519 11 18 35 18 12 34 213 39 12 24 24 12 13 25 18 10 10 44 38 26 12
internal_value=0.00014651 -0.00260664 -0.00161795 -0.00826693 -0.0021398 -0.00231848 -0.00113861 0.00263158 -0.00306886 -0.00544619 -0.0167808 -0.00477528 -0.00377358 -0.0114407 -0.0138889 -0.00162338 0.00148903 0.0054 -0.00103093 0.00174419 -0.00833333 0.00564516 0 -0.00603448 0.000588235 0.00392157 0.00163043 0.00426829 -0.00147059 -0.00208333
internal_weight=1877 1688 1437 251 1402 1391 1010 342 668 381 73 178 318 59 63 231 319 125 194 86 24 62 38 29 170 102 92 82 119 24
internal_count=1877 1688 1437 251 1402 1391 1010 342 668 381 73 178 318 59 63 231 319 125 194 86 24 62 38 29 170 102 92 82 119 24
is_linear=0
shrinkage=0.05


Tree=26
num_leaves=31
num_cat=0
split_feature=8 9 6 0 16 0 14 11 0 1 4 12 0 9 6 13 13 8 9 0 1 6 8 0 4 0 0 8 13 8
split_gain=51.1579 3.84193 3.39407 2.15494 2.95459 2.04902 2.95676 2.83264 2.24692 1.83245 2.58478 1.7312 1.72024 1.66731 1.50439 2.1125 1.40649 1.34634 1.78777 1.33002 1.98414 1.57543 1.36223 1.31375 1.29739 2.31704 1.37619 1.28066 1.27974 1.25615
threshold=19240265.500000004 9224.0000000000018 1.5000000000000002 8.5000000000000018 3.5000000000000004 19.500000000000004 1.0000000180025095e-35 10876595.000000002 76.500000000000014 70.500000000000014 16.500000000000004 12.500000000000002 13381.500000000002 29800.500000000004 5.5000000000000009 1.5000000000000002 1.5000000000000002 520.00000000000011 122068.00000000001 321.50000000000006 16.500000000000004 14.500000000000002 671.00000000000011 423.50000000000006 1.0000000180025095e-35 582.50000000000011 696.00000000000011 399.00000000000006 1.5000000000000002 649.00000000000011
decision_type=2 2 2 2 2 2 2 2 2 2 2 2 2 2 2 2 2 2 2 2 2 2 2 2 2 2 2 2 2 2
left_child=1 3 -3 -1 11 14 7 13 -8 19 17 -5 -12 -7 15 -4 -13 -11 -19 20 21 -9 -21 -24 -25 -26 -27 -23 -10 -29
right_child=-2 2 5 4 -6 6 8 9 28 10 12 16 -14 -15 -16 -17 -18 18 -20 22 -22 27 23 24 25 26 -28 29 -30 -31
leaf_value=-0.0028765497626744834 0.06221434736364833 0.0109489593281876 -0.0029158885089397516 -0.0030306638667521963 0.010140875124744805 -0.00093503239146988529 7.7444035693584331e-05 0.0022844899016215788 0.016492611790463074 0.0045044151494126345 -0.0033905610975682658 0.014337405699648909 0.009247969046055236 -0.0035942821700350662 -0.0021109566069092952 0.0067511562966417861 -0.00078624519071296146 -0.0057743891687592995 0.010554707519319771 -0.0029732414076906358 0.0037375292859051935 -0.0034291351496008567 -0.003822416710565749 0.004211634295460555 -0.0048591733925440125 0.0060113828115957888 -0.0022289982843863312 0.0072375269472616703 0.0082691370703501972 -0.0016604482917636533
leaf_weight=29 180 32 15.999999999999998 158 44 89 264 34 18 17 42 11.000000000000002 13.999999999999998 75 342 20 9.9999999999999982 19 42 33 34 14.999999999999998 40 23 13.999999999999998 14.000000000000002 9.9999999999999982 11.999999999999998 49 178
leaf_count=29 180 32 16 158 44 89 264 34 18 17 42 11 14 75 342 20 10 19 42 33 34 15 40 23 14 14 10 12 49 178
internal_value=-0.000346113 -0.00303298 -0.00204011 -0.00873016 -0.00706278 -0.00240453 -0.00125483 -0.00308511 0.0026435 -0.00134011 0.00373134 -0.0099162 -0.00446429 -0.00884146 -0.00555556 0.00416667 0.00357143 0.00961538 0.00614754 -0.00300983 -0.00100733 -0.00261506 -0.00708955 -0.00420792 0.000409836 -0.00526316 0.00416667 -0.00426829 0.0108209 -0.00315789
internal_weight=1878 1698 1446 252 223 1414 1036 705 331 541 134 179 56 164 378 36 21 78 61 407 273 239 134 101 61 38 24 205 67 190
internal_count=1878 1698 1446 252 223 1414 1036 705 331 541 134 179 56 164 378 36 21 78 61 407 273 239 134 101 61 38 24 205 67 190
is_linear=0
shrinkage=0.05


Tree=27
num_leaves=31
num_cat=0
split_feature=8 9 6 0 9 8 6 8 6 10 13 9 11 0 2 9 8 9 2 8 0 10 9 10 9 9 8 8 8 0
split_gain=52.2899 4.27588 3.43795 3.14787 1.97421 1.8756 2.22962 2.07564 2.89871 2.01667 1.99138 1.81699 2.36301 1.53113 3.70311 1.9372 1.51456 1.94198 1.47432 2.48889 1.47002 1.37811 1.85404 1.37604 1.35458 2.12997 1.9538 1.3511 1.32766 1.8086
threshold=19240265.500000004 9224.0000000000018 1.5000000000000002 45.500000000000007 1865.0000000000002 10925.500000000002 3.5000000000000004 44332.500000000007 151.50000000000003 1210825.0000000002 5.5000000000000009 473193.00000000006 163354508.00000003 312.00000000000006 71.500000000000014 99110.000000000015 29711.500000000004 469638.50000000006 1844.0000000000002 484.50000000000006 13.500000000000002 3924298.5000000005 14878.000000000002 1105376.0000000002 84005.500000000015 63220.500000000007 19399.000000000004 87647.000000000015 1750.5000000000002 35.500000000000007
decision_type=2 2 2 2 2 2 2 2 2 2 2 2 2 2 2 2 2 2 2 2 2 2 2 2 2 2 2 2 2 2
left_child=1 3 27 -1 -5 10 9 16 -9 -7 11 12 13 14 20 18 17 24 -15 -20 -4 22 -22 -6 25 -8 -26 -3 29 -12
right_child=-2 2 5 4 23 6 7 8 -10 -11 28 -13 -14 15 -16 -17 -18 -19 19 -21 21 -23 -24 -25 26 -27 -28 -29 -30 -31
leaf_value=-0.0028253219905979912 0.059103629995465902 0.0027130471053506662 -0.0027023488868616868 3.1879773616595722e-05 -0.0039022071611804886 -0.00049556726825125967 0.0014701080082066818 -0.0023561708020219487 0.0027309167370917265 0.021106965652853901 -0.0023215666406736085 0.00053355235145459282 -0.0039727577746480188 -0.0031539877809865801 0.0098820878233509615 -0.00018212729973409033 0.0067662895312943783 -0.0042094612191868486 0.0065831140195271587 -0.0081799204109398397 -0.00065106005123153764 -0.00084366612891374282 0.0032842889917261489 0.00016023030865467449 0.0099499782466506322 -0.0045319521226976607 -0.00037198119273408885 0.0390826391113046 0.0070612246318807054 0.013132204342820385
leaf_weight=104 186 17 157 92 47 10.000000000000002 34 100 85 20 16.000000000000004 10.999999999999998 30 137 29 67 65 10.999999999999998 18.000000000000004 9.9999999999999982 14.999999999999998 424 17 9.9999999999999982 34 31 57 14.999999999999998 21 14.999999999999998
leaf_count=104 186 17 157 92 47 10 34 100 85 20 16 11 30 137 29 67 65 11 18 10 15 424 17 10 34 31 57 15 21 15
internal_value=-0.000437666 -0.00319305 -0.00214385 -0.00918972 -0.0045302 -0.00251061 0.000167785 -0.000779376 -0.00472973 0.0133333 -0.00374871 -0.00428962 -0.0045354 -0.00406178 -0.00280374 -0.0075431 0.00237069 -0.000149701 -0.0104545 0 -0.00362969 -0.00219298 0.0078125 -0.0118421 0.00128205 -0.00423077 0.00521978 0.0140625 0.00576923 -0.000806452
internal_weight=1885 1699 1446 253 149 1414 447 417 185 30 967 915 904 874 642 232 232 167 165 28 613 456 32 57 156 65 91 32 52 31
internal_count=1885 1699 1446 253 149 1414 447 417 185 30 967 915 904 874 642 232 232 167 165 28 613 456 32 57 156 65 91 32 52 31
is_linear=0
shrinkage=0.05


Tree=28
num_leaves=31
num_cat=0
split_feature=15 10 11 9 11 0 13 2 13 13 2 9 14 2 11 13 9 1 2 6 9 16 10 9 6 6 10 2 1 10
split_gain=39.402 15.6355 4.32942 3.55313 2.79026 2.1645 2.12389 2.15895 2.01566 1.83455 2.9037 1.66407 1.60407 2.92905 1.87703 1.85763 1.60826 1.47176 1.79715 2.07178 1.99234 1.48148 1.3603 1.219 1.21309 1.49484 1.20714 1.16646 1.39976 1.1336
threshold=1.0000000180025095e-35 19317536.500000004 990177.50000000012 244461.00000000003 2291545.0000000005 16.500000000000004 5.5000000000000009 5.5000000000000009 1.0000000180025095e-35 1.5000000000000002 59.500000000000007 34327.000000000007 1.0000000180025095e-35 24.500000000000004 10876595.000000002 2.5000000000000004 32499.000000000004 228.00000000000003 67.500000000000014 3.5000000000000004 35453.500000000007 1.0000000180025095e-35 107824136.00000001 92150.000000000015 157.50000000000003 115.50000000000001 268225.50000000006 29.500000000000004 14.500000000000002 94330682.500000015
decision_type=2 2 2 2 2 2 2 2 2 2 2 2 2 2 2 2 2 2 2 2 2 2 2 2 2 2 2 2 2 2
left_child=2 3 9 4 5 -2 7 8 -4 10 -1 26 14 22 17 -15 -16 18 19 -9 21 -21 29 -17 25 -18 27 -7 -29 -14
right_child=1 -3 6 -5 -6 11 -8 12 -10 -11 -12 -13 13 15 16 23 24 -19 -20 20 -22 -23 -24 -25 -26 -27 -28 28 -30 -31
leaf_value=-0.0031640510821456303 -0.0019588750616216627 0.037241261510676769 0.00069221487354516754 -0.0046119452928986785 0.0164862353655865 -0.006837779488810417 0.0027091196058864359 0.010661683469218461 -0.0034205641192081235 -0.003078526734934227 0.014760904088265121 -0.0015104577525416496 -0.00018828936631044431 0.0093624267463842236 0.00096077442408745717 -0.0035630693493126312 -0.00077830842649940298 0.0036383719476732338 -0.0034898549584252664 -0.001997493215495548 -0.0034134619613941279 0.00098156154080236225 -0.0014210365429096013 0.0079776204149963892 0.012002916737066761 -0.0026217859612166121 0.00844737940621299 0.04671712109409052 -7.7203047491405949e-05 0.0033307055079024985
leaf_weight=27 13.999999999999998 196 36 10.999999999999998 29 10.999999999999998 72 10.999999999999998 138 133 18 9.9999999999999982 265 61 17 14.999999999999998 424 15.999999999999998 72 27 12.999999999999998 18 91 22 50 37 15.999999999999998 12.000000000000002 17 10.999999999999998
leaf_count=27 14 196 36 11 29 11 72 11 138 133 18 10 265 61 17 15 424 16 72 27 13 18 91 22 50 37 16 12 17 11
internal_value=0.000185185 0.0162975 -0.00304956 0.00208333 0.00481651 0 -0.00211318 -0.00256798 -0.00775862 -0.0103933 -0.00166667 0.00378788 -0.00178261 0.000483871 -0.00332117 0.00816327 -0.00189394 -0.00812102 -0.00975177 -0.00398551 -0.00775862 -0.00277778 -0.00156676 -0.000675676 -0.00239726 -0.00319957 0.00714286 0.0025 0.00775862 0.000181159
internal_weight=1890 316 1574 120 109 80 1396 1324 174 178 45 66 1150 465 685 98 528 157 141 69 58 45 367 37 511 461 56 40 29 276
internal_count=1890 316 1574 120 109 80 1396 1324 174 178 45 66 1150 465 685 98 528 157 141 69 58 45 367 37 511 461 56 40 29 276
is_linear=0
shrinkage=0.05


Tree=29
num_leaves=31
num_cat=0
split_feature=8 0 8 0 6 9 11 1 12 9 6 11 8 0 16 9 0 2 11 0 0 8 9 6 11 0 2 6 6 10
split_gain=51.0424 3.54546 3.36452 2.16624 2.05024 2.22691 2.09759 3.17542 1.6278 1.58441 2.68488 2.00978 1.58299 1.77032 2.1322 1.55128 1.75078 1.53409 1.67314 1.61538 1.466 1.35196 1.92319 1.33053 1.35205 1.22653 1.15789 1.78273 1.39809 2.13356
threshold=19240265.500000004 13.500000000000002 119.50000000000001 2.5000000000000004 177.50000000000003 570380.00000000012 10207177.000000002 14.500000000000002 15.500000000000002 8472.0000000000018 1.5000000000000002 8381454.5000000009 464.00000000000006 2178.5000000000005 1.0000000180025095e-35 1336.0000000000002 71.500000000000014 47.500000000000007 1700829.0000000002 37.500000000000007 4.5000000000000009 305.50000000000006 31138.000000000004 8.5000000000000018 5105490.0000000009 34.500000000000007 14.500000000000002 104.50000000000001 12.500000000000002 16168898.000000002
decision_type=2 2 2 2 2 2 2 2 2 2 2 2 2 2 2 2 2 2 2 2 2 2 2 2 2 2 2 2 2 2
left_child=1 2 -1 -4 5 6 7 8 9 15 -11 17 13 14 -9 16 -3 18 19 -12 -5 22 -22 -20 -25 -6 27 28 -8 -30
right_child=-2 4 3 20 25 -7 26 12 -10 10 11 -13 -14 -15 -16 -17 -18 -19 23 -21 21 -23 -24 24 -26 -27 -28 -29 29 -31
leaf_value=-0.0024740538447918397 0.054286385420158761 -0.0035661552945902399 0.0038813825532810903 -0.0036693575169868572 -0.001327225428773482 -0.0033013116684050647 0.0049666602426305002 -0.00350386516814561 0.00576914925724413 0.008429040684440503 0.00010591077257701282 -0.0032733715219899723 -0.0036090926240938863 0.0075621130186373179 -0.00010786165883564305 -0.0021655347405171699 0.0013042151152907343 0.01453444215877327 0.0049591061054936872 -0.004817428004090166 -0.0030106285455127426 -0.0017593968622119872 0.0047750034465763886 -0.0037031298666844147 0.0002172395534260914 0.014284873904855694 0.00025539667788826366 -0.003110724653091361 -0.0036112985842018199 -0.00032893421674776299
leaf_weight=47 191 44 31 31 12.999999999999998 45 25 35 20 18 14.000000000000002 18 66 18 32 56 47 9.9999999999999982 46 11.999999999999998 18 163 19 18 20 45 624 12.999999999999998 14.999999999999998 147
leaf_count=47 191 44 31 31 13 45 25 35 20 18 14 18 66 18 32 56 47 10 46 12 18 163 19 18 20 45 624 13 15 147
internal_value=0.000223567 -0.00251462 -0.00736246 -0.00515267 -0.0014454 -0.00184289 -0.00146379 -0.00411392 -0.00131579 -0.00222772 0.00128205 -0.00108696 -0.0100993 -0.00558824 -0.00932836 -0.00595238 -0.00192308 0.00125 -0.000454545 -0.0115385 -0.00681818 -0.00525 0.00337838 0.00297619 -0.00394737 0.00775862 6.06796e-05 -0.00325 -0.00200535 -0.0037037
internal_weight=1901 1710 309 262 1401 1343 1298 474 323 303 156 138 151 85 67 147 91 120 110 26 231 200 37 84 38 58 824 200 187 162
internal_count=1901 1710 309 262 1401 1343 1298 474 323 303 156 138 151 85 67 147 91 120 110 26 231 200 37 84 38 58 824 200 187 162
is_linear=0
shrinkage=0.05


Tree=30
num_leaves=31
num_cat=0
split_feature=8 0 8 14 0 6 2 8 1 1 0 2 6 10 11 2 0 6 8 2 1 9 6 1 1 1 6 0 4 1
split_gain=51.8384 3.85504 3.6483 2.55096 2.12555 2.12413 2.12333 1.51563 1.46503 2.50769 1.98076 4.36632 2.03496 3.01482 2.47285 1.55431 1.90789 1.63764 1.76434 1.53663 1.75826 1.20712 2.06029 1.54209 1.19405 1.28798 1.18681 1.15909 1.12652 1.05822
threshold=19240265.500000004 13.500000000000002 119.50000000000001 1.0000000180025095e-35 76.500000000000014 213.50000000000003 1.5000000000000002 23879.500000000004 261.50000000000006 555.50000000000011 352.00000000000006 87.500000000000014 22.500000000000004 381109.50000000006 28613245.500000004 145.50000000000003 1744.5000000000002 82.500000000000014 27780.000000000004 2868.5000000000005 1391.5000000000002 8472.0000000000018 6.5000000000000009 2.5000000000000004 4.5000000000000009 5.5000000000000009 12.500000000000002 106.50000000000001 1.0000000180025095e-35 1.5000000000000002
decision_type=2 2 2 2 2 2 2 2 2 2 2 2 2 2 2 2 2 2 2 2 2 2 2 2 2 2 2 2 2 2
left_child=1 2 -1 5 21 8 7 -4 10 -10 11 28 13 -12 -14 17 -17 -16 -19 26 -21 29 23 -23 27 -26 -11 -6 -3 -5
right_child=-2 3 6 4 24 -7 -8 -9 9 19 12 -13 14 -15 15 16 -18 18 -20 20 -22 22 -24 -25 25 -27 -28 -29 -30 -31
leaf_value=-0.0023503511525522478 0.032664879164134984 -0.0013161381548890878 -0.0026077910870197733 -0.0032147272854775376 0.012213132793953436 0.016106351670579815 -0.0020599950151281238 0.018283174834493411 0.0039761842783962017 0.00015129129849366583 0.00083192874282948803 0.0079728487791152144 0.0041396307289241789 -0.0032534416435290913 -0.0039235336502001757 0.0030530007131104649 -0.0027022638993852393 0.0014653767960526101 -0.0061039988981541372 0.010983511213491112 -0.0031926457369763159 0.0072045878616475677 -0.00024642299804783843 -0.00054564195830875475 -0.0077017821586949867 0.009143912082930231 -0.0059389497297090681 0.011445247047424431 0.00023468330171537433 -0.0014166079344128378
leaf_weight=49 193 370 23 27 17 9.9999999999999982 228 11.999999999999998 21 12.000000000000002 21 24 15.999999999999998 120 21 38 20 11.000000000000002 14.999999999999998 20 33 46 300 20 10.999999999999998 54 13.999999999999998 15.999999999999998 85 35
leaf_count=49 193 370 23 27 17 10 228 12 21 12 21 24 16 120 21 38 20 11 15 20 33 46 300 20 11 54 14 16 85 35
internal_value=0.000451647 -0.00235346 -0.00737179 -0.00121641 0.00152091 -0.00290834 -0.00503802 0.00642857 -0.00318074 0.0025 -0.00394737 -0.00203549 -0.00744275 -0.0115248 -0.00268595 -0.00547619 0 -0.012234 -0.00384615 -0.00158228 0.00330189 0 0.0010929 0.00909091 0.00816327 0.00423077 -0.0115385 0.0159091 -0.00313187 -0.00645161
internal_weight=1882 1689 312 1377 526 851 263 35 841 100 741 479 262 141 121 105 58 47 26 79 53 428 366 66 98 65 26 33 455 62
internal_count=1882 1689 312 1377 526 851 263 35 841 100 741 479 262 141 121 105 58 47 26 79 53 428 366 66 98 65 26 33 455 62
is_linear=0
shrinkage=0.05


Tree=31
num_leaves=31
num_cat=0
split_feature=8 2 10 6 0 2 12 2 8 10 15 10 8 13 12 6 10 6 8 12 0 1 0 8 8 8 12 8 6 13
split_gain=50.2743 3.30761 3.89252 2.39238 2.31158 3.30135 2.75087 2.71327 2.45184 2.33389 2.20817 2.04454 2.00439 1.71895 1.59375 1.55883 1.5533 1.3991 1.4354 1.21492 1.18599 1.37853 1.45154 1.30822 1.46828 1.69236 2.42439 1.18337 1.73324 1.16424
threshold=19240265.500000004 11.500000000000002 561611.50000000012 175.50000000000003 337.50000000000006 146.50000000000003 9.5000000000000018 57.500000000000007 2389.0000000000005 6641222.5000000009 1.0000000180025095e-35 834753.50000000012 47863.500000000007 2.5000000000000004 15.500000000000002 5.5000000000000009 316476.00000000006 1.5000000000000002 406.50000000000006 7.5000000000000009 588.50000000000011 90.500000000000014 1529.0000000000002 274.00000000000006 23879.500000000004 7645.0000000000009 10.500000000000002 44880.500000000007 159.50000000000003 2.5000000000000004
decision_type=2 2 2 2 2 2 2 2 2 2 2 2 2 2 2 2 2 2 2 2 2 2 2 2 2 2 2 2 2 2
left_child=1 2 29 4 6 8 10 13 -6 16 11 -3 27 -8 19 -14 -7 -15 -19 -10 -11 -22 -23 -24 25 26 -25 -4 -29 -1
right_child=-2 3 12 -5 5 9 7 -9 14 20 -12 -13 15 17 -16 -17 -18 18 -20 -21 21 22 23 24 -26 -27 -28 28 -30 -31
leaf_value=-0.0028254004072395564 0.031031635205928245 -0.0026463167025023542 -0.0016426083308296051 0.012960853778401655 -0.003122313802344354 0.0033104020847169752 0.0019431297993774876 0.01006450339111198 0.00026974928292544388 0.0061208574017715947 0.012602808613971096 -0.00054283733157827754 0.015852893191174177 0.0069630869877512049 0.0010912201309689964 -4.9292681284562878e-05 -0.0032220912398332976 -0.0032010836633303398 -0.0003767599970539437 -0.0025878170428252677 -0.0017057635091670673 0.0012407125460259156 0.017511303825438192 0.011700618925055174 0.0095427285089393701 -0.0044628217237680599 -0.0045145964847303193 -0.0034211396549002696 -0.00046928297054234377 -0.0016592265700804778
leaf_weight=28 186 67 419 49 68 15.999999999999998 136 48 18 11.999999999999998 33 319 12.999999999999998 14.999999999999998 13.999999999999998 19 41 19 89 41 47 10.999999999999998 18 26 13.999999999999998 39 22 22 17 37
leaf_count=28 186 67 419 49 68 16 136 48 18 12 33 319 13 15 14 19 41 19 89 41 47 11 18 26 14 39 22 22 17 37
internal_value=3.94115e-05 -0.00263541 -0.00581081 -0.00111876 -0.00159479 -0.00471576 6.88705e-05 0.0036645 -0.0108156 -0.00121951 -0.00256563 -0.00362694 -0.00428571 0.00164093 -0.00445205 0.0078125 -0.0100877 -0.00264228 -0.00462963 -0.00805085 0.00145503 0.000423729 0.00307692 0.00147059 -0.000742574 -0.00316092 0.003125 -0.005131 -0.0134615 -0.0173077
internal_weight=1903 1717 555 1162 1113 387 726 307 141 246 419 386 490 259 73 32 57 123 108 59 189 177 130 119 101 87 48 458 39 65
internal_count=1903 1717 555 1162 1113 387 726 307 141 246 419 386 490 259 73 32 57 123 108 59 189 177 130 119 101 87 48 458 39 65
is_linear=0
shrinkage=0.05


Tree=32
num_leaves=31
num_cat=0
split_feature=8 2 9 6 6 16 11 6 8 6 11 1 2 1 9 12 8 6 12 9 0 4 4 4 2 8 8 8 1 2
split_gain=51.1507 3.03002 3.20553 4.25592 1.66825 1.40937 1.16955 2.50116 1.85664 1.57558 2.52246 1.4896 1.43229 1.2571 1.81481 1.41777 1.26984 1.20536 1.17799 1.13077 1.56252 1.06639 2.06705 1.87866 3.34799 2.54409 2.41999 2.46156 1.74633 1.61524
threshold=19240265.500000004 5.5000000000000009 15164.500000000002 6.5000000000000009 228.50000000000003 1.0000000180025095e-35 10876595.000000002 16.500000000000004 10401.500000000002 3.5000000000000004 603671.00000000012 14.500000000000002 33.500000000000007 35.500000000000007 26245.500000000004 12.500000000000002 464.00000000000006 2.5000000000000004 16.500000000000004 2807.5000000000005 115.50000000000001 15.500000000000002 5.5000000000000009 1.0000000180025095e-35 105.50000000000001 44332.500000000007 1485.0000000000002 5291.0000000000009 25.500000000000004 96.500000000000014
decision_type=2 2 2 2 2 2 2 2 2 2 2 2 2 2 2 2 2 2 2 2 2 2 2 2 2 2 2 2 2 2
left_child=1 2 -1 -4 6 -5 7 8 11 10 -10 12 -3 15 16 -13 -15 19 21 20 -14 22 23 24 25 29 -25 -28 -26 -8
right_child=-2 4 3 5 -6 -7 18 -9 9 -11 -12 13 17 14 -16 -17 -18 -19 -20 -21 -22 -23 -24 26 28 -27 27 -29 -30 -31
leaf_value=-0.0022794978467239805 0.038933646938139749 -0.0011375427982366821 0.0062925479744321729 -0.00048090770779065652 0.0097974151025026421 -0.0033136936633575325 7.6239915455213195e-05 -0.003208423106056197 -0.0028696333847749531 -0.0011472557023972042 0.01174090410675831 -0.0031752462115961473 0.014911122141645009 0.0098603245202408211 -0.0029397071510065074 0.00065043013664490841 -0.0020907037113821678 0.0100779334759533 0.0032263734161236375 -0.0047246927488712592 -0.00035176663989024766 -0.002962838612931157 0.0033878746539441826 -0.0023063096491188341 0.017280614255474037 -0.0028005967295592232 0.0056795223936632238 -0.00065449021536371501 0.0032842427251807763 -0.0058792176267038459
leaf_weight=47 188 228 24 83 11.999999999999998 84 526 22 15.999999999999998 34 30 53 10.999999999999998 21 18 10.999999999999998 14.999999999999998 15.999999999999998 21 14.999999999999998 28 63 43 74 17 76 11.999999999999998 53 36 9.9999999999999982
leaf_count=47 188 228 24 83 12 84 526 22 16 34 30 53 11 21 18 11 15 16 21 15 28 63 43 74 17 76 12 53 36 10
internal_value=-1.32485e-05 -0.00275162 -0.00798319 -0.00510471 -0.00189938 -0.00793413 -0.00205314 -0.00395753 -0.00322581 0.00375 0.00978261 -0.00456731 -0.00268456 -0.00932203 -0.0037037 -0.0140625 0.00277778 0.00357143 -0.000993555 0 0.00448718 -0.00126374 -0.00079693 -0.00136816 -0.000263158 -0.00130719 -0.00665468 0.000384615 0.0117925 -9.32836e-05
internal_weight=1887 1699 238 191 1461 167 1449 518 496 80 46 416 298 118 54 64 36 70 931 54 39 910 847 804 665 612 139 65 53 536
internal_count=1887 1699 238 191 1461 167 1449 518 496 80 46 416 298 118 54 64 36 70 931 54 39 910 847 804 665 612 139 65 53 536
is_linear=0
shrinkage=0.05


Tree=33
num_leaves=31
num_cat=0
split_feature=8 10 2 8 14 0 13 1 2 1 0 1 0 2 8 8 0 1 13 2 8 9 8 9 9 10 2 11 8 10
split_gain=52.7201 2.65658 2.15423 3.38383 2.10296 2.81236 1.56538 1.81267 1.39701 1.34782 2.79777 1.85304 2.20916 3.82063 2.58536 1.7479 1.58746 1.22315 2.71405 1.21493 1.64047 1.77963 1.43939 1.20184 2.00307 1.67318 1.65721 1.65663 1.38889 1.57005
threshold=19240265.500000004 561134111.50000012 5.5000000000000009 81.500000000000014 1.0000000180025095e-35 68.500000000000014 2.5000000000000004 10.500000000000002 1.5000000000000002 203.50000000000003 1603.5000000000002 90.500000000000014 321.50000000000006 88.500000000000014 2389.0000000000005 23879.500000000004 594.50000000000011 530.00000000000011 3.5000000000000004 2.5000000000000004 281.00000000000006 28839.500000000004 452.00000000000006 41336.000000000007 79854.500000000015 5124682.0000000009 7.5000000000000009 7770891.5000000009 452.00000000000006 22859132.500000004
decision_type=2 2 2 2 2 2 2 2 2 2 2 2 2 2 2 2 2 2 2 2 2 2 2 2 2 2 2 2 2 2
left_child=1 2 3 -1 9 23 -7 -8 -5 10 11 12 13 -4 16 17 -14 -11 -19 -10 21 -21 -22 25 27 26 -6 -25 29 -29
right_child=-2 -3 4 8 5 6 7 -9 19 15 -12 -13 14 -15 -16 -17 -18 18 -20 20 22 -23 -24 24 -26 -27 -28 28 -30 -31
leaf_value=-0.0022757898194816213 0.027533371098724849 0.006792148360398576 -0.00090261496440719737 0.0039543312155660522 -0.0025657338998700428 0.0097080134233034562 -0.0019795176947417616 0.016416583542700338 -0.002978377741461992 0.0013795175698907008 -0.0029184836947790706 0.0016609093380677662 -0.0027104457970193035 0.018266428292106725 -0.00032469271249738061 0.014686139933944098 -0.00069323860622516999 -0.004398365421525198 0.012230497593797291 -0.002194673401751248 -0.0034872903473535683 0.0044636917663250855 -0.001078362276546014 0.025546867174167515 -0.00035906709372284033 -0.0028250276410388396 0.00021221260397709732 0.0017004984357169629 -0.0016456255395485694 0.0096025010433552146
leaf_weight=29 196 14.999999999999998 452 28 20 66 45 12.999999999999998 35 29 43 13.999999999999998 89 15.999999999999998 110 13.999999999999998 24 58 17 15.000000000000002 14.999999999999998 11.999999999999998 95 10.999999999999998 240 49 103 23 36 12.999999999999998
leaf_count=29 196 15 452 28 20 66 45 13 35 29 43 14 89 16 110 14 24 58 17 15 15 12 95 11 240 49 103 23 36 13
internal_value=0.000168831 -0.00261712 -0.00280047 -0.00731441 -0.00210438 0.000121163 0.00685484 0.000862069 -0.005 -0.00369515 -0.00447861 -0.0037234 -0.00408828 -0.00213675 -0.00818386 0.00127119 -0.0134956 -0.000961538 -0.00433333 -0.00668605 -0.00456204 0.00648148 -0.00727273 -0.00156566 0.000232198 -0.00494186 -0.00182927 0.00692771 0.00416667 0.0111111
