tree
version=v4
num_class=1
num_tree_per_iteration=1
label_index=0
max_feature_idx=46
objective=quantile
feature_names=Column_0 Column_1 Column_2 Column_3 Column_4 Column_5 Column_6 Column_7 Column_8 Column_9 Column_10 Column_11 Column_12 Column_13 Column_14 Column_15 Column_16 Column_17 Column_18 Column_19 Column_20 Column_21 Column_22 Column_23 Column_24 Column_25 Column_26 Column_27 Column_28 Column_29 Column_30 Column_31 Column_32 Column_33 Column_34 Column_35 Column_36 Column_37 Column_38 Column_39 Column_40 Column_41 Column_42 Column_43 Column_44 Column_45 Column_46
feature_infos=[1:419128] [1:10338] [1:105057] [0:1] [0:800] none [0:250] [0:1] [0:976023576] [0:6526440] [0:951432192] [0:982550016] [1:18] [0:6] [0:1] [0:1] [-1:6] none [0:5] [0:1] [0:1] [0:1] [0:1] [0:1] [0:1] [0:1] [0:1] [0:1] [0:1] [0:1] [0:1] [0:0.88994011431578013] [-0.23025384138804508:0.39298997174880534] [-0.29598720142226914:0.53357831809917267] [-0.41153791878318924:0.47840436756937565] [-0.13981246454228904:0.87072620336671702] [-0.37863847470582596:0.48483025769191107] [-0.41728361231176792:0.34393791284387221] [-0.31237108943193903:0.58080016577848048] [-0.37989501575126894:0.47426019535148567] [-0.3249278845268842:0.38550571276949941] [-0.074162302661184579:0.94346867852931859] [-0.34899341927021238:0.48284069978658739] [-0.21547235316881727:0.45675907447413916] [-0.39825853831445568:0.36497895744774339] [-0.31245742433483015:0.39551951235865118] [-0.40019656488753946:0.31752791925702228]
tree_sizes=3088 3096 3132 3176 3137 3138 3204 3180

Tree=0
num_leaves=31
num_cat=0
split_feature=32 11 43 8 0 34 37 42 42 36 13 34 41 38 43 34 2 40 37 19 19 12 37 26 18 2 6 12 6 34
split_gain=12.7848 11.3034 5.04955 3.0975 4.97864 2.2821 2.04167 1.908 1.76791 1.65354 2.25659 1.57419 1.31506 1.02079 0.916017 0.804762 0.756068 0.751216 0.746231 0.704859 0.63495 1.05755 0.929185 0.727273 0.70246 1.01952 2.46154 0.634926 0.500433 0.465385
threshold=0.01550626007008094 4927496.5000000009 -0.01356596993879885 45.500000000000007 16.500000000000004 -0.049858262240041966 -0.038687971077020218 0.33900421293803085 -0.0027686424382387044 -0.0065082105862304118 2.5000000000000004 -0.053385835930061944 0.10343872203190961 -0.13892886201700783 -0.0010969963673769828 -0.085421324223481324 10.500000000000002 0.087204509408293066 0.031607330060104639 1.0000000180025095e-35 1.0000000180025095e-35 6.5000000000000009 0.0079245406989890705 1.0000000180025095e-35 4.5000000000000009 81.500000000000014 34.500000000000007 3.5000000000000004 39.500000000000007 0.043898717781767647
decision_type=2 2 2 2 2 2 2 2 2 2 2 2 2 2 2 2 2 2 2 2 2 2 2 2 2 2 2 2 2 2
left_child=1 9 -3 4 6 15 -2 11 14 -1 -11 13 16 -5 -4 -6 17 19 -7 -13 24 23 -23 -22 -15 -26 -27 -10 -21 -20
right_child=3 2 8 7 5 18 -8 -9 27 10 -12 12 -14 20 -16 -17 -18 -19 29 28 21 22 -24 -25 25 26 -28 -29 -30 -31
leaf_value=0.029219956393356304 0.029430190438464208 0.029289281443236389 0.029770123423410736 0.029595072138494622 0.030281245304683888 0.031251219948002444 0.029357956900375268 0.029051703157616352 0.029804376984730516 0.029424337158140499 0.030080241452210506 0.030887078804327801 0.029687683547912232 0.031312666934112901 0.029309856155117612 0.02948838393310255 0.032379934761586411 0.029574876995648713 0.029697069059868478 0.030696710106697139 0.029714341747389416 0.03045584224277486 0.0295444296078398 0.029603389338760715 0.030503402498249853 0.032155638037064914 0.029194887851508089 0.030793234894376648 0.029939639544275674 0.030227136909916512
leaf_weight=31 12.000000000000002 14.999999999999998 11.000000000000002 17 10.000000000000002 99 11.999999999999998 13.999999999999998 9.9999999999999982 15.000000000000002 12.999999999999998 326 9.9999999999999982 141 9.9999999999999982 13.999999999999998 747 25 10.000000000000002 11.000000000000002 11 68 9.9999999999999982 11 95 13.000000000000002 12.999999999999998 88 9.9999999999999982 15.999999999999998
leaf_count=31 12 15 11 17 10 99 12 14 10 15 13 326 10 141 10 14 747 25 10 11 11 68 10 11 95 13 13 88 10 16
internal_value=0.0302145 0.0180211 0.0260503 0.0316028 0.0252631 0.0286673 0.00412866 0.0323235 0.0294963 -0.000214559 0.00859295 0.032494 0.03343 0.0297058 0.016331 0.0145453 0.0335914 0.0317496 0.0313787 0.0323527 0.0302682 0.0268787 0.0296094 0.0171968 0.0315619 0.0287671 0.019994 0.0323174 0.0234739 0.0238402
internal_weight=1888 193 134 1695 173 149 24 1522 119 59 28 1508 1129 379 21 24 1119 372 125 347 362 100 78 22 262 121 26 98 21 26
internal_count=1888 193 134 1695 173 149 24 1522 119 59 28 1508 1129 379 21 24 1119 372 125 347 362 100 78 22 262 121 26 98 21 26
is_linear=0
shrinkage=1


Tree=1
num_leaves=31
num_cat=0
split_feature=9 0 1 41 43 13 1 33 10 42 37 12 16 18 16 1 40 12 38 41 40 45 9 2 40 13 11 35 11 41
split_gain=6.73444 6.99486 4.6098 4.4401 3.30517 2.73441 2.07898 4.13928 1.96364 1.88797 1.41531 1.32589 1.31635 1.16597 1.35664 2.2179 1.54343 1.67864 1.445 1.45786 1.20401 1.15171 1.11682 1.05109 1.08639 1.17005 0.999844 0.980988 0.976596 1.35
threshold=6233.0000000000009 16.500000000000004 15.500000000000002 0.35315547035410816 -0.0045379828307968526 2.5000000000000004 141.50000000000003 -0.039757977806636147 336128.00000000006 0.33900421293803085 0.030378601634896901 8.5000000000000018 3.5000000000000004 3.5000000000000004 3.5000000000000004 9.5000000000000018 0.00031828747760769867 8.5000000000000018 0.043264073453973574 -0.0014568267653348457 -0.033994478981600698 1.0000000180025095e-35 23209.500000000004 10.500000000000002 0.076467689658336155 2.5000000000000004 1506217.0000000002 0.0183460097354574 13583017.500000002 0.0029812382416852558
decision_type=2 2 2 2 2 2 2 2 2 2 2 2 2 2 2 2 2 2 2 2 2 2 2 2 2 2 2 2 2 2
left_child=1 5 27 6 -4 -1 9 10 -6 13 11 21 -7 -2 15 23 18 22 19 20 -17 -8 -18 24 26 -26 -15 -3 -24 -30
right_child=3 2 4 -5 8 12 7 -9 -10 -11 -12 -13 -14 14 -16 16 17 -19 -20 -21 -22 -23 28 -25 25 -27 -28 -29 29 -31
leaf_value=-0.0010844440238556863 0.0026262807311675895 0.00056513923265261482 -0.00028870820579876414 -0.0010019692063358452 -0.0010695275047747628 -0.00096056713817947725 -0.00072731132985734382 -0.00019665615033759751 -0.0011007626459459722 -0.0012606091780334124 -0.00080885085584109912 0.00039136584422139772 0.0010761192142625601 -0.00096215844176633441 0.048719545723315945 -0.0010144926527146422 -0.0003340782258375388 0.00092347374997831021 0.0077542138554641043 -0.0010136314787220905 0.0013806834224401256 -0.000209333547910762 3.2511814331413588e-05 0.0012288315055626522 -0.00059104002686537899 -0.00099514137068195622 9.7622656766900746e-05 -0.00063906633948745181 0.0013347738430743992 -0.00095346462072320472
leaf_weight=22 320 117 19 17 10.000000000000002 15.999999999999998 18 11.999999999999998 11.999999999999998 13.999999999999998 9.9999999999999982 84 10.000000000000002 9.9999999999999982 201 12.999999999999998 10.999999999999998 70 9.9999999999999982 17 10.000000000000002 26 17 390 21 10.999999999999998 329 10.999999999999998 10.000000000000002 20
leaf_count=22 320 117 19 17 10 16 18 12 12 14 10 84 10 10 201 13 11 70 10 17 10 26 17 390 21 11 329 11 10 20
internal_value=-8.61139e-05 -0.00836405 -0.00357988 0.00100853 -0.0181707 -0.0252083 0.00127463 -0.00433333 -0.0313636 0.00184532 -0.00188406 -0.00046875 -0.0142308 0.00202055 0.00127193 0.000473909 -0.00455056 -0.00164062 -0.012 -0.01625 -0.00804348 -0.0075 -0.00793103 0.00164915 -0.000256064 -0.0090625 0.000575221 0.00109375 -0.00457447 -0.01
internal_weight=1858 217 169 1641 41 48 1624 150 22 1474 138 128 26 1460 1140 939 178 128 50 40 23 44 58 761 371 32 339 128 47 30
internal_count=1858 217 169 1641 41 48 1624 150 22 1474 138 128 26 1460 1140 939 178 128 50 40 23 44 58 761 371 32 339 128 47 30
is_linear=0
shrinkage=0.05


Tree=2
num_leaves=31
num_cat=0
split_feature=32 11 9 0 42 36 33 43 12 31 0 36 8 8 4 13 12 4 45 31 8 44 41 33 42 6 16 45 34 44
split_gain=10.7935 6.67932 3.34928 5.38952 3.21453 2.11722 1.90864 1.90434 1.5474 1.49541 1.42503 1.31352 1.23966 1.18492 1.15103 1.12005 0.92961 2.67373 0.945787 1.47468 1.9025 0.890646 0.823452 0.762698 0.630762 1.48664 1.50693 0.584947 0.558452 0.587034
threshold=0.01550626007008094 4670173.5000000009 6233.0000000000009 19.500000000000004 -0.0027686424382387044 -0.0065082105862304118 -0.066821128642616648 0.28139442555115191 3.5000000000000004 0.2237388539220109 18.500000000000004 -0.0054193034454455965 61.500000000000007 46502.500000000007 1.0000000180025095e-35 2.5000000000000004 6.5000000000000009 3.5000000000000004 0.0076501330332778361 0.02680324325684633 1346.5000000000002 0.018492906792346848 0.00069035172929098087 0.06108907539223974 -0.019381526922899697 18.500000000000004 1.0000000180025095e-35 0.015298537323610657 -0.033323738943392536 0.14558717813619232
decision_type=2 2 2 2 2 2 2 2 2 2 2 2 2 2 2 2 2 2 2 2 2 2 2 2 2 2 2 2 2 2
left_child=1 5 3 11 10 23 14 9 -6 13 -3 -2 21 16 -5 -7 17 18 -4 20 -20 -13 -12 -1 25 -21 -27 28 -18 -30
right_child=2 4 7 6 8 15 -8 -9 -10 -11 22 12 -14 -15 -16 -17 27 -19 19 24 -22 -23 -24 -25 -26 26 -28 -29 29 -31
leaf_value=-0.0010460461831220071 -0.00091030784060472814 -0.0010070110820113111 0.00044788500888721418 -0.00089099633549858 -0.00049759497698914493 -0.00085518964833349975 0.0005196446756956806 -0.0011083526475878433 7.2216562084690642e-05 -0.00077691932182070999 -0.00037166735128277994 -0.00073994102300108512 0.00069077738381697793 0.012125396795477573 3.1950518341396922e-05 -0.00020159880796495285 -0.00019398210519603663 -0.00082420190247177905 0.00070791999231757815 0.0026155878466599773 -0.00092894166750005162 -0.00095373756515150336 -0.00095305996365050718 -0.00074172100004281155 0.0016309539883880703 0.0019347991231589486 -0.00094550476677044434 0.0010474599464176271 0.00086525351699386186 -0.00077477065146149254
leaf_weight=18.000000000000004 12.999999999999998 9.9999999999999982 127 12.000000000000002 9.9999999999999982 13 123 13.999999999999998 93 17 12.000000000000002 12.000000000000002 9.9999999999999982 341 12.999999999999998 11 171 14.999999999999998 11.000000000000002 20 11.999999999999998 10.999999999999998 10.999999999999998 9.9999999999999982 44 10 11 348 355 17
leaf_count=18 13 10 127 12 10 13 123 14 93 17 12 12 10 341 13 11 171 15 11 20 12 11 11 10 44 10 11 348 355 17
internal_value=-0.000118733 -0.0114894 0.00113357 -0.00505155 -0.00566176 -0.0267308 -0.000405405 0.00192664 -0.00131068 0.00209807 -0.0192424 -0.02 -0.014697 0.00226721 -0.013 -0.0158333 0.0014943 -0.0012 0.000106383 -0.00333333 -0.0145652 -0.021087 -0.0123913 -0.0360714 -0.000294117 -0.0047561 -0.0140476 0.00225028 0.00122468 0.00231183
internal_weight=1895 188 1707 194 136 52 148 1513 103 1499 33 46 33 1482 25 24 1141 250 235 108 23 23 23 28 85 41 21 891 543 372
internal_count=1895 188 1707 194 136 52 148 1513 103 1499 33 46 33 1482 25 24 1141 250 235 108 23 23 23 28 85 41 21 891 543 372
is_linear=0
shrinkage=0.05


Tree=3
num_leaves=31
num_cat=0
split_feature=32 11 42 8 0 34 37 43 1 36 13 16 12 34 0 8 37 8 0 8 11 32 0 45 36 41 12 42 34 43
split_gain=10.7112 8.64593 3.02883 2.92612 5.0476 2.3912 1.81071 1.71012 1.64968 1.62207 1.74649 1.38626 1.06894 1.06667 1.03704 1.10455 1.16768 0.958383 0.989622 1.47575 0.968024 0.82332 0.766952 1.2983 1.59137 0.648032 0.637681 0.573652 0.754494 0.550649
threshold=0.01550626007008094 4670173.5000000009 -0.0027686424382387044 49.500000000000007 16.500000000000004 -0.03561844614606962 -0.038687971077020218 0.32986480812836988 894.50000000000011 -0.0065082105862304118 2.5000000000000004 1.0000000180025095e-35 5.5000000000000009 0.037199090140989662 10871.500000000002 2326.0000000000005 -0.043887053119055622 46658.500000000007 20.500000000000004 44880.500000000007 1402133.5000000002 0.090157568679746378 207.50000000000003 -0.014060474510578723 0.024142666518934038 0.0066638456198806007 10.500000000000002 0.041056112374117444 -0.062854234695203084 -0.086210496023623281
decision_type=2 2 2 2 2 2 2 2 2 2 2 2 2 2 2 2 2 2 2 2 2 2 2 2 2 2 2 2 2 2
left_child=1 9 13 4 6 11 -2 8 17 25 -11 -6 -4 -3 -10 -16 -17 18 19 20 -5 22 -20 24 -24 -1 -26 29 -29 -22
right_child=3 2 12 7 5 -7 -8 -9 14 10 -12 -13 -14 -15 15 16 -18 -19 21 -21 27 -23 23 -25 26 -27 -28 28 -30 -31
leaf_value=-0.00099604422169518344 -0.0007176371144146026 -0.0010181997070927821 -0.00051941553709206956 -0.00065917584859537628 -0.0008425505269697098 0.00036554235707065099 -0.00096705848379051028 -0.0011423852223389562 -0.00052366045155588959 -0.0008498901144875006 -0.00025923616716175312 0.00011936312098339853 0.00029974418094484701 -0.00048738861076162026 0.002668924963451785 0.00038555993363614496 -0.0010629699314016671 0.01164645944035643 0.00058392901184528871 -0.00078575645535106878 -0.00077856781551356355 0.0016374698073512344 -0.0012091776172449336 0.00013152019279030411 -0.00061909385609154209 -0.0010039386582814077 0.00040326550871859729 -0.0012800848783146332 -9.7803387448210409e-05 0.00037436797403216424
leaf_weight=18.000000000000004 10.000000000000002 20.000000000000004 19 19 15.000000000000002 118 13.999999999999998 10.999999999999998 12.999999999999998 14.000000000000002 10.999999999999998 12.999999999999998 78 9.9999999999999982 27 14.999999999999995 18.000000000000004 320 124 13.999999999999998 17 574 10.999999999999998 54 12.000000000000002 10.999999999999998 10.999999999999998 12.999999999999998 45 226
leaf_count=18 10 20 19 19 15 118 14 11 13 14 11 13 78 10 27 15 18 320 124 14 17 574 11 54 12 11 11 13 45 226
internal_value=-1.33331e-05 -0.0115746 -0.00444882 0.00122196 -0.005 -0.00150685 -0.02625 0.00191601 0.00205882 -0.0283333 -0.019 -0.0146429 -0.000154639 -0.0183333 -0.00527397 -0.0025 -0.00863636 0.00243056 0.00174107 -0.000538922 0.00015625 0.00270992 4.717e-05 -0.00352273 -0.0111765 -0.0363793 -0.00369565 0.000847176 -0.00362069 0.00191358
internal_weight=1875 181 127 1694 170 146 24 1524 1513 54 25 28 97 30 73 60 33 1440 1120 334 320 786 212 88 34 29 23 301 58 243
internal_count=1875 181 127 1694 170 146 24 1524 1513 54 25 28 97 30 73 60 33 1440 1120 334 320 786 212 88 34 29 23 301 58 243
is_linear=0
shrinkage=0.05


Tree=4
num_leaves=31
num_cat=0
split_feature=32 11 42 9 0 8 36 34 0 34 36 12 8 34 0 19 37 12 33 8 36 34 18 43 44 36 40 33 12 39
split_gain=8.31738 6.33361 3.09638 2.56525 5.24519 2.39398 2.06165 1.85412 1.64046 1.47205 1.35281 0.980112 0.945614 0.903763 0.895269 0.981789 2.77778 1.143 0.838509 0.904348 0.793651 0.654545 0.632201 0.725926 1.13071 1.94329 1.07246 1.55556 0.620253 1.09553
threshold=0.01550626007008094 4670173.5000000009 -0.0027686424382387044 10018.500000000002 19.500000000000004 76.500000000000014 -0.0070214922245061566 -0.062854234695203084 18.500000000000004 -0.03561844614606962 0.0007347147042943684 7.5000000000000009 1485.0000000000002 -0.067071776371288513 6.5000000000000009 1.0000000180025095e-35 0.018247891108156836 8.5000000000000018 -0.17101447284238144 19399.000000000004 -0.0088103680044037316 -0.19367345241032916 3.5000000000000004 -0.035827317459484885 -0.069043276865146955 -0.029023833882865033 0.035239049671472684 -0.11091694617003743 3.5000000000000004 -0.014169005235289576
decision_type=2 2 2 2 2 2 2 2 2 2 2 2 2 2 2 2 2 2 2 2 2 2 2 2 2 2 2 2 2 2
left_child=1 6 8 4 5 10 12 14 -3 13 -2 20 -1 -6 -5 22 17 18 19 -17 -4 -19 -16 -24 25 -25 -26 -28 29 -9
right_child=3 2 11 7 9 -7 -8 28 -10 -11 -12 -13 -14 -15 15 16 -18 21 -20 -21 -22 -23 23 24 26 -27 27 -29 -30 -31
leaf_value=-0.00094576712234261989 -0.000944851758333024 -0.00088582756003172656 4.1902383580306264e-05 -0.0010411793392539244 -0.00029178391535264659 -0.0001606668917258868 -0.00070727408884652565 -0.00082690704495085726 -0.00055847984798209943 0.00040674857985497476 -0.00077498213155153606 0.0003149857956012375 -0.00095374172536733719 -0.00071196569847368216 0.00078079700489418723 0.00068259805171137018 -0.00067641385038792528 -6.708272572044147e-05 -0.00091083557508792707 -0.0010742042537006718 -0.00062061009678694647 0.00171729843002375 0.00060091914938429942 0.00072501828089426099 0.0012733648380076372 -0.0011795527413385812 0.0020122276651240107 -0.00086626547406533762 0.00087917390882081875 0.001649122049581905
leaf_weight=19.000000000000004 10.999999999999998 13.999999999999998 13.999999999999998 12.999999999999998 16.000000000000004 21 22 34 19 141 21 74 10.999999999999998 14.999999999999998 98 13.000000000000002 9.9999999999999982 10.999999999999998 11.999999999999998 9.9999999999999982 18 44 45 11.000000000000002 37 9.9999999999999982 13.999999999999998 18 1038 55
leaf_count=19 11 14 14 13 16 21 22 34 19 141 21 74 11 15 98 13 10 11 12 10 18 44 45 11 37 10 14 18 1038 55
internal_value=-2.91157e-05 -0.00992147 -0.00435252 0.00108363 -0.00388889 -0.0176415 -0.0248077 0.00184318 -0.0177273 0.000348837 -0.02625 -0.000188679 -0.0333333 -0.00951613 -0.00135838 -0.000855856 -0.005 -0.00222222 -0.00928571 -0.00369565 -0.0075 0.00227273 0.000922747 -0.0012963 -0.00388889 -0.0140476 -0.000797101 -0.0075 0.00282609 -0.00117978
internal_weight=1889 191 139 1698 225 53 52 1473 33 172 32 106 30 31 346 333 100 90 35 23 32 55 233 135 90 21 69 32 1127 89
internal_count=1889 191 139 1698 225 53 52 1473 33 172 32 106 30 31 346 333 100 90 35 23 32 55 233 135 90 21 69 32 1127 89
is_linear=0
shrinkage=0.05


Tree=5
num_leaves=31
num_cat=0
split_feature=32 10 8 31 46 42 43 44 12 8 10 43 34 37 33 41 12 44 40 41 41 34 32 41 39 39 18 8 41 32
split_gain=6.34247 3.4911 3.00161 3.1315 2.62269 2.47645 1.89043 1.77289 1.63861 1.59895 1.50417 1.44461 1.24001 1.22549 1.184 1.03034 0.964513 0.94591 0.936125 0.923077 1.76471 0.869146 0.916305 0.883515 1.24342 0.8 0.744226 0.960317 1.25899 1.32326
threshold=0.01550626007008094 1357701.5000000002 49.500000000000007 0.030630927675117887 0.029512133891374057 -0.0027686424382387044 0.28139442555115191 0.00047321398888566091 7.5000000000000009 46658.500000000007 8362321.0000000009 -0.0046670586041000712 0.037199090140989662 -0.0042533267040285464 -0.071856722578040363 0.077693423165472023 13.500000000000002 0.16115172208212938 0.038681773125565748 -0.027566856680962416 -0.00035099748438638102 -0.069546035238458356 0.15878006146414522 -0.037059789389280569 -0.036241518038642014 0.023404914290961327 3.5000000000000004 2160.0000000000005 -0.00095035214233092603 0.082184178251958687
decision_type=2 2 2 2 2 2 2 2 2 2 2 2 2 2 2 2 2 2 2 2 2 2 2 2 2 2 2 2 2 2
left_child=1 7 3 4 13 12 9 -1 10 15 -7 -5 -3 -2 -13 17 -10 21 -16 -19 -21 23 -23 24 -4 -6 -25 -28 -29 -30
right_child=2 5 6 11 25 8 -8 -9 16 -11 -12 14 -14 -15 18 -17 -18 19 -20 20 -22 22 -24 26 -26 -27 27 28 29 -31
leaf_value=-0.00072955314382260083 0.00026205047316422666 -0.0009423472907862479 -5.200183631072896e-05 0.0023494277773257297 -0.00089142337981036851 -0.00025818605935338688 -0.0010932488525867629 -0.00090934867348350002 0.00011064143526825034 0.012245517396656982 -0.00032212079544626307 -0.00085267759054626514 -0.00043233417990913591 -0.00075940064576305081 0.00026053775884341614 -0.00065737884079200017 -0.00046877021424435357 0.00201156275785032 -0.00041557170440301692 -0.00099136972632972832 0.00052221606179397916 0.00022073077935485499 0.0014971152161555442 0.0004277125128944801 -0.00071598824274960403 -0.0008493278684935969 0.00013526207680724631 -0.0011353559489302144 -0.00056893126144997837 3.5129618437955606e-05
leaf_weight=12.000000000000002 17.000000000000004 19 24 78 10.000000000000002 15.999999999999998 18 13.999999999999998 70 344 24 10.999999999999998 12.999999999999998 9.9999999999999982 23 9.9999999999999982 17 11.999999999999998 17 17 10.000000000000002 534 328 107 13.999999999999998 9.9999999999999982 63 10.999999999999998 9.9999999999999982 42
leaf_count=12 17 19 24 78 10 16 18 14 70 344 24 11 13 10 23 10 17 12 17 17 10 534 328 107 14 10 63 11 10 42
internal_value=1.31235e-05 -0.00878378 0.000959302 -0.00522727 -0.0162766 -0.00600629 0.00166451 -0.0257692 -0.00287402 0.00185452 -0.01125 -0.00120155 -0.0184375 -0.00611111 -0.0077451 0.000981388 0.000977012 0.00111775 -0.00375 -0.00653846 -0.0116667 0.00138129 0.00215777 -0.00108856 -0.00815789 -0.03 6.43779e-05 -0.00253968 -0.00690476 -0.00365385
internal_weight=1905 185 1720 176 47 159 1544 26 127 1526 40 129 32 27 51 1182 87 1172 40 39 27 1133 862 271 38 20 233 126 63 52
internal_count=1905 185 1720 176 47 159 1544 26 127 1526 40 129 32 27 51 1182 87 1172 40 39 27 1133 862 271 38 20 233 126 63 52
is_linear=0
shrinkage=0.05


Tree=6
num_leaves=31
num_cat=0
split_feature=32 9 8 2 39 42 38 13 46 34 12 8 40 31 1 39 38 21 44 41 6 36 46 41 41 36 41 41 45 12
split_gain=7.03088 5.51346 2.95444 5.81818 2.8913 2.60667 2.08469 2.08369 2.07424 1.92948 1.72571 1.30402 1.35677 2.43265 1.20065 2.09455 1.30935 1.16447 1.00234 1.08052 1.02424 0.956277 0.931131 0.79584 0.615735 0.571096 0.488494 1.2803 1.85606 0.45
threshold=0.01550626007008094 18894.000000000004 67.500000000000014 9.5000000000000018 0.0082229193736991398 -0.0027686424382387044 0.015656984960908005 2.5000000000000004 0.044952729797060477 -0.03561844614606962 9.5000000000000018 47744.000000000007 -0.052194025871260784 0.025525551215621663 20.500000000000004 -0.0014584764765447416 -0.046801689591786509 1.0000000180025095e-35 0.14558717813619232 -0.00035099748438638102 31.500000000000004 -0.019824081753008749 0.26118471168068447 0.00069035172929098087 0.07316306578777472 0.038417469902121297 -0.01406864830857168 -0.0016306384546435485 0.037562053960183077 6.5000000000000009
decision_type=2 2 2 2 2 2 2 2 2 2 2 2 2 2 2 2 2 2 2 2 2 2 2 2 2 2 2 2 2 2
left_child=1 4 3 7 29 23 -7 -2 -9 17 -8 12 13 21 -15 25 -17 -5 22 20 -20 -4 24 -3 -14 -16 -11 28 -28 -1
right_child=2 5 11 9 -6 6 10 8 -10 26 -12 -13 18 14 15 16 -18 -19 19 -21 -22 -23 -24 -25 -26 -27 27 -29 -30 -31
leaf_value=-0.00057212653901439448 -0.00096863728823709961 -0.00084088747585948182 -0.00032872281653347109 -0.00037271445182614042 -0.00085756579201133316 4.0585627464905309e-05 -0.00084976803969859314 0.00025180789630373934 -0.00069218999361322876 0.0021325479355484424 -1.8715471750676771e-05 0.022583637090510582 0.00064911791364967095 0.0010565093770528052 0.00030948779787290436 -0.00069801638647651895 -0.00081823004427862512 -0.00080177789066465167 -0.0011371557413130476 0.00053987738091378188 -0.00058886668740121143 -0.00067706973277221051 -0.00021565980000818409 -0.0007786763619305301 -0.00076323907443534957 -0.00029510752766383257 -0.00099219490795048916 0.00047186818885921236 0.0016414191110427868 -0.0001134874315263335
leaf_weight=10.000000000000002 13.999999999999998 12.000000000000002 11.000000000000002 17 19 92 10.000000000000002 12.000000000000002 9.9999999999999982 67 17 277 988 78 39 11.000000000000002 13.999999999999998 12.000000000000002 10.000000000000002 12.999999999999998 11.999999999999998 9.9999999999999982 11.999999999999998 19 9.9999999999999982 15.999999999999998 12.000000000000002 44 9.9999999999999982 9.9999999999999982
leaf_count=10 14 12 11 17 19 92 10 12 10 67 17 277 988 78 39 11 14 12 10 13 12 10 12 19 10 16 12 44 10 10
internal_value=0.000127119 -0.00902116 0.00114479 -0.00459596 -0.0257692 -0.00466667 -0.00130252 -0.0227778 -0.0131818 -0.000555555 -0.0135185 0.00190207 0.00120098 -0.00282123 -0.000696202 -0.005 -0.017 -0.0122414 0.00188995 -0.00642857 -0.0131818 -0.0188095 0.00217822 -0.0175806 0.00234469 0.000454546 0.00199248 -0.00106061 -0.0109091 -0.0125
internal_weight=1888 189 1699 198 39 150 119 36 22 162 27 1501 1224 179 158 80 25 29 1045 35 22 21 1010 31 998 55 133 66 22 20
internal_count=1888 189 1699 198 39 150 119 36 22 162 27 1501 1224 179 158 80 25 29 1045 35 22 21 1010 31 998 55 133 66 22 20
is_linear=0
shrinkage=0.05


Tree=7
num_leaves=31
num_cat=0
split_feature=32 9 9 0 33 42 43 42 39 31 31 37 32 32 4 35 0 0 35 0 34 9 18 46 39 0 45 12 12 43
split_gain=5.96041 5.60127 2.99826 4.46584 3.01827 2.97698 2.26487 1.92594 1.80985 1.74199 1.47443 1.49716 2.33544 1.63636 1.45628 1.34804 1.22727 0.961208 0.913916 0.806598 0.789919 0.752819 0.762257 1.14332 1.2491 0.808291 1.94665 1.05353 0.733446 0.648897
threshold=0.01550626007008094 18894.000000000004 9224.0000000000018 19.500000000000004 -0.071856722578040363 -0.0027686424382387044 -0.022742051475374118 -0.02071462108539621 0.0082229193736991398 0.83586978948246016 0.19506065066468523 0.11656860320450647 0.097360496684728418 0.082184178251958687 1.0000000180025095e-35 0.097495709990090537 18.500000000000004 7.5000000000000009 0.0046835327588259949 1663.0000000000002 -0.049858262240041966 575958.50000000012 3.5000000000000004 -0.022339166144490861 0.058268543065198845 212.50000000000003 -0.026895431707084763 6.5000000000000009 10.500000000000002 0.096191039091608602
decision_type=2 2 2 2 2 2 2 2 2 2 2 2 2 2 2 2 2 2 2 2 2 2 2 2 2 2 2 2 2 2
left_child=1 8 3 6 14 16 -2 -8 -1 19 11 18 13 -13 -5 -12 -3 -14 -4 -7 -6 22 -20 24 28 -25 -27 -28 -24 -19
right_child=2 5 10 4 20 9 7 -9 -10 -11 15 12 17 -15 -16 -17 -18 29 21 -21 -22 -23 23 25 -26 26 27 -29 -30 -31
leaf_value=-0.00050443356705178843 -0.00031338552312851718 -0.00076231525872234255 0.0010297272951474794 -0.00068729659537126097 -0.00063364067395971484 0.00016821906458461234 -0.00068656486714094886 -0.00076301881057385529 -0.00081075098332797433 -0.00091088104740858194 -4.1286713017622593e-06 -0.00083028540698828817 -0.00053307301904654679 -0.0015580906288298363 -0.00036093088411629751 -0.0006078285127184477 -0.00064580361218550793 0.00051123653238987414 0.00060957697507571615 -2.1846076101925821e-05 0.0004148704116923913 0.0019888513060833607 -0.00045980809338303901 0.00027736255692651762 -0.00074706506804433144 -0.001143622537834026 -0.00093568052653968592 0.0008284524099192404 0.0015139317375318486 -0.0011711800169462209
leaf_weight=21 17 10.999999999999998 779 11.000000000000002 12.999999999999998 95 17.000000000000004 12.999999999999998 15.999999999999998 12.999999999999998 27 11.000000000000002 13.999999999999998 10.999999999999998 9.9999999999999982 17 22 125 157 12.999999999999998 140 83 19.000000000000004 120 9.9999999999999982 15.999999999999998 9.9999999999999982 47 11.999999999999998 20
leaf_count=21 17 11 779 11 13 95 17 13 16 13 27 11 14 11 10 17 22 125 157 13 140 83 19 120 10 16 10 47 12 20
internal_value=-0.000238095 -0.00861257 0.000703355 -0.00472851 -0.00103448 -0.00441558 -0.0184043 -0.0266667 -0.0260811 -0.000785124 0.00151556 0.00179219 -0.00245856 -0.0177273 -0.0188095 -0.0075 -0.0177273 -0.000345912 0.00240623 0.0012963 0.00140523 0.000675106 -0.000242967 -0.00205128 -0.00963415 -0.000440414 -0.00458904 -0.000263158 -0.00467742 0.000862069
internal_weight=1890 191 1699 221 174 154 47 30 37 121 1478 1434 181 22 21 44 33 159 1253 108 153 474 391 234 41 193 73 57 31 145
internal_count=1890 191 1699 221 174 154 47 30 37 121 1478 1434 181 22 21 44 33 159 1253 108 153 474 391 234 41 193 73 57 31 145
is_linear=0
shrinkage=0.05


end of trees

feature_importances:
Column_12=17
Column_0=16
Column_8=16
Column_34=16
Column_41=16
Column_32=12
Column_42=12
Column_36=11
Column_43=11
Column_37=9
Column_9=8
Column_11=7
Column_33=7
Column_39=7
Column_40=7
Column_13=6
Column_31=6
Column_44=6
Column_45=6
Column_1=5
Column_18=5
Column_2=4
Column_6=4
Column_16=4
Column_38=4
Column_46=4
Column_4=3
Column_10=3
Column_19=3
Column_35=3
Column_21=1
Column_26=1

parameters:
[boosting: gbdt]
[objective: quantile]
[metric: quantile]
[tree_learner: serial]
[device_type: cpu]
[data_sample_strategy: bagging]
[data: ]
[valid: ]
[num_iterations: 200]
[learning_rate: 0.05]
[num_leaves: 31]
[num_threads: 0]
[seed: 0]
[deterministic: 0]
[force_col_wise: 0]
[force_row_wise: 0]
[histogram_pool_size: -1]
[max_depth: -1]
[min_data_in_leaf: 10]
[min_sum_hessian_in_leaf: 0.001]
[bagging_fraction: 0.85]
[pos_bagging_fraction: 1]
[neg_bagging_fraction: 1]
[bagging_freq: 1]
[bagging_seed: 3]
[bagging_by_query: 0]
[feature_fraction: 0.85]
[feature_fraction_bynode: 1]
[feature_fraction_seed: 2]
[extra_trees: 0]
[extra_seed: 6]
[early_stopping_round: 0]
[early_stopping_min_delta: 0]
[first_metric_only: 0]
[max_delta_step: 0]
[lambda_l1: 0]
[lambda_l2: 0]
[linear_lambda: 0]
[min_gain_to_split: 0]
[drop_rate: 0.1]
[max_drop: 50]
[skip_drop: 0.5]
[xgboost_dart_mode: 0]
[uniform_drop: 0]
[drop_seed: 4]
[top_rate: 0.2]
[other_rate: 0.1]
[min_data_per_group: 100]
[max_cat_threshold: 32]
[cat_l2: 10]
[cat_smooth: 10]
[max_cat_to_onehot: 4]
[top_k: 20]
[monotone_constraints: ]
[monotone_constraints_method: basic]
[monotone_penalty: 0]
[feature_contri: ]
[forcedsplits_filename: ]
[refit_decay_rate: 0.9]
[cegb_tradeoff: 1]
[cegb_penalty_split: 0]
[cegb_penalty_feature_lazy: ]
[cegb_penalty_feature_coupled: ]
[path_smooth: 0]
[interaction_constraints: ]
[verbosity: -1]
[saved_feature_importance_type: 0]
[use_quantized_grad: 0]
[num_grad_quant_bins: 4]
[quant_train_renew_leaf: 0]
[stochastic_rounding: 1]
[linear_tree: 0]
[max_bin: 255]
[max_bin_by_feature: ]
[min_data_in_bin: 3]
[bin_construct_sample_cnt: 200000]
[data_random_seed: 1]
[is_enable_sparse: 1]
[enable_bundle: 1]
[use_missing: 1]
[zero_as_missing: 0]
[feature_pre_filter: 1]
[pre_partition: 0]
[two_round: 0]
[header: 0]
[label_column: ]
[weight_column: ]
[group_column: ]
[ignore_column: ]
[categorical_feature: ]
[forcedbins_filename: ]
[precise_float_parser: 0]
[parser_config_file: ]
[objective_seed: 5]
[num_class: 1]
[is_unbalance: 0]
[scale_pos_weight: 1]
[sigmoid: 1]
[boost_from_average: 1]
[reg_sqrt: 0]
[alpha: 0.1]
[fair_c: 1]
[poisson_max_delta_step: 0.7]
[tweedie_variance_power: 1.5]
[lambdarank_truncation_level: 30]
[lambdarank_norm: 1]
[label_gain: ]
[lambdarank_position_bias_regularization: 0]
[eval_at: ]
[multi_error_top_k: 1]
[auc_mu_weights: ]
[num_machines: 1]
[local_listen_port: 12400]
[time_out: 120]
[machine_list_filename: ]
[machines: ]
[gpu_platform_id: -1]
[gpu_device_id: -1]
[gpu_use_dp: 0]
[num_gpu: 1]

end of parameters

pandas_categorical:null
