tree
version=v4
num_class=1
num_tree_per_iteration=1
label_index=0
max_feature_idx=46
objective=quantile
feature_names=Column_0 Column_1 Column_2 Column_3 Column_4 Column_5 Column_6 Column_7 Column_8 Column_9 Column_10 Column_11 Column_12 Column_13 Column_14 Column_15 Column_16 Column_17 Column_18 Column_19 Column_20 Column_21 Column_22 Column_23 Column_24 Column_25 Column_26 Column_27 Column_28 Column_29 Column_30 Column_31 Column_32 Column_33 Column_34 Column_35 Column_36 Column_37 Column_38 Column_39 Column_40 Column_41 Column_42 Column_43 Column_44 Column_45 Column_46
feature_infos=[1:419128] [1:10338] [1:105057] [0:1] [0:800] none [0:250] [0:1] [0:976023576] [0:6526440] [0:951432192] [0:982550016] [1:18] [0:6] [0:1] [0:1] [-1:6] none [0:5] [0:1] [0:1] [0:1] [0:1] [0:1] [0:1] [0:1] [0:1] [0:1] [0:1] [0:1] [0:1] [0:0.88994011431578013] [-0.23025384138804508:0.39298997174880534] [-0.29598720142226914:0.53357831809917267] [-0.41153791878318924:0.47840436756937565] [-0.13981246454228904:0.87072620336671702] [-0.37863847470582596:0.48483025769191107] [-0.41728361231176792:0.34393791284387221] [-0.31237108943193903:0.58080016577848048] [-0.37989501575126894:0.47426019535148567] [-0.3249278845268842:0.38550571276949941] [-0.074162302661184579:0.94346867852931859] [-0.34899341927021238:0.48284069978658739] [-0.21547235316881727:0.45675907447413916] [-0.39825853831445568:0.36497895744774339] [-0.31245742433483015:0.39551951235865118] [-0.40019656488753946:0.31752791925702228]
tree_sizes=2939 3072 3100 3071 3104 3154 3152 3075 3145 3137 3107 3072 3116 3148 3136 3056 3091 3098

Tree=0
num_leaves=31
num_cat=0
split_feature=32 2 37 41 43 16 6 10 34 8 32 2 32 34 8 0 6 38 35 41 0 15 37 38 36 40 8 43 43 40
split_gain=37.7407 7.0017 4.42123 4.88643 3.8144 3.06249 2.09423 2.05114 1.98203 1.59265 1.12964 1.95175 1.11842 3.12275 1.04167 0.985798 1.32613 0.940503 0.834171 1.57005 1.98294 0.648023 0.913202 1.06667 1.66667 0.8 0.55569 0.690252 1.30667 0.533294
threshold=1.0000000180025095e-35 5.5000000000000009 0.0013826018648328098 0.0047772171378398596 -0.00035018918119769795 1.0000000180025095e-35 49.500000000000007 24938768.000000004 -0.31221637205403324 908.50000000000011 -0.17556379204040221 2.5000000000000004 0.096507243285609001 -0.15656234627213481 264.50000000000006 19.500000000000004 116.50000000000001 -0.0037046066047312894 -0.0083502454826571964 -0.0041978537098434831 7.5000000000000009 1.0000000180025095e-35 -0.020726288490357039 0.030909502928830039 -0.0065082105862304118 -0.024813188727135057 1259.5000000000002 -0.0046670586041000712 -0.0082407146874925122 0.013225450004126961
decision_type=2 2 2 2 2 2 2 2 2 2 2 2 2 2 2 2 2 2 2 2 2 2 2 2 2 2 2 2 2 2
left_child=4 2 17 8 5 26 9 10 -4 -5 14 -12 13 -3 -6 16 29 -2 -19 -20 -21 22 23 24 -15 -26 27 28 -1 -14
right_child=1 12 3 6 7 -7 -8 -9 -10 -11 11 -13 15 21 -16 -17 -18 18 19 20 -22 -23 -24 -25 25 -27 -28 -29 -30 -31
leaf_value=4.9182837489621472 5.0423972800427892 4.8925022137298715 4.9118520738095439 4.8238368366328448 4.9256230593148045 4.9695767165071816 4.8968969193751839 4.9814239743384077 5.0033335878834047 4.9677220066134922 4.8863068879826219 4.9727319032949158 4.9808150416694508 5.0843315606155883 4.8717347502708437 5.0573750551123338 4.8144451692149026 5.0228431655503432 4.9978029108266906 4.9266027332457432 4.9941875555535091 5.1791170835494995 5.0117352420223709 5.0171795442086484 4.8093362693666162 4.7963905766344954 4.9061633088549499 4.80563336958443 4.9399975589878915 5.0204029136179535
leaf_weight=14.999999999999998 55 11.999999999999998 10.999999999999998 17 12.000000000000002 10.999999999999998 20 25 43 14.999999999999998 17.000000000000004 13.999999999999998 56 10.000000000000002 11.999999999999998 897 11.999999999999998 25 12.999999999999998 13.000000000000002 9.9999999999999982 111 294 30 10.000000000000002 9.9999999999999982 17 17.000000000000004 9.9999999999999982 74
leaf_count=15 55 12 11 17 12 11 20 25 43 15 17 14 56 10 12 897 12 25 13 13 10 111 294 30 10 10 17 17 10 74
internal_value=4.99287 4.99495 4.98666 4.97928 4.96881 4.96029 4.96834 4.97627 4.98981 4.97627 4.97087 4.97718 4.99617 4.99416 4.96273 4.99709 4.99321 4.9934 4.98913 4.98426 4.97641 4.99481 4.99377 4.98814 4.98148 4.97314 4.95577 4.95886 4.96414 4.99468
internal_weight=1888 1738 222 106 150 70 52 80 54 32 55 31 1516 477 24 1039 142 116 61 36 23 465 354 60 30 20 59 42 25 130
internal_count=1888 1738 222 106 150 70 52 80 54 32 55 31 1516 477 24 1039 142 116 61 36 23 465 354 60 30 20 59 42 25 130
is_linear=0
shrinkage=1


Tree=1
num_leaves=31
num_cat=0
split_feature=0 0 33 37 11 40 41 16 13 45 39 0 16 38 2 40 40 0 39 40 35 12 43 41 42 40 33 35 41 18
split_gain=6.8382 7.12096 20.068 6.4115 4.05475 8.71079 3.41089 2.36364 2.23832 2.12333 1.78767 1.96324 1.70552 1.39487 1.38846 1.38462 1.2803 0.952221 0.843269 0.910678 1.09117 0.731336 0.714931 0.624629 0.621369 0.54697 0.45 0.39345 0.600583 1.32254
threshold=8.5000000000000018 367.00000000000006 0.023133964480679923 -0.012861625843924881 6406934.0000000009 -0.069727797890622473 -0.00080812094110639611 1.0000000180025095e-35 3.5000000000000004 -0.0014187459113750116 0.0041495686625671897 5.5000000000000009 1.0000000180025095e-35 0.049195002581413037 146.50000000000003 0.031325999881951401 0.033686030136556154 19.500000000000004 -0.072404824286793637 0.012790277033510503 -0.03985043090510542 6.5000000000000009 0.075297450512482364 0.010891697030430058 -0.037209301731373053 -0.031180671019503375 -0.035851428047774407 0.034166130912276917 -0.0027317299716083346 3.5000000000000004
decision_type=2 2 2 2 2 2 2 2 2 2 2 2 2 2 2 2 2 2 2 2 2 2 2 2 2 2 2 2 2 2
left_child=3 17 4 13 5 26 -5 9 10 -4 11 12 -8 -1 15 -9 -11 18 -2 20 -20 -14 23 -22 -7 -25 -3 -19 29 -29
right_child=1 2 7 6 -6 24 8 14 -10 16 -12 -13 21 -15 -16 -17 -18 27 19 -21 22 -23 -24 25 -26 -27 -28 28 -30 -31
leaf_value=0.022438929040396769 -0.024525494900859715 -0.049628772129655503 -0.087844882600615598 0.014544116694945465 0.045052476666846752 -0.10296444422073431 -0.050895432684246261 -0.11533927381038667 -0.034714279387524007 -0.1598097703340054 -0.0091736842777629946 -0.12147669939146129 -0.090793348560858508 -0.037059244953271175 -0.003457645531350668 -0.029043651798776954 -0.042796862339970917 0.054168529371420471 -0.19600140219855811 0.029141049151441403 0.016117914910857175 -0.14034326521687079 -0.12127768766593366 0.019032770927539647 0.074003546032120157 -0.054072375132552059 -0.078758538619805751 0.065401579563274498 0.026698736498750597 -0.10715971147850528
leaf_weight=68 15.999999999999998 10.000000000000002 25 24 271 9.9999999999999982 14.999999999999998 13.000000000000002 17 11.000000000000002 14.999999999999998 17 10.000000000000002 9.9999999999999982 9.9999999999999982 12.999999999999998 15.999999999999998 855 11.999999999999998 114 98 21 17 12.000000000000002 43 9.9999999999999982 9.9999999999999982 20 56 19
leaf_count=68 16 10 25 24 271 10 15 13 17 11 15 17 10 10 10 13 16 855 12 114 98 21 17 12 43 10 10 20 56 19
internal_value=0.000102261 0.0011469 -0.004375 -0.00870558 0.00107558 -0.00938356 -0.0160084 -0.0256818 -0.0202632 -0.0325 -0.0238462 -0.0275397 -0.0221739 0.0024359 -0.0158333 -0.0219231 -0.0227778 0.00308788 0.000519713 0.00119772 -0.00137584 -0.028871 -0.000109489 0.00125 0.00122642 -0.00636364 -0.0375 0.00384211 0.000789474 -0.00397436
internal_weight=1858 1661 432 197 344 73 119 88 95 52 78 63 46 78 36 26 27 1229 279 263 149 31 137 120 53 22 20 950 95 39
internal_count=1858 1661 432 197 344 73 119 88 95 52 78 63 46 78 36 26 27 1229 279 263 149 31 137 120 53 22 20 950 95 39
is_linear=0
shrinkage=0.05


Tree=2
num_leaves=31
num_cat=0
split_feature=31 2 16 34 41 13 45 13 6 10 6 0 40 45 40 0 32 33 6 0 6 44 44 12 46 36 43 46 8 31
split_gain=32.2002 7.93429 6.39509 3.48669 3.09631 2.35577 1.702 1.45859 1.21508 1.07302 1.10934 1.06869 0.917563 0.772993 1.24219 0.673193 0.620412 1.91088 1.06925 0.774612 0.759494 0.908636 0.871593 1.43391 0.458771 0.653358 0.454228 1.15741 0.451389 0.45
threshold=0.23743342973589773 5.5000000000000009 1.0000000180025095e-35 0.021062728307397093 0.0047772171378398596 1.5000000000000002 1.0000000180025095e-35 3.5000000000000004 50.500000000000007 4658156.0000000009 44.500000000000007 8.5000000000000018 -0.052194025871260784 -0.0014187459113750116 0.034152219183688576 2.5000000000000004 0.096507243285609001 -0.17743040412388456 163.50000000000003 20.500000000000004 8.5000000000000018 0.005836099284416551 -0.0095381065598333543 5.5000000000000009 -0.008703209117383974 -0.0088103680044037316 -0.022742051475374118 0.0044821932234241227 288.50000000000006 0.024142210886066783
decision_type=2 2 2 2 2 2 2 2 2 2 2 2 2 2 2 2 2 2 2 2 2 2 2 2 2 2 2 2 2 2
left_child=1 3 13 4 6 29 7 11 -7 -4 -11 15 -5 24 -15 -1 17 -3 -19 20 -18 22 23 -22 -2 -26 -8 -28 -14 -6
right_child=2 16 9 12 5 8 26 -9 -10 10 -12 -13 28 14 -16 -17 19 18 -20 -21 21 -23 -24 -25 25 -27 27 -29 -30 -31
leaf_value=-0.03926867534586815 -0.062450371763559158 -0.097816222009697598 -0.090932787109805846 -0.12406126501674758 -0.067406295362655688 -0.067868757689271461 0.0092380709393876711 0.018988407873208685 -0.1380211995056555 0.0050710321534993951 -0.048682731019815934 -0.0090526469724218524 -0.041905583272821123 -0.15181928181730511 -0.041607781236810269 -0.1226027981581148 0.027701375091145054 0.028624146934768103 -0.021485798794493284 0.057877639501398237 -0.18453881374103173 0.012052562984561267 -0.039462605364378039 0.017799037013337585 -0.20123206522596077 -0.060263464913307967 0.03479766679307579 -0.045531584676403926 0.027091774507615754 0.00064663170251164645
leaf_weight=20 17 9.9999999999999982 9.9999999999999982 11.999999999999998 10.000000000000002 19 26 9.9999999999999982 12.999999999999998 18 17 11.999999999999998 15.999999999999998 11.000000000000002 14.999999999999998 12.999999999999998 60 464 15.999999999999998 877 9.9999999999999982 47 9.9999999999999982 31 10.000000000000002 19 15.000000000000002 11.999999999999998 65 9.9999999999999982
leaf_count=20 17 10 10 12 10 19 26 10 13 18 17 12 16 11 15 13 60 464 16 877 10 47 10 31 10 19 15 12 65 10
internal_value=6.59632e-05 0.00173791 -0.0253419 -0.00646245 -0.0109375 -0.0209615 -0.00611111 -0.0122727 -0.029375 -0.0105556 -0.00642857 -0.0161111 0.00123656 -0.0345833 -0.0276923 -0.0207576 0.00309836 0.00163265 0.00208333 0.00379227 0.00056962 -0.00214286 -0.00676471 -0.00353659 -0.0384783 -0.0346552 0.000283019 -0.00425926 0.00314815 -0.0075
internal_weight=1895 1778 117 253 160 52 108 55 32 45 35 45 93 72 26 33 1525 490 480 1035 158 98 51 41 46 29 53 27 81 20
internal_count=1895 1778 117 253 160 52 108 55 32 45 35 45 93 72 26 33 1525 490 480 1035 158 98 51 41 46 29 53 27 81 20
is_linear=0
shrinkage=0.05


Tree=3
num_leaves=31
num_cat=0
split_feature=31 16 2 6 9 37 35 45 0 36 16 2 42 8 32 6 31 32 44 34 21 6 19 36 44 16 32 8 33 1
split_gain=29.9883 6.71839 5.02522 4.21761 3.20276 2.17368 1.5634 1.48388 1.23953 2.04604 2.0299 1.03498 1.66774 0.940835 0.743376 0.739148 0.697436 0.67832 1.09658 1.59317 0.770569 0.674203 0.76629 0.58134 0.555722 1.3525 0.462577 0.872727 0.403802 0.524277
threshold=0.23743342973589773 1.0000000180025095e-35 5.5000000000000009 187.50000000000003 23209.500000000004 -0.016270384925925554 -0.013965239234618338 -0.0020355077612997236 8.5000000000000018 0.0033220949219732216 1.0000000180025095e-35 9.5000000000000018 0.12123134731537884 13089.500000000002 -0.20058840880551568 59.500000000000007 0.020102796548316381 0.092487572714195457 0.046097717573226636 -0.0024601638899014 1.0000000180025095e-35 155.50000000000003 1.0000000180025095e-35 -0.0048949949440357911 -0.026112462976549528 1.0000000180025095e-35 0.088399669849276233 9533.5000000000018 -0.084528072587157277 11.500000000000002
decision_type=2 2 2 2 2 2 2 2 2 2 2 2 2 2 2 2 2 2 2 2 2 2 2 2 2 2 2 2 2 2
left_child=2 7 3 5 -3 -1 -7 23 9 10 -8 12 21 -12 -9 -6 -10 18 26 20 -20 22 24 -2 25 -4 28 -28 29 -13
right_child=1 4 11 -5 15 6 8 14 16 -11 13 17 -14 -15 -16 -17 -18 -19 19 -21 -22 -23 -24 -25 -26 -27 27 -29 -30 -31
leaf_value=0.01229790205891939 -0.075819191064181099 -0.10502567076437704 -0.095768794353743497 -0.10389522951293464 0.0025119704574057913 0.013386474241941684 0.0033438305790081018 -0.03048206582947623 0.0087434640915549939 -0.069611623801560815 -0.12734697353901656 -0.07527475927210743 -0.017879532152575192 -0.033641510463303131 -0.052023519792203932 -0.074050767094200512 -0.030449060506576399 0.056031396285535419 -0.12030032330236384 0.038731136070154909 -0.14414442863831334 -0.14144191350643229 -0.053778905933315024 -0.054064795400562395 0.028959184712428629 0.048870166213470081 -0.12304338278842769 0.08001795237823868 0.036923456996843212 0.011912372179691474
leaf_weight=96 27 9.9999999999999982 15.999999999999998 15.999999999999998 22 35 22 10.000000000000002 17.000000000000004 18 19.000000000000004 15.999999999999998 18 9.9999999999999982 19 14.999999999999998 12.999999999999998 913 10 19 13 13.999999999999998 13.999999999999998 10.999999999999998 152 37 10.000000000000002 11.999999999999998 193 78
leaf_count=96 27 10 16 16 22 35 22 10 17 18 19 16 18 10 19 15 13 913 10 19 13 14 14 11 152 37 10 12 193 78
internal_value=0.000466667 -0.024386 0.00207553 -0.00455285 -0.00989362 -0.00282609 -0.0069403 -0.0345522 -0.0101515 -0.0138406 -0.00872549 0.00315182 0.000219124 -0.0174138 -0.0260345 -0.00310811 -0.00166667 0.00373418 0.0018661 -0.00571429 -0.0145652 0.00135193 0.00203196 -0.0410526 0.00280488 -0.00160377 0.00289644 -0.00409091 0.00343206 0.000744681
internal_weight=1875 114 1761 246 47 230 134 67 99 69 51 1515 251 29 29 37 30 1264 351 42 23 233 219 38 205 53 309 22 287 94
internal_count=1875 114 1761 246 47 230 134 67 99 69 51 1515 251 29 29 37 30 1264 351 42 23 233 219 38 205 53 309 22 287 94
is_linear=0
shrinkage=0.05


Tree=4
num_leaves=31
num_cat=0
split_feature=32 0 6 16 9 34 8 45 38 37 6 6 34 42 8 37 6 10 32 32 2 33 39 40 32 12 6 1 9 8
split_gain=26.3138 5.28419 4.88097 4.40373 3.50342 2.8264 2.26241 1.72706 1.28571 1.16735 1.19858 1.14749 1.09097 1.07879 1.36688 1.36225 1.44237 0.841167 0.784149 0.744828 0.411164 0.661998 1.67115 1.94329 0.744828 0.401582 0.385714 0.331304 0.327273 0.29257
threshold=-0.056967356426079745 8.5000000000000018 187.50000000000003 1.0000000180025095e-35 23209.500000000004 0.027380003997596949 67.500000000000014 -0.0020355077612997236 0.0079688406604661449 -0.0045222873200875145 18.500000000000004 43.500000000000007 -0.088829341994976288 0.013449379593373485 2255.0000000000005 0.079796638008468659 22.500000000000004 141295127.50000003 0.097360496684728418 0.079359462438113829 15.500000000000002 -0.038452001950785776 -0.0090049635745421807 0.022680572711016648 0.057523083313579124 5.5000000000000009 90.500000000000014 279.50000000000006 32499.000000000004 23576.500000000004
decision_type=2 2 2 2 2 2 2 2 2 2 2 2 2 2 2 2 2 2 2 2 2 2 2 2 2 2 2 2 2 2
left_child=3 2 5 7 -5 6 -2 28 -9 -8 -11 -12 13 14 19 16 18 -6 -16 -3 21 22 23 -14 -24 -15 -13 -22 -1 -18
right_child=1 12 -4 4 17 -7 9 8 -10 10 11 26 20 25 15 -17 29 -19 -20 -21 27 -23 24 -25 -26 -27 -28 -29 -30 -31
leaf_value=-0.070645220006080395 -0.092331884243204917 -0.010322823081421706 -0.13364199681831829 -0.099774387226158195 0.0015082718916566513 0.021762558617508625 0.0011080231131850346 -0.068851800929897899 -0.03171163113488492 -0.00054493178183025951 -0.12152464442056499 -9.1555374620979555e-07 -0.17094721868899151 -0.010135684709326076 -0.14147306440665861 -0.068003771922514542 0.03577601747914106 -0.027568629296690451 -0.0013477891683955239 0.052324221755142224 0.053043904193331742 0.015856250335661248 -0.020318421627478482 0.0065566919256532328 0.054024927895483105 0.023428046141881723 -0.081590232060239021 -0.023966671585339994 -0.064212678552416982 -0.011513025100823762
leaf_weight=18 15.999999999999998 9.9999999999999982 9.9999999999999982 10.999999999999998 21.000000000000004 65 32 14.000000000000002 13.999999999999998 25 19 14.000000000000002 10.000000000000002 17 15.000000000000002 9.9999999999999982 21 9.9999999999999982 10.999999999999998 48 829 429 9.9999999999999982 10.999999999999998 48 99 9.9999999999999982 9.9999999999999982 14.999999999999998 17
leaf_count=18 16 10 10 11 21 65 32 14 14 25 19 14 10 17 15 10 21 10 11 48 829 429 10 11 48 99 10 10 15 17
internal_value=0.000447327 0.0018645 -0.00599476 -0.0241262 -0.0116667 -0.00411602 -0.0087931 -0.0327049 -0.0235714 -0.006 -0.00970588 -0.0147674 0.00280564 -0.000241935 -0.00333333 -0.00783784 -0.00515625 -0.00306452 -0.0142308 0.00241379 0.00336674 0.00224409 -0.00196203 -0.0140476 0.00241379 0.00327586 -0.0075 0.00404648 -0.0404545 0.00105263
internal_weight=1889 1786 191 103 42 181 116 61 28 100 68 43 1595 248 132 74 64 31 26 58 1347 508 79 21 58 116 24 839 33 38
internal_count=1889 1786 191 103 42 181 116 61 28 100 68 43 1595 248 132 74 64 31 26 58 1347 508 79 21 58 116 24 839 33 38
is_linear=0
shrinkage=0.05


Tree=5
num_leaves=31
num_cat=0
split_feature=31 16 34 42 1 10 45 40 31 10 34 31 32 40 42 45 6 1 34 1 8 32 6 36 36 41 12 32 42 4
split_gain=27.9314 5.30307 3.47866 3.51388 2.38187 2.11791 1.5531 1.85277 1.45872 1.41324 0.77381 1.80807 1.03358 1.10021 0.729345 0.707843 0.633271 0.969697 0.512223 0.490909 0.462767 0.568113 1.06577 0.734768 1.01175 0.6 0.448882 0.610817 0.782609 0.475626
threshold=0.23743342973589773 1.0000000180025095e-35 -0.31221637205403324 0.20925032588797401 1.5000000000000002 4421837.0000000009 -0.00085640531421228355 0.033686030136556154 0.0058502007785217061 834753.50000000012 -0.083627748438855357 0.027563790805630744 0.081221209954418588 -0.027972256137151905 0.013002958438556032 0.017189501641985076 6.5000000000000009 24.500000000000004 0.0099882048347563323 26.500000000000004 47863.500000000007 0.1046196010096571 191.50000000000003 0.053087148936218416 0.059788351645685904 0.010891697030430058 8.5000000000000018 0.1954205644329777 0.0047476713105253886 1.0000000180025095e-35
decision_type=2 2 2 2 2 2 2 2 2 2 2 2 2 2 2 2 2 2 2 2 2 2 2 2 2 2 2 2 2 2
left_child=2 6 -1 8 -5 -3 16 -8 9 -4 11 -10 13 -13 -15 -7 -2 -18 -11 -19 21 22 23 -12 -25 -26 27 28 29 -14
right_child=1 5 3 4 -6 15 7 -9 10 18 20 12 26 14 -16 -17 17 19 -20 -21 -22 -23 -24 24 25 -27 -28 -29 -30 -31
leaf_value=-0.14917841782745345 -0.058979452584919684 -0.094785667864850306 -0.060373407004831993 -0.056857394031070999 -0.010335042715703832 0.00075080851732400779 -0.14004156015241381 -0.026784321899413488 -0.024437655418713164 0.0005190583643355656 0.018419657399403985 -0.16402078719723462 -0.095165953654521226 0.01971312753597651 -0.013360895099682378 -0.073756811752690818 -0.073695470536487701 -0.046900644334788626 -0.068876660510123353 -0.046749665759958259 0.18956184654004549 0.032768488273515112 -0.16965861813745933 -0.048662971907748515 0.029369017454178248 -0.08324067666852214 0.03593299909115865 0.034570542428292071 0.016366138513341212 0.0060401269496188799
leaf_weight=18 15.999999999999998 9.9999999999999982 11.999999999999998 12.000000000000002 13.999999999999998 24 11.000000000000002 11.999999999999998 17 57 321 9.9999999999999982 11.000000000000002 27 11.999999999999998 9.9999999999999982 10.999999999999998 12.000000000000002 12.999999999999998 9.9999999999999982 272 760 9.9999999999999982 10.999999999999998 20.000000000000004 9.9999999999999982 111 36 23 11.999999999999998
leaf_count=18 16 10 12 12 14 24 11 12 17 57 321 10 11 27 12 10 11 12 13 10 272 760 10 11 20 10 111 36 23 12
internal_value=0.000328084 -0.0234483 0.00186976 0.00209204 -0.0161538 -0.00977273 -0.0318056 -0.021087 0.0023639 -0.00414634 0.00268491 0.000173745 0.00128099 -0.00520408 -0.00141026 -0.00382353 -0.0368367 -0.0328788 -0.00142857 -0.0268182 0.00314815 0.00270318 0.00110215 0.00154696 -0.0047561 1.86265e-10 0.00292746 0.000121951 -0.00369565 -0.0102174
internal_weight=1905 116 1789 1771 26 44 72 23 1745 82 1663 259 242 49 39 34 49 33 70 22 1404 1132 372 362 41 30 193 82 46 23
internal_count=1905 116 1789 1771 26 44 72 23 1745 82 1663 259 242 49 39 34 49 33 70 22 1404 1132 372 362 41 30 193 82 46 23
is_linear=0
shrinkage=0.05


Tree=6
num_leaves=31
num_cat=0
split_feature=32 45 2 6 9 46 12 44 10 40 8 32 39 45 40 39 8 12 42 38 36 32 36 12 2 42 6 6 41 6
split_gain=25.9296 4.66483 3.4245 3.01959 1.89983 1.67952 1.22123 1.17443 1.1036 1.0291 1.38846 0.706554 1.41907 1.22422 1.16298 1.27152 0.692178 1.01004 1.14304 1.12508 0.659935 0.578571 0.442935 0.416667 0.400848 0.544141 0.413551 0.955263 0.294737 0.287095
threshold=-0.056967356426079745 -0.0025757631349297822 5.5000000000000009 198.50000000000003 379.50000000000006 -0.00071221565603241577 4.5000000000000009 0.0022556499451161084 4658156.0000000009 -0.040211314472778696 1925.0000000000002 0.094614957757275422 -0.018073772900397449 -0.0046173215363045405 0.014617130278383938 -0.038368375735313369 492.50000000000006 11.500000000000002 0.04961042823180855 0.0082254316054003948 -0.13615999153702038 0.074804299657397447 0.024605874087656774 10.500000000000002 8.5000000000000018 0.13352119717350128 21.500000000000004 29.500000000000004 0.016500535951850651 179.50000000000003
decision_type=2 2 2 2 2 2 2 2 2 2 2 2 2 2 2 2 2 2 2 2 2 2 2 2 2 2 2 2 2 2
left_child=1 7 3 4 -2 6 -3 -1 -8 10 -6 12 13 14 15 -4 17 18 -11 -19 -18 -16 -15 -10 25 26 -13 -28 -29 -14
right_child=2 5 11 -5 9 -7 8 -9 23 16 -12 24 29 22 21 -17 20 19 -20 -21 -22 -23 -24 -25 -26 -27 27 28 -30 -31
leaf_value=-0.16862859046399298 -0.057566947082939017 -0.069695092736667796 -0.15815651702544511 -0.11857936705834637 -0.12619618128887897 -0.090046384471607788 -0.028146056939367333 -0.054426213052349764 0.00021381018467896528 0.013075617432594137 -0.0096402028818331417 0.038688100895803719 0.029024452214458707 0.04402993075678132 0.018510662932129412 -0.096360849333889539 -0.01862395386276058 -0.014263954038891413 -0.077527379942132685 -0.046905503885990601 0.0062473017588226473 -0.004030803437178764 -0.0075141425927560974 -0.020405158577001741 0.047901028670582373 -0.014848849147522209 -0.028453840901229512 0.033433299886480534 -0.003206588612689304 -0.03727551650168958
leaf_weight=11.999999999999998 10.999999999999998 11.999999999999998 19 9.9999999999999982 10.000000000000002 20 9.9999999999999982 26 15.000000000000002 42 15.999999999999998 59 322 53 18.000000000000004 14.999999999999998 9.9999999999999982 13.000000000000002 9.9999999999999982 9.9999999999999982 122 9.9999999999999982 21 11.999999999999998 942 9.9999999999999982 9.9999999999999982 28 9.9999999999999982 9.9999999999999982
leaf_count=12 11 12 19 10 10 20 10 26 15 42 16 59 322 53 18 15 10 13 10 10 122 10 21 12 942 10 10 28 10 10
internal_value=0.000868644 -0.0230374 0.00230489 -0.00307087 -0.00196721 -0.0152899 -0.0103061 -0.0371053 -0.00581081 -0.00100858 -0.0103846 0.00319908 0.0015812 -0.00272059 -0.00790323 -0.0141176 0.000169082 -0.00366667 0.000192308 -0.0123913 0.00234848 -0.000357143 0.00162162 -0.000555555 0.00391407 0.00115385 0.00219626 -0.00125 0.00236842 0.00334337
internal_weight=1888 107 1781 254 244 69 49 38 37 233 26 1527 468 136 62 34 207 75 52 23 132 28 74 27 1059 117 107 48 38 332
internal_count=1888 107 1781 254 244 69 49 38 37 233 26 1527 468 136 62 34 207 75 52 23 132 28 74 27 1059 117 107 48 38 332
is_linear=0
shrinkage=0.05


Tree=7
num_leaves=31
num_cat=0
split_feature=31 16 0 45 42 9 9 39 33 40 10 9 34 31 32 10 12 2 34 46 10 9 39 31 40 43 12 40 46 2
split_gain=23.9143 5.64667 3.4887 2.59909 2.48113 1.99762 1.56858 1.38667 1.24611 0.763648 0.674326 0.608974 0.605889 1.24173 0.755528 1.33796 0.545809 0.510185 0.485632 0.732803 0.7048 0.45 0.420883 0.886014 0.394966 0.669358 0.714286 0.493066 0.384924 0.499723
threshold=0.23743342973589773 1.0000000180025095e-35 9.5000000000000018 -0.0025757631349297822 0.16642945342024063 23209.500000000004 379.50000000000006 0.02043563518556062 0.42651569048518229 -0.1268889868092298 160738185.50000003 32499.000000000004 -0.083627748438855357 0.027563790805630744 0.094614957757275422 9789255.0000000019 12.500000000000002 23.500000000000004 0.038983233103384828 0.019760812849992045 101527200.00000001 77602.500000000015 -0.065188356919891971 0.031932941188142196 0.0079160870096033949 0.075297450512482364 8.5000000000000018 0.0062647291370191462 -0.050850247538907718 3.5000000000000004
decision_type=2 2 2 2 2 2 2 2 2 2 2 2 2 2 2 2 2 2 2 2 2 2 2 2 2 2 2 2 2 2
left_child=2 3 4 11 6 -3 -1 -5 9 -8 -7 -2 13 -4 15 -15 -17 22 19 20 28 -13 23 -14 25 27 -27 -24 -11 -30
right_child=1 5 12 7 -6 10 8 -9 -10 18 -12 21 17 14 -16 16 -18 -19 -20 -21 -22 -23 24 -25 -26 26 -28 -29 29 -31
leaf_value=-0.052566495508549596 -0.057470890284004997 -0.0855440649545786 -0.021717039009302955 -0.056371247046002798 -0.063836953397993668 0.00069077820774849968 -0.11356114426221141 -0.043169401882809544 -0.048314689913627418 0.01244238040122443 -0.062214759022319245 -0.035980752948760679 -0.095284218796635581 -0.080793918145720539 0.028745854606137374 0.012677263325537237 -0.01322271833929544 0.052533979920369234 0.017541855342635755 0.012413884438299029 -0.077232223388067955 -0.1721866395468499 0.031878049727036034 0.0023354924412618489 0.031441743094065021 0.020508032198151394 -0.1036196886593144 -0.019574322090071684 -0.0035764778851444853 -0.024203696762604417
leaf_weight=11.999999999999998 19 10.999999999999998 12.999999999999998 12.000000000000002 10.999999999999998 28 10.999999999999998 19 10.999999999999998 14.999999999999998 10.999999999999998 10.000000000000002 9.9999999999999982 18 166 35 19 629 58 42 15.999999999999998 9.9999999999999982 258 53 310 10.000000000000002 18 11.999999999999998 28 14.999999999999998
leaf_count=12 19 11 13 12 11 28 11 19 11 15 11 10 10 18 166 35 19 629 58 42 16 10 258 53 310 10 18 12 28 15
internal_value=0.000767196 -0.0208333 0.00223164 -0.03 -0.0036758 -0.008 -0.00245192 -0.0191935 -0.00137755 -0.000405405 -0.00269231 -0.0385897 0.00306576 0.000816733 0.00163866 -0.00263889 0.0012963 0.0035 0.000402299 -0.00146552 -0.00445946 -0.0325 0.00254098 -0.00134921 0.00294408 0.0016443 -0.00571429 0.00240741 -0.00189655 -0.00430233
internal_weight=1890 120 1770 70 219 50 208 31 196 185 39 39 1551 251 238 72 54 1300 174 116 74 20 671 63 608 298 28 270 58 43
internal_count=1890 120 1770 70 219 50 208 31 196 185 39 39 1551 251 238 72 54 1300 174 116 74 20 671 63 608 298 28 270 58 43
is_linear=0
shrinkage=0.05


Tree=8
num_leaves=31
num_cat=0
split_feature=32 16 0 6 9 8 44 32 32 37 2 32 33 0 6 16 8 45 41 39 8 41 36 36 9 8 6 45 36 32
split_gain=20.4416 3.57849 3.144 5.59235 3.0303 2.06966 1.73256 1.32789 1.42544 1.01601 0.997403 0.857218 1.07214 0.928866 1.03455 0.818588 0.824842 0.91587 0.990476 1.5083 0.783445 0.753984 1.15103 0.729655 0.65 0.5625 0.530576 0.734626 1.84401 0.515152
threshold=-1.0000000180025095e-35 1.0000000180025095e-35 9.5000000000000018 187.50000000000003 23209.500000000004 67.500000000000014 0.024755789329941932 -0.20058840880551568 -0.18842405833655992 -0.0045222873200875145 1.5000000000000002 0.094614957757275422 -0.17743040412388456 19.500000000000004 116.50000000000001 1.0000000180025095e-35 49.500000000000007 -0.011050212678592639 0.0028318072577363904 -0.0033803503251831741 29711.500000000004 0.0059882310084098502 0.0066632893874613418 0.028521362938725914 84890.500000000015 8120.0000000000009 9.5000000000000018 0.018315854837357461 0.032960523021127598 -0.19710310238577361
decision_type=2 2 2 2 2 2 2 2 2 2 2 2 2 2 2 2 2 2 2 2 2 2 2 2 2 2 2 2 2 2
left_child=1 6 3 5 -3 10 7 -1 -9 -7 -2 12 -4 14 26 16 -14 18 19 -18 21 25 -23 -19 -10 -11 -13 -28 -29 -6
right_child=2 4 11 -5 29 9 -8 8 24 20 -12 13 15 -15 -16 -17 17 23 -20 -21 -22 22 -24 -25 -26 -27 27 28 -30 -31
leaf_value=-0.034118808313134706 -0.049938170733122123 -0.081266862000298493 -0.075975535300149666 -0.098597464829575987 -0.039901469824838658 0.014651243466152476 -0.057727530546550165 -0.045787870914795088 -0.047354688155134078 0.0031519218970193254 -0.035144811291797043 0.022826631863370014 -0.042781143622141832 0.045092404443889893 -0.1283398285214877 0.029255575441954541 -0.10838097272438596 0.019233698378459403 0.012089479459420864 0.02164167340959515 0.0094665669848207155 0.00018161738994347868 -0.059786622770906718 -0.0044873660719169494 -0.16357730756950739 -0.031132991025305614 0.019206229329049869 0.036884273885987126 -0.1097003979300047 0.0016630026180011811
leaf_weight=11.999999999999998 11.000000000000002 10.999999999999998 9.9999999999999982 11.999999999999998 15.999999999999995 91 19 11.999999999999995 16.000000000000007 36 9.9999999999999982 59 9.9999999999999982 931 13.999999999999998 300 17.000000000000004 100 35 12.999999999999998 21 13.000000000000002 11.999999999999998 15.999999999999998 9.9999999999999982 11.999999999999998 53 17.000000000000004 9.9999999999999982 17.000000000000004
leaf_count=12 11 11 10 12 16 91 19 12 16 36 10 59 10 931 14 300 17 100 35 13 21 13 12 16 10 12 53 17 10 17
internal_value=0.000850731 -0.0197788 0.00214365 -0.00348624 -0.00863636 -0.0015534 -0.0268841 -0.022 -0.0265789 0.000135135 -0.0164286 0.00291798 0.00120758 0.00370849 9.80394e-05 0.00153768 -0.00102094 -0.000248619 -0.005 -0.0116667 -0.00351064 -0.0059589 -0.013 0.00241379 -0.02 -0.00229167 0.00140288 -0.00125 -0.00796296 -0.00106061
internal_weight=1916 113 1803 218 44 206 69 50 38 185 21 1585 501 1084 153 491 191 181 65 30 94 73 25 116 26 48 139 80 27 33
internal_count=1916 113 1803 218 44 206 69 50 38 185 21 1585 501 1084 153 491 191 181 65 30 94 73 25 116 26 48 139 80 27 33
is_linear=0
shrinkage=0.05


Tree=9
num_leaves=31
num_cat=0
split_feature=31 45 2 6 8 34 9 33 6 16 40 8 12 43 34 31 8 36 37 36 0 45 8 6 2 6 9 34 6 39
split_gain=18.9986 5.24573 3.76822 4.55334 4.07629 1.9132 1.72323 1.30645 1.27528 1.20104 0.837236 1.02584 0.626728 0.561039 0.55431 1.36415 1.97611 1.0225 0.454318 0.883887 0.489533 0.592593 0.680556 0.525 0.386161 0.470991 1.58651 0.53171 1.04167 0.503556
threshold=0.23743342973589773 -0.0014187459113750116 5.5000000000000009 187.50000000000003 67.500000000000014 0.034812884561302597 32499.000000000004 0.062286316331549851 11.500000000000002 1.0000000180025095e-35 -0.052194025871260784 1107.0000000000002 10.500000000000002 -0.0092039567660002538 -0.083627748438855357 0.04313833503348493 10925.500000000002 0.031157914560037837 -0.0045222873200875145 0.053087148936218416 7.5000000000000009 1.0000000180025095e-35 8007.5000000000009 19.500000000000004 14.500000000000002 11.500000000000002 25586.500000000004 -0.012591422404496332 29.500000000000004 -0.023994703672686472
decision_type=2 2 2 2 2 2 2 2 2 2 2 2 2 2 2 2 2 2 2 2 2 2 2 2 2 2 2 2 2 2
left_child=2 5 3 4 9 6 -2 12 -9 -1 11 -6 -3 -8 15 16 17 -4 -12 20 21 22 23 -20 25 -16 -27 28 -28 -29
right_child=1 7 14 -5 10 -7 13 8 -10 -11 18 -13 -14 -15 24 -17 -18 -19 19 -21 -22 -23 -24 -25 -26 26 27 29 -30 -31
leaf_value=-0.058234072916537899 -0.052655201258074019 0.0071428697253890063 0.018230412428692812 -0.071814856608362787 -0.095247337948497254 -0.042343937034173856 -0.033869482031861048 -0.077203518900283596 -0.032471522687214607 -0.092580890698221605 0.014546907754389986 0.0028254668349284554 -0.032312342357610262 -0.048698917653361144 0.02350515678917461 0.016842056192489224 -0.027268682638970906 -0.01688877697818781 0.0087075822880360674 -0.041487699235370122 0.0058637790849564572 0.037411401126053755 -0.12107919112361093 -0.029333585141653913 0.041864197186247343 -0.024336260967151708 0.036624322649167866 -0.0012883479666424007 -0.10286409842753511 0.026887570769502059
leaf_weight=11.000000000000002 25 17.000000000000004 31 15.999999999999998 13.000000000000002 9.9999999999999982 11.000000000000002 14.000000000000002 17 13.999999999999998 94 13.999999999999998 13.999999999999998 9.9999999999999982 153 197 11.999999999999998 9.9999999999999982 14.000000000000002 9.9999999999999982 38 18 11.999999999999998 9.9999999999999982 844 10.999999999999998 12.000000000000002 62 11.999999999999998 169
leaf_count=11 25 17 31 16 13 10 11 14 17 14 94 14 14 10 153 197 12 10 14 10 38 18 12 10 844 11 12 62 12 169
internal_value=0.000699209 -0.0187288 0.00198931 -0.00352273 -0.00185484 -0.0298214 -0.0341304 -0.00870968 -0.0159677 -0.021 0.00029148 -0.00796296 -0.00145161 -0.0235714 0.00295109 0.0008 -0.00632075 -0.00109756 0.00142857 -0.000882353 0.000652174 -0.00240741 -0.00611111 -0.00125 0.00337688 0.00213604 0.000864662 0.00166667 -0.00541667 0.0024026
internal_weight=1895 118 1777 264 248 56 46 62 31 25 223 27 31 21 1513 250 53 41 196 102 92 54 36 24 1263 419 266 255 24 231
internal_count=1895 118 1777 264 248 56 46 62 31 25 223 27 31 21 1513 250 53 41 196 102 92 54 36 24 1263 419 266 255 24 231
is_linear=0
shrinkage=0.05


Tree=10
num_leaves=31
num_cat=0
split_feature=31 9 9 31 6 45 45 31 9 36 31 32 34 9 43 33 10 9 37 12 43 32 32 31 9 6 33 12 33 33
split_gain=14.8943 3.83473 2.67833 2.79569 2.59698 3.59763 1.80457 1.31499 2.09864 0.896037 0.772311 0.721948 0.711111 0.597509 0.897205 1.39523 1.35758 0.661858 0.659532 0.8 0.559338 0.45748 1.10227 1.11391 0.67357 2.47745 0.544288 0.355556 0.296443 0.449465
threshold=0.23743342973589773 32499.000000000004 29800.500000000004 0.7011667184646817 183.50000000000003 -0.060818115264397808 -0.0038432686025494304 0.0058502007785217061 2476.5000000000005 -0.0094545391149664041 0.032982396111843025 -0.19710310238577361 0.0099882048347563323 100233.50000000001 -0.034076902114597879 0.21537668188698458 6083466.0000000009 96447.500000000015 0.19950843088253128 8.5000000000000018 0.28139442555115191 0.14764858500381514 0.14325093105542 0.12949276358928466 21482.000000000004 10.500000000000002 0.059029724619130981 11.500000000000002 -0.030143067249542185 -0.042272690150624813
decision_type=2 2 2 2 2 2 2 2 2 2 2 2 2 2 2 2 2 2 2 2 2 2 2 2 2 2 2 2 2 2
left_child=4 2 3 -2 7 -6 -3 8 -1 -5 -7 -8 27 14 -9 17 -17 20 -15 -20 21 22 23 24 25 26 28 -10 29 -16
right_child=1 6 -4 9 5 10 11 13 12 -11 -12 -13 -14 18 15 16 -18 -19 19 -21 -22 -23 -24 -25 -26 -27 -28 -29 -30 -31
leaf_value=-0.049445025301169655 -0.050966673257772301 -0.062730726812459753 -0.053016360264384145 -0.065466136053668342 -0.081673484031859242 -0.10817323729165235 -0.055716400120371802 0.047381612839812105 0.0038351162534470511 0.001156299008116983 0.072392082171228292 0.0023372815807902558 -0.15284731400514665 0.031722455263455206 0.036741306537046256 0.03299929392818559 -0.016902656117026359 -0.070580402139075987 -0.17445246362549083 0.023200867824592655 -0.044666382621337181 0.030113708523618388 -0.010078319009140232 -0.026017282290046989 0.016371666987062144 -0.023514574236889612 -0.022119619042201857 -0.017529925466149059 0.010463189752899596 -0.066759260624832936
leaf_weight=9.9999999999999982 10.999999999999998 19 13.999999999999998 14.999999999999998 17 19 19 244 45 11.000000000000002 27 30 11.999999999999998 750 34 11.000000000000002 9.9999999999999982 13.999999999999998 10.000000000000002 9.9999999999999982 9.9999999999999982 188 13.999999999999998 9.9999999999999982 230 9.9999999999999982 9.9999999999999982 14.999999999999998 48 9.9999999999999982
leaf_count=10 11 19 14 15 17 19 19 244 45 11 27 30 12 750 34 11 10 14 10 10 10 188 14 10 230 10 10 15 48 10
internal_value=0.00111082 -0.0160084 -0.0263725 -0.0193243 0.00226962 -0.00769841 -0.00823529 0.00264012 -0.00353659 -0.0103846 -0.000434782 -0.00316327 -0.000555555 0.00295412 0.0020344 0.000993322 -0.0116667 0.00145329 0.00396104 -0.005 0.00171986 0.00193141 0.00090164 0.00144886 0.00192982 -0.00125 0.00107843 0.00166667 0.00228261 -0.000681818
internal_weight=1877 119 51 37 1758 63 68 1695 82 26 46 49 72 1613 843 599 21 578 770 20 564 554 366 352 342 112 102 60 92 44
internal_count=1877 119 51 37 1758 63 68 1695 82 26 46 49 72 1613 843 599 21 578 770 20 564 554 366 352 342 112 102 60 92 44
is_linear=0
shrinkage=0.05


Tree=11
num_leaves=31
num_cat=0
split_feature=31 9 41 0 6 8 35 45 36 34 41 8 34 31 6 36 9 41 32 18 31 43 8 6 32 1 6 9 0 39
split_gain=17.9429 2.83354 2.72392 2.60381 4.44146 2.77864 1.95465 1.58451 1.10113 0.693018 0.777362 0.983476 0.577805 1.04248 1.85105 0.902256 0.922586 1.24414 0.672246 0.753846 0.54 0.473155 0.477736 1.28496 0.45 0.40404 0.375556 1.06011 0.32749 0.476398
threshold=0.23743342973589773 32499.000000000004 0.0097694364061791401 9.5000000000000018 187.50000000000003 67.500000000000014 -0.017513083752212433 -0.0038432686025494304 0.0095361139502038953 0.033969758745887681 0.0056127941998933345 936.50000000000011 -0.053385835930061944 0.043755551301656023 109.50000000000001 0.039916096538653044 44043.500000000007 -0.00023119671044145919 0.064037051870252396 3.5000000000000004 0.019006793023544195 0.075297450512482364 1080.5000000000002 18.500000000000004 -0.17886567941160655 25.500000000000004 22.500000000000004 155011.00000000003 49.500000000000007 -0.10027037532979159
decision_type=2 2 2 2 2 2 2 2 2 2 2 2 2 2 2 2 2 2 2 2 2 2 2 2 2 2 2 2 2 2
left_child=3 2 6 4 5 -1 -2 24 25 10 26 -12 13 14 15 16 17 -5 19 -15 -13 28 23 -23 -3 -9 -7 -28 29 -14
right_child=1 7 -4 12 -6 9 -8 8 -10 -11 11 20 21 18 -16 -17 -18 -19 -20 -21 -22 22 -24 -25 -26 -27 27 -29 -30 -31
leaf_value=-0.11842743134524202 -0.070070036152586002 -0.029834530180264152 -0.024625380317302624 -0.036933008512873601 -0.084800685681113652 0.0077071228563660782 -0.051206507634646875 -0.017292523162281987 -0.11004575273996596 0.020644503283659583 -0.075477832661878727 0.0060855480307255893 -0.0046621857426123797 0.023118863756202909 -0.031557786906411089 -0.015974696631521564 0.025440887489974841 0.035553155466108641 0.022734476924730997 -0.044130886503353499 -0.030941440301678277 0.0028839691588887408 0.019562618223896752 -0.10627193934230672 -0.03600235218106395 0.010273425601168043 -0.096324071552304991 0.0065799575152443862 0.053758674706004698 0.021294540579718683
leaf_weight=18 11.999999999999998 10.000000000000002 12.999999999999998 13.000000000000002 11.999999999999998 50 29 18 9.9999999999999982 60 15.999999999999998 15.000000000000002 12.999999999999998 26 10.999999999999998 9.9999999999999982 64 18 212 9.9999999999999982 9.9999999999999982 39 82 19 9.9999999999999982 14.999999999999998 12.999999999999998 27 511 489
leaf_count=18 12 10 13 13 12 50 29 18 10 60 16 15 13 26 11 10 64 18 212 10 10 39 82 19 10 15 13 27 511 489
internal_value=0.000876011 -0.0180769 -0.0264815 0.0021519 -0.00291855 -0.0012201 -0.0328049 -0.010873 -0.00546512 0.000549738 -0.00148855 -0.00719512 0.00289057 0.00115385 -0.00275862 -0.000714286 0.000789474 -0.00629032 0.00298387 -0.00333333 -0.001 0.00343886 0.000714286 -0.00275862 -0.0225 -0.00106061 0.00111111 -0.0025 0.0038154 0.00290837
internal_weight=1855 117 54 1738 221 209 41 63 43 191 131 41 1517 364 116 105 95 31 248 36 25 1153 140 58 20 33 90 40 1013 502
internal_count=1855 117 54 1738 221 209 41 63 43 191 131 41 1517 364 116 105 95 31 248 36 25 1153 140 58 20 33 90 40 1013 502
is_linear=0
shrinkage=0.05


Tree=12
num_leaves=31
num_cat=0
split_feature=31 9 1 2 6 39 40 9 31 36 43 39 32 8 6 32 37 9 6 13 36 40 16 35 37 10 12 32 43 36
split_gain=15.7664 3.41857 2.84953 1.7949 2.779 1.69268 1.27959 2.31224 1.32423 1.21809 0.769737 0.72865 0.676398 0.862915 0.978173 0.674326 0.642681 0.685943 1.8018 1.66577 0.916667 0.638958 0.61912 0.832415 1.71626 0.474406 0.490473 0.786447 0.94697 0.460716
threshold=0.23743342973589773 45993.500000000007 26.500000000000004 9.5000000000000018 185.50000000000003 0.030793987586347771 0.00031828747760769867 2083.5000000000005 0.042489937897688089 -0.010103269023656424 -0.011474833283205739 -0.072404824286793637 0.12887674094426599 47608.000000000007 167.50000000000003 -0.19710310238577361 0.027960747942103424 45993.500000000007 12.500000000000002 2.5000000000000004 0.0185171532402944 -0.13881814355203967 1.0000000180025095e-35 -0.0024454574510423773 0.030378601634896901 9789255.0000000019 9.5000000000000018 0.062258936689258151 -0.0027510721685880648 0.020517859645137585
decision_type=2 2 2 2 2 2 2 2 2 2 2 2 2 2 2 2 2 2 2 2 2 2 2 2 2 2 2 2 2 2
left_child=3 2 9 4 6 15 7 -1 21 -2 -4 -8 13 14 16 -3 17 18 29 20 -20 -9 23 24 -23 -19 -27 28 -28 -5
right_child=1 5 10 12 -6 -7 11 8 -10 -11 -12 -13 -14 -15 -16 -17 -18 25 19 -21 -22 22 -24 -25 -26 26 27 -29 -30 -31
leaf_value=-0.040205968761585199 -0.013802944034661098 -0.047197263954850271 -0.042336175349077368 0.035839501401731082 -0.046105641402151856 -0.14345902430198651 -0.016825589180059837 -0.086771824432821734 -0.019906660251487525 -0.044940756756298765 -0.051566662001218878 0.010651825868796434 0.034662517644689521 0.15336919191450457 -0.20928982065413201 0.0031526658066006069 0.027366582351921655 -0.070237220601481104 0.0152282639068302 -0.033180278139764964 -0.15851131011913533 -0.16243157830381885 0.0042443165242065503 0.0075088008577041503 0.0053619375234004226 0.023267415308643839 0.037636818194477228 0.0064332115085751172 -0.11106419261738197 -0.015143019392560514
leaf_weight=11.999999999999998 13.000000000000002 10.999999999999995 12.999999999999998 47 18 11.999999999999998 22 11.999999999999998 13.999999999999998 18 19 242 681 138 9.9999999999999982 28.000000000000004 126 10.999999999999998 11.000000000000002 9.9999999999999982 15.999999999999998 15.000000000000002 107 41 15.999999999999998 78 12.000000000000002 71 9.9999999999999982 27
leaf_count=12 13 11 13 47 18 12 22 12 14 18 19 242 681 138 10 28 126 11 11 10 16 15 107 41 16 78 12 71 10 27
internal_value=0.000647502 -0.0173684 -0.0251587 0.00182313 -0.000711423 -0.0077451 1.03952e-05 -0.0028341 -0.00158537 -0.0143548 -0.035625 0.00234848 0.00283654 0.00156085 0.000454546 -0.00269231 0.000823389 -0.000460751 -0.00355856 -0.0125676 -0.00611111 -0.000497382 0.000251397 -0.00333333 -0.00951613 0.00142857 0.00207602 -0.000376344 -0.00863636 0.000945946
internal_weight=1861 114 63 1747 499 51 481 217 205 31 32 264 1248 567 429 39 419 293 111 37 27 191 179 72 31 182 171 93 22 74
internal_count=1861 114 63 1747 499 51 481 217 205 31 32 264 1248 567 429 39 419 293 111 37 27 191 179 72 31 182 171 93 22 74
is_linear=0
shrinkage=0.05


Tree=13
num_leaves=31
num_cat=0
split_feature=31 45 6 0 6 9 8 31 12 43 39 8 34 31 10 9 9 41 37 13 13 38 43 13 31 2 6 41 8 36
split_gain=11.5349 3.42681 1.81549 1.76296 3.28144 1.64219 0.905811 1.33586 1.30667 0.935065 0.753399 1.06667 0.722569 0.733611 0.631779 1.3476 0.909632 0.838095 0.827393 0.483871 0.465513 0.679117 0.877193 0.93985 0.761905 0.386524 0.533939 0.733192 0.37013 0.340555
threshold=0.35774391398773081 -0.023913191834258229 32.500000000000007 9.5000000000000018 187.50000000000003 2083.5000000000005 221.50000000000003 0.83586978948246016 7.5000000000000009 0.0017312332541799796 -0.045698572423321294 908.50000000000011 -0.077933779546108806 0.027563790805630744 12424474.000000002 31138.000000000004 35453.500000000007 0.004941469273050815 0.079796638008468659 1.5000000000000002 2.5000000000000004 -0.0033774683365313152 0.032785597920521291 1.0000000180025095e-35 0.0041554110826773532 16.500000000000004 112.50000000000001 0.01039983824475257 47020.500000000007 0.041516118910167196
decision_type=2 2 2 2 2 2 2 2 2 2 2 2 2 2 2 2 2 2 2 2 2 2 2 2 2 2 2 2 2 2
left_child=3 -2 6 4 5 -1 8 9 -3 -8 11 -7 13 -5 15 -15 -17 -18 -16 -4 21 -12 23 -23 -25 26 29 28 -28 -14
right_child=1 2 19 12 -6 10 7 -9 -10 -11 20 -13 25 14 18 16 17 -19 -20 -21 -22 22 -24 24 -26 -27 27 -29 -30 -31
leaf_value=-0.034980462476843652 -0.040799808857361113 -0.021426138526862537 -0.034699074571884196 -0.0048524791364993464 -0.088446691993912349 -0.14974932850684505 -0.1138573670729795 -0.051390154324304708 0.0090733989413299149 -0.008866914992999058 0.0077728512135344201 -0.00085278247335884144 0.018493571037769729 0.0078224001406378245 0.019890414316518501 -0.13325706514447788 0.033039579453273821 -0.066752504068915489 -0.067024503818822648 0.0072427870987388683 0.010924854272705608 0.0091264909147429647 0.010426113197903236 6.170903175767172e-06 -0.071993660429068199 0.042721397854881805 0.023857938719507567 -0.17098601898003218 -0.00717095284204196 0.00060457584955187675
leaf_weight=17 13.999999999999998 15.000000000000002 16.000000000000004 11.999999999999998 9.9999999999999982 10.000000000000002 14.000000000000002 10.999999999999998 9.9999999999999982 10.999999999999998 36 20 339 35 180 10.999999999999998 11.000000000000002 9.9999999999999982 13.999999999999998 14.999999999999998 71 9.9999999999999982 19 12.000000000000002 15.999999999999998 771 19 9.9999999999999982 13.999999999999998 135
leaf_count=17 14 15 16 12 10 10 14 11 10 11 36 20 339 35 180 11 11 10 14 15 71 10 19 12 16 771 19 10 14 135
internal_value=0.00121292 -0.0148113 -0.0113043 0.00216611 -0.00201357 -0.000687204 -0.0163115 -0.0213889 -0.009 -0.015 0.000618557 -0.00666667 0.00275785 0.000421246 0.000977012 -0.00320895 -0.010625 -0.00452381 0.00242268 -0.00145161 0.00195122 -0.000376344 -0.00377193 -0.00815789 -0.0128571 0.00325311 0.00219536 -0.00313953 0.000454546 0.00267933
internal_weight=1888 106 92 1782 221 211 61 36 25 25 194 30 1561 273 261 67 32 21 194 31 164 93 57 38 28 1288 517 43 33 474
internal_count=1888 106 92 1782 221 211 61 36 25 25 194 30 1561 273 261 67 32 21 194 31 164 93 57 38 28 1288 517 43 33 474
is_linear=0
shrinkage=0.05


Tree=14
num_leaves=31
num_cat=0
split_feature=32 40 6 0 9 44 9 41 40 2 37 0 8 32 41 6 1 45 34 34 44 8 34 41 41 39 13 45 40 41
split_gain=13.13 3.05082 1.66279 4.00417 1.56721 1.25178 1.484 1.65412 2.16964 1.35 1.30952 1.04762 1.04151 1.37342 1.1589 0.948605 1.03091 0.876623 0.610136 0.94712 0.876623 0.598108 0.831933 0.482857 0.447221 0.581919 0.421235 1.14183 0.410292 0.866165
threshold=1.0000000180025095e-35 -0.089793210582795754 185.50000000000003 9.5000000000000018 92876.500000000015 -0.003987723411974186 32499.000000000004 0.009505771673932845 0.023091884075560416 2.5000000000000004 0.014151044432809528 44.500000000000007 46774.500000000007 0.023613671643289442 0.00168825442502078 71.500000000000014 15.500000000000002 -0.01364548445748272 0.038495946223589171 0.03600643044476131 0.022985420165083047 46085.500000000007 -0.0403381141045051 -0.0061158085397146969 0.011706071618140785 -0.09783713424957878 3.5000000000000004 -0.051955884321848299 0.19325035749496297 0.038363304843677372
decision_type=2 2 2 2 2 2 2 2 2 2 2 2 2 2 2 2 2 2 2 2 2 2 2 2 2 2 2 2 2 2
left_child=1 -1 12 -4 5 -3 7 8 9 -7 -10 17 13 14 23 -6 -17 -5 19 21 -21 28 -23 -2 -20 -26 -27 -28 -15 -30
right_child=2 4 3 11 15 6 -8 -9 10 -11 -12 -13 -14 18 -16 16 -18 -19 24 20 -22 22 -24 -25 25 26 27 -29 29 -31
leaf_value=-0.034473665811954726 -0.019231631197110147 -0.11617894627624432 -0.031187555708306683 -0.17143212025265492 0.002861795216706806 -0.03065927326731295 -0.0043621328675792145 0.0046043277541591441 -0.064250055838850947 -0.0074893482670461255 -0.024438993746304507 0.060363339154343089 0.15197251361829089 0.0077852156190484625 -0.038931911117023488 0.0053721537341937867 -0.044864326782443079 0.05673028420505747 0.032611868941835501 0.040331829665795696 -0.013262004058570621 -0.13276513201314064 0.02195820010599206 0.0010376833684663269 -0.0083575530339639065 0.028811609539550215 -0.0081158292379214739 0.028868078194315312 -0.023075868087915379 0.046763749060635164
leaf_weight=9.9999999999999982 9.9999999999999982 12.999999999999998 9.9999999999999982 10.000000000000002 24 12.000000000000002 22 10.999999999999998 11.000000000000002 14.999999999999998 9.9999999999999982 33 290 758 19 11.000000000000002 13.999999999999998 10.999999999999998 365 11.000000000000002 9.9999999999999982 17.000000000000004 10.999999999999998 25 14.999999999999998 89 12.999999999999998 19 19 15.999999999999998
leaf_count=10 10 13 10 10 24 12 22 11 11 15 10 33 290 758 19 11 14 11 365 11 10 17 11 25 15 89 13 19 19 16
internal_value=0.000745798 -0.0133007 0.00197316 -0.0059375 -0.0114336 -0.0152128 -0.0129012 -0.0170339 -0.0210417 -0.0116667 -0.0330952 -0.000555555 0.00227327 0.00170723 -0.00611111 -0.00418367 -0.011 -0.00928571 0.00202159 0.00119953 -0.00928571 0.00146772 -0.00571429 -0.000714286 0.00340319 0.000955883 0.00210744 -0.0028125 0.00172131 -0.00357143
internal_weight=1904 153 1751 64 143 94 81 59 48 27 21 54 1687 1397 54 49 25 21 1343 842 21 821 28 35 501 136 121 32 793 35
internal_count=1904 153 1751 64 143 94 81 59 48 27 21 54 1687 1397 54 49 25 21 1343 842 21 821 28 35 501 136 121 32 793 35
is_linear=0
shrinkage=0.05


Tree=15
num_leaves=31
num_cat=0
split_feature=32 44 10 42 1 8 36 34 8 32 10 13 33 41 11 31 6 18 40 36 6 6 44 34 39 43 36 6 35 34
split_gain=8.45861 4.2677 1.95461 1.81167 1.84499 1.63328 1.71429 1.37504 1.11212 1.24892 1.70424 3.16875 1.14515 1.38242 0.956612 0.71627 0.525 0.473905 0.454834 0.425756 0.445746 0.921594 0.422384 0.637528 1.79242 0.53367 0.495722 0.8 0.453012 1.2267
threshold=-0.056967356426079745 0.025707153933892005 561611.50000000012 0.18898008804979008 1.5000000000000002 1750.5000000000002 -0.0070214922245061566 -0.31221637205403324 47608.000000000007 0.064037051870252396 417871.00000000006 2.5000000000000004 -0.08204762902616565 0.0028318072577363904 369188481.00000006 0.7955800298675163 9.5000000000000018 3.5000000000000004 -0.058100031317077049 -1.0000000180025095e-35 22.500000000000004 30.500000000000004 -0.030887149414505741 -0.091064820518651543 0.027427361804847537 -0.11503282240898267 0.29399914538901639 16.500000000000004 -0.031978615954939192 0.051019844906994322
decision_type=2 2 2 2 2 2 2 2 2 2 2 2 2 2 2 2 2 2 2 2 2 2 2 2 2 2 2 2 2 2
left_child=1 2 -1 7 -5 6 15 -2 9 10 11 -9 13 -12 17 -4 -17 -11 -14 -20 -21 -22 23 24 -19 -25 -24 -28 29 -27
right_child=3 -3 5 4 -6 -7 -8 8 -10 14 12 -13 18 -15 -16 16 -18 22 19 20 21 -23 26 25 -26 28 27 -29 -30 -31
leaf_value=-0.060188694265006587 -0.11874333265454989 -0.040481999152452514 -0.11426926617775755 -0.037889364856429415 0.0017311698102518624 0.0035987004462793397 -0.041942279693231339 -0.038563958949437677 0.14251525314884464 0.028179794644785611 -0.12411793122958628 0.0051513305315874893 -0.041911545126432026 0.00062951387365886341 -0.15223246844266181 0.0038722576261542838 -0.013854609197052246 0.017896528813347395 0.022104817015661374 0.0051997789855133267 -0.10590178267034854 0.00055866172989279704 0.017772368486710446 -0.0022537447707745048 -0.059476523420881604 -0.17111367975230707 0.0055632491515391173 -0.012399763744893369 0.021539725794187427 0.00646999926066405
leaf_weight=9.9999999999999982 18 11.999999999999998 18 14.000000000000002 14.999999999999998 28 11.999999999999998 11.999999999999998 299 360 17 20 18 22 11.999999999999998 14.000000000000002 9.9999999999999982 30 80 59 17 40 483 9.9999999999999982 13.999999999999998 11.999999999999998 10.000000000000002 9.9999999999999982 141 81
leaf_count=10 18 12 18 14 15 28 12 12 299 360 17 20 18 22 12 14 10 30 80 59 17 40 483 10 14 12 10 10 141 81
internal_value=0.00107482 -0.0127885 -0.00913043 0.00187848 -0.0105172 -0.00658537 -0.0116667 0.00208215 0.00222381 0.00165055 -0.00131579 -0.0121875 5.92887e-05 -0.00782051 0.00237747 -0.00690476 -0.00125 0.00252389 0.00149533 0.00219388 0.000258621 -0.00289474 0.00183944 0.0003125 -0.00522727 0.00131148 0.00271372 -0.005 0.00179487 -0.000913978
internal_weight=1898 104 92 1794 29 82 54 1765 1747 1448 285 32 253 39 1163 42 24 1151 214 196 116 57 791 288 44 244 503 20 234 93
internal_count=1898 104 92 1794 29 82 54 1765 1747 1448 285 32 253 39 1163 42 24 1151 214 196 116 57 791 288 44 244 503 20 234 93
is_linear=0
shrinkage=0.05


Tree=16
num_leaves=31
num_cat=0
split_feature=32 43 0 9 8 42 0 34 8 40 9 32 8 9 0 32 32 36 0 0 43 39 35 8 8 46 39 31 2 40
split_gain=9.56271 3.12817 2.33804 1.58057 2.14923 1.46247 1.50693 1.47935 3.49091 1.6089 2.24735 1.01171 0.789617 1.44664 0.751452 0.628728 0.813097 1.40043 0.610402 0.837473 0.593237 0.81074 0.479625 0.45 0.446089 0.430244 0.420006 0.679449 2.30693 0.633484
threshold=-0.056967356426079745 -0.014473412655407546 18.500000000000004 32499.000000000004 221.50000000000003 0.18898008804979008 9.5000000000000018 -0.27739483275417581 46085.500000000007 0.0025247295354116259 3616.0000000000005 -0.19710310238577361 572.00000000000011 48062.500000000007 576.50000000000011 0.095452284951561037 0.088399669849276233 0.037678562532630182 396.50000000000006 533.00000000000011 0.0017312332541799796 -0.046553608743839466 -0.034735097784383079 372.50000000000006 47863.500000000007 0.047199365066420106 0.048735335078135725 0.038927191332036627 87.500000000000014 0.010975999563174762
decision_type=2 2 2 2 2 2 2 2 2 2 2 2 2 2 2 2 2 2 2 2 2 2 2 2 2 2 2 2 2 2
left_child=1 -1 5 4 11 7 -7 8 -2 10 -9 -3 13 25 18 16 20 -18 -5 -20 -4 -22 -14 -15 26 -12 27 29 -29 -23
right_child=2 3 15 14 -6 6 -8 9 -10 -11 12 -13 22 23 -16 -17 17 -19 19 -21 21 24 -24 -25 -26 -27 -28 28 -30 -31
leaf_value=-0.031940176871349653 0.013001408331431943 0.0033178751459099357 0.021877010359914247 0.0012327965903128997 -0.055763211745154556 -0.044165998630893558 -0.01513735489826476 -0.032613216892369214 -0.12185274479531583 0.0069875969361851134 0.0069223969362502795 -0.027684364457632532 -0.13941474176280449 -0.059858462045338283 0.0051478294318777875 0.03434250800870383 0.033357350872744461 -0.067629636194770637 -0.053389683344967367 -0.059417733435277821 -0.12077757521823403 0.019902268962651903 0.0023687398791774139 -0.057380911200729329 0.22366787515563066 -0.0084379607461646019 0.024591009064842378 -0.11600167206722688 0.0010103761571173262 -0.0057488117711226366
leaf_weight=9.9999999999999982 12.000000000000002 13.000000000000002 197 10.999999999999998 18 11.000000000000002 9.9999999999999982 11.999999999999998 9.9999999999999982 225 25 9.9999999999999982 9.9999999999999982 10.000000000000002 20 920 29 15.999999999999998 10.000000000000002 17 10.999999999999998 35 112 9.9999999999999982 46 15.999999999999998 24 10.999999999999998 24 17
leaf_count=10 12 13 197 11 18 11 10 12 10 225 25 10 10 10 20 920 29 16 10 17 11 35 112 10 46 16 24 11 24 17
internal_value=0.00103049 -0.0133486 0.00190463 -0.0106566 -0.0181707 -0.00115551 -0.0140476 -0.000542986 -0.0131818 0.000119048 -0.00320513 -0.00804348 -0.0018306 -0.00647541 -0.00534483 0.00296992 0.00134146 -0.005 -0.00947368 -0.0135185 0.00212329 -5.95236e-05 0.000491803 -0.0175 0.000859873 -0.00109756 -0.000855856 -0.00247126 -0.00785714 0.00115385
internal_weight=1902 109 1793 99 41 463 21 442 22 420 195 23 183 61 58 1330 410 45 38 27 365 168 122 20 157 41 111 87 35 52
internal_count=1902 109 1793 99 41 463 21 442 22 420 195 23 183 61 58 1330 410 45 38 27 365 168 122 20 157 41 111 87 35 52
is_linear=0
shrinkage=0.05


Tree=17
num_leaves=31
num_cat=0
split_feature=32 11 8 43 2 41 34 45 32 6 39 8 6 39 41 8 8 38 46 32 18 33 11 32 36 2 16 41 12 46
split_gain=7.82127 2.28637 2.60417 1.58026 1.19234 1.52986 1.99017 1.48325 0.849816 0.818473 0.763348 0.94697 0.679555 1.23026 1.74578 0.626935 0.493637 0.59608 0.613298 0.463555 1.05042 0.441257 0.620509 1.15238 0.69491 0.448411 0.597587 1.03219 0.756141 0.606061
threshold=1.0000000180025095e-35 4493270.5000000009 126.00000000000001 -0.0035947622782605154 4.5000000000000009 0.004941469273050815 0.033969758745887681 -0.0074396070668970521 -0.21040039825068224 2.5000000000000004 0.02043563518556062 520.00000000000011 129.50000000000003 -0.02317971162679135 0.00168825442502078 150.50000000000003 44150.000000000007 -0.02557838972056688 -0.13761085002173426 0.11754037488081494 4.5000000000000009 -0.045121452852781449 14116163.500000002 0.04540577044142264 0.037678562532630182 16.500000000000004 1.0000000180025095e-35 -0.012578295880409372 13.500000000000002 0.029512133891374057
decision_type=2 2 2 2 2 2 2 2 2 2 2 2 2 2 2 2 2 2 2 2 2 2 2 2 2 2 2 2 2 2
left_child=1 2 9 10 5 15 7 -7 -5 -1 -3 -12 16 14 -14 -2 17 -6 -19 20 -15 22 23 -20 -25 26 27 29 -29 -23
right_child=4 3 -4 8 12 6 -8 -9 -10 -11 11 -13 13 19 -16 -17 -18 18 21 -21 -22 25 -24 24 -26 -27 -28 28 -30 -31
leaf_value=-0.025567450811856962 -0.0035588698710380786 -0.081804533851206673 -0.053352688343189639 -0.036479106261745262 0.019235113358159167 -0.10564675944239615 0.0087844583956280548 -0.054992408401099528 0.00049798207361823694 0.00010081101500464951 -0.12123125162177212 0.0054341088035229591 0.0048161326284463781 0.037458005581350172 -0.082857741938309637 0.0071184007083068147 0.099325389547704035 -0.013086077691941856 -0.091637559439365079 0.038461133264976341 -0.12987108607204742 0.00048645042912104955 0.011518860807382051 0.022680788937886984 -0.054727122422551816 0.034030908337996255 0.019553020982264215 0.015616972183339607 -0.078488258010408651 -0.0025644550567210434
leaf_weight=13.000000000000002 9.9999999999999982 13.999999999999998 15.999999999999998 9.9999999999999982 415 19 18 18 59 10.999999999999998 10.000000000000002 11.999999999999998 22 20 14.999999999999998 85 288 14.999999999999998 13.999999999999998 58 13.999999999999998 12.000000000000002 164 58 11.999999999999998 231 125 98 12.999999999999998 9.9999999999999982
leaf_count=13 10 14 16 10 415 19 18 18 59 11 10 12 22 20 15 85 288 15 14 58 14 12 164 58 12 231 125 98 13 10
internal_value=0.00132783 -0.00982759 -0.02 -0.00595238 0.00226067 -0.002 -0.00863636 -0.0152703 -0.00152174 -0.00958333 -0.0144444 -0.00863636 0.00266414 -0.000813953 -0.00851351 0.00184211 0.00297251 0.002515 0.00167553 0.00228261 -0.00235294 0.00187924 0.000161291 -0.00333333 -0.000714286 0.00275051 0.00131783 -0.00101504 0.000945946 -0.0109091
internal_weight=1879 145 40 105 1734 150 55 37 69 24 36 22 1584 129 37 95 1455 1167 752 92 34 737 248 84 70 489 258 133 111 22
internal_count=1879 145 40 105 1734 150 55 37 69 24 36 22 1584 129 37 95 1455 1167 752 92 34 737 248 84 70 489 258 133 111 22
is_linear=0
shrinkage=0.05


end of trees

feature_importances:
Column_6=48
Column_32=43
Column_8=40
Column_9=32
Column_31=28
Column_34=26
Column_40=26
Column_0=25
Column_36=25
Column_41=24
Column_45=21
Column_2=20
Column_39=19
Column_43=18
Column_12=15
Column_16=15
Column_10=14
Column_33=14
Column_37=13
Column_42=11
Column_44=10
Column_1=9
Column_13=9
Column_35=8
Column_46=8
Column_38=7
Column_11=4
Column_18=4
Column_4=1
Column_15=1
Column_19=1
Column_21=1

parameters:
[boosting: gbdt]
[objective: quantile]
[metric: quantile]
[tree_learner: serial]
[device_type: cpu]
[data_sample_strategy: bagging]
[data: ]
[valid: ]
[num_iterations: 200]
[learning_rate: 0.05]
[num_leaves: 31]
[num_threads: 0]
[seed: 0]
[deterministic: 0]
[force_col_wise: 0]
[force_row_wise: 0]
[histogram_pool_size: -1]
[max_depth: -1]
[min_data_in_leaf: 10]
[min_sum_hessian_in_leaf: 0.001]
[bagging_fraction: 0.85]
[pos_bagging_fraction: 1]
[neg_bagging_fraction: 1]
[bagging_freq: 1]
[bagging_seed: 3]
[bagging_by_query: 0]
[feature_fraction: 0.85]
[feature_fraction_bynode: 1]
[feature_fraction_seed: 2]
[extra_trees: 0]
[extra_seed: 6]
[early_stopping_round: 0]
[early_stopping_min_delta: 0]
[first_metric_only: 0]
[max_delta_step: 0]
[lambda_l1: 0]
[lambda_l2: 0]
[linear_lambda: 0]
[min_gain_to_split: 0]
[drop_rate: 0.1]
[max_drop: 50]
[skip_drop: 0.5]
[xgboost_dart_mode: 0]
[uniform_drop: 0]
[drop_seed: 4]
[top_rate: 0.2]
[other_rate: 0.1]
[min_data_per_group: 100]
[max_cat_threshold: 32]
[cat_l2: 10]
[cat_smooth: 10]
[max_cat_to_onehot: 4]
[top_k: 20]
[monotone_constraints: ]
[monotone_constraints_method: basic]
[monotone_penalty: 0]
[feature_contri: ]
[forcedsplits_filename: ]
[refit_decay_rate: 0.9]
[cegb_tradeoff: 1]
[cegb_penalty_split: 0]
[cegb_penalty_feature_lazy: ]
[cegb_penalty_feature_coupled: ]
[path_smooth: 0]
[interaction_constraints: ]
[verbosity: -1]
[saved_feature_importance_type: 0]
[use_quantized_grad: 0]
[num_grad_quant_bins: 4]
[quant_train_renew_leaf: 0]
[stochastic_rounding: 1]
[linear_tree: 0]
[max_bin: 255]
[max_bin_by_feature: ]
[min_data_in_bin: 3]
[bin_construct_sample_cnt: 200000]
[data_random_seed: 1]
[is_enable_sparse: 1]
[enable_bundle: 1]
[use_missing: 1]
[zero_as_missing: 0]
[feature_pre_filter: 1]
[pre_partition: 0]
[two_round: 0]
[header: 0]
[label_column: ]
[weight_column: ]
[group_column: ]
[ignore_column: ]
[categorical_feature: ]
[forcedbins_filename: ]
[precise_float_parser: 0]
[parser_config_file: ]
[objective_seed: 5]
[num_class: 1]
[is_unbalance: 0]
[scale_pos_weight: 1]
[sigmoid: 1]
[boost_from_average: 1]
[reg_sqrt: 0]
[alpha: 0.1]
[fair_c: 1]
[poisson_max_delta_step: 0.7]
[tweedie_variance_power: 1.5]
[lambdarank_truncation_level: 30]
[lambdarank_norm: 1]
[label_gain: ]
[lambdarank_position_bias_regularization: 0]
[eval_at: ]
[multi_error_top_k: 1]
[auc_mu_weights: ]
[num_machines: 1]
[local_listen_port: 12400]
[time_out: 120]
[machine_list_filename: ]
[machines: ]
[gpu_platform_id: -1]
[gpu_device_id: -1]
[gpu_use_dp: 0]
[num_gpu: 1]

end of parameters

pandas_categorical:null
