tree
version=v4
num_class=1
num_tree_per_iteration=1
label_index=0
max_feature_idx=46
objective=quantile
feature_names=Column_0 Column_1 Column_2 Column_3 Column_4 Column_5 Column_6 Column_7 Column_8 Column_9 Column_10 Column_11 Column_12 Column_13 Column_14 Column_15 Column_16 Column_17 Column_18 Column_19 Column_20 Column_21 Column_22 Column_23 Column_24 Column_25 Column_26 Column_27 Column_28 Column_29 Column_30 Column_31 Column_32 Column_33 Column_34 Column_35 Column_36 Column_37 Column_38 Column_39 Column_40 Column_41 Column_42 Column_43 Column_44 Column_45 Column_46
feature_infos=[1:419128] [1:10338] [1:105057] [0:1] [0:800] none [0:250] [0:1] [0:976023576] [0:6526440] [0:951432192] [0:982550016] [1:18] [0:6] [0:1] [0:1] [-1:6] none [0:5] [0:1] [0:1] [0:1] [0:1] [0:1] [0:1] [0:1] [0:1] [0:1] [0:1] [0:1] [0:1] [0:0.88661587149556698] [-0.21174932009488154:0.60552586045175072] [-0.49767089837333339:0.72933988251314252] [-0.21845551685773659:0.8497808874976629] [-0.14635787270554371:0.86530565242711155] [-0.0095105158173862878:0.9992211747005213] [-0.18376535312841397:0.75561688545303729] [-0.74065557590248576:0.4009934048714639] [-0.36854671518786891:0.45727736707654859] [-0.52464986523451362:0.61371751120103912] [-0.15084502832183419:0.78114462520581895] [-0.36208512478133126:0.54324896712804882] [-0.17574111057125183:0.89635337767906353] [-0.24121947486762466:0.4763947487018102] [-0.4129042787730311:0.32995157863203972] [-0.25200364852179286:0.55703542188154131]
tree_sizes=2937 3088 3111 3152 3102 3057 3018 3107 3134 3164 3153 3130 3153 3132 3127

Tree=0
num_leaves=31
num_cat=0
split_feature=31 0 16 10 8 6 37 41 6 12 31 38 6 8 2 19 6 41 13 12 6 13 8 8 6 8 39 8 1 6
split_gain=37.4662 10.1865 5.70904 3.07583 2.97278 2.27766 2.68812 2.16743 1.75527 1.38161 1.12536 1.07601 0.721778 1.45606 0.654488 1.00741 0.787059 0.835892 0.938312 0.45904 0.45 0.414063 0.746068 1.20927 0.676185 0.33376 0.30503 0.441176 0.304895 0.302098
threshold=0.27917543481689067 8.5000000000000018 1.0000000180025095e-35 4658156.0000000009 194669.00000000003 183.50000000000003 6.7889272450755614e-05 0.40425016453815016 29.500000000000004 7.5000000000000009 0.74093818877870821 -0.010518064605109637 9.5000000000000018 67.500000000000014 9.5000000000000018 1.0000000180025095e-35 185.50000000000003 -0.00082884820552905209 2.5000000000000004 12.500000000000002 13.500000000000002 3.5000000000000004 13379.000000000002 2255.0000000000005 13.500000000000002 212.50000000000003 -0.25065466759768734 4833.5000000000009 1863.0000000000002 31.500000000000004
decision_type=2 2 2 2 2 2 2 2 2 2 2 2 2 2 2 2 2 2 2 2 2 2 2 2 2 2 2 2 2 2
left_child=1 4 11 -4 5 6 9 14 -9 12 -5 -2 13 -1 15 16 17 18 -3 25 -8 22 23 24 -11 -13 27 -16 -28 -26
right_child=2 7 3 10 -6 -7 20 8 -10 21 -12 19 -14 -15 26 -17 -18 -19 -20 -21 -22 -23 -24 -25 29 -27 28 -29 -30 -31
leaf_value=4.8478554566120735 4.9429364920065311 4.9956888223085025 4.8717347502708437 4.9752237321207611 5.2240771532478156 4.9038337012585149 4.9118520736694338 5.006857512078434 4.7984179032851761 4.9996665740776365 4.9976715374667826 4.9335705328791635 4.9099203232104971 5.0032826019490875 4.9383066627644983 4.935359407282462 4.9293956906921563 5.0100242713338616 4.9727044107921543 4.8309257964005177 4.9354874920449081 5.0031436040956887 5.0040888096821563 4.9200528956367195 4.881094538535522 4.9002619981765747 5.0448408963479823 5.0698771955599238 4.9660405899089408 4.989849973612162
leaf_weight=10.000000000000002 10.999999999999998 28 10.999999999999998 11.000000000000002 31 9.9999999999999982 10.000000000000002 12.000000000000002 10.999999999999998 18 19 17 12.999999999999998 11.999999999999998 17 14.999999999999998 12.999999999999998 225 15.999999999999998 14.999999999999998 9.9999999999999982 24 18 14.999999999999998 15.000000000000002 29 1216 14.999999999999998 9.9999999999999982 10.999999999999998
leaf_count=10 11 28 11 11 31 10 10 12 11 18 19 17 13 12 17 15 13 225 16 15 10 24 18 15 15 29 1216 15 10 11
internal_value=4.99287 4.99465 4.96496 4.97985 4.98393 4.98128 4.98276 4.99599 4.98075 4.98528 4.98814 4.95648 4.97672 4.98224 4.99622 4.9941 4.99478 4.99536 4.98905 4.95388 4.96564 4.98824 4.98646 4.98374 4.98792 4.95141 4.99671 4.99189 4.99684 4.98276
internal_weight=1888 1775 113 41 197 166 156 1578 23 136 30 72 35 22 1555 297 282 269 44 61 20 101 77 59 44 46 1258 32 1226 26
internal_count=1888 1775 113 41 197 166 156 1578 23 136 30 72 35 22 1555 297 282 269 44 61 20 101 77 59 44 46 1258 32 1226 26
is_linear=0
shrinkage=1


Tree=1
num_leaves=31
num_cat=0
split_feature=33 1 0 45 45 42 37 10 45 16 41 12 10 0 0 2 44 19 40 39 2 13 0 10 13 13 16 34 1 10
split_gain=15.8592 10.1095 9.08041 2.64783 2.29819 2.59766 1.6906 10.9512 1.57336 2.14074 1.41304 1.26184 1.0542 0.917044 0.885902 0.78988 1.18472 0.699584 0.760188 0.660093 0.824916 0.822378 0.702024 0.500433 0.369849 0.838131 0.45 0.361941 0.331392 0.270032
threshold=0.060879762680369966 14.500000000000002 8.5000000000000018 -1.0000000180025095e-35 0.00064426469095518995 0.033429869481265931 -0.066567033556205454 8194651.5000000009 0.021357272002264113 1.0000000180025095e-35 0.027701533118577957 3.5000000000000004 377291008.00000006 14.500000000000002 533.00000000000011 9.5000000000000018 -0.074954711150951245 1.0000000180025095e-35 -0.00049443800061194337 -0.014895387191060754 2.5000000000000004 1.5000000000000002 3.5000000000000004 47999399.500000007 2.5000000000000004 1.5000000000000002 1.0000000180025095e-35 -0.048768968794115075 4.5000000000000009 337816116.00000006
decision_type=2 2 2 2 2 2 2 2 2 2 2 2 2 2 2 2 2 2 2 2 2 2 2 2 2 2 2 2 2 2
left_child=2 13 3 -1 14 8 7 10 9 -6 -4 -5 19 -2 -3 16 -8 18 23 -13 21 -21 -23 -18 25 26 -22 28 -17 -20
right_child=1 4 6 11 5 -7 15 -9 -10 -11 -12 12 -14 -15 -16 27 17 -19 29 20 24 22 -24 -25 -26 -27 -28 -29 -30 -31
leaf_value=-0.077227816581726089 -0.020943568875184723 -0.045400701729979911 -0.035265854865755217 -0.12334389743601282 -0.072227666885142733 -0.092332115098782724 -0.027119346091232857 0.056175628325357746 0.0051875935195969452 -0.053598128730318578 -0.074936060804675547 0.098434858353952048 -0.13495579150195045 0.066850865656686367 -0.11533927381038667 -0.012046036116505121 0.0027083689912555755 -0.058784373285936733 0.016422257244308725 -0.044765663356021106 0.035032238166776662 0.0047408887554948147 -0.07049965254125351 -0.030409700833374843 0.01647876235977366 -0.073460048400018366 -0.017660250953994924 0.05878746103213231 0.023646568063022812 -0.080986054240006003
leaf_weight=19 12.999999999999998 9.9999999999999982 10.000000000000002 12.999999999999998 12 11.999999999999998 18 103 11.999999999999998 15 12.999999999999998 15.999999999999998 11.999999999999998 38 23 14.999999999999998 11.000000000000002 13.999999999999998 219 15.999999999999998 18 20 19 9.9999999999999982 31 19 12.000000000000002 811 294 9.9999999999999982
leaf_count=19 13 10 10 13 12 12 18 103 12 15 13 16 12 38 23 15 11 14 219 16 18 20 19 10 31 19 12 811 294 10
internal_value=2.15287e-05 -0.0164815 0.00131457 -0.00884615 -0.0271429 -0.0204902 0.00261126 -0.00293651 -0.0142308 -0.0209259 -0.0341304 -0.00693182 -0.0057362 0.00107843 -0.0374242 0.00310984 0.000744681 0.00159091 0.0022 -0.00460265 -0.00574074 -0.0104545 -0.00653846 -0.00690476 -0.0025 -0.00520408 1.86265e-10 0.00370536 0.00224919 0.00303493
internal_weight=1858 135 1723 195 84 51 1528 126 39 27 23 176 163 51 33 1402 282 264 250 151 135 55 39 21 80 49 30 1120 309 229
internal_count=1858 135 1723 195 84 51 1528 126 39 27 23 176 163 51 33 1402 282 264 250 151 135 55 39 21 80 49 30 1120 309 229
is_linear=0
shrinkage=0.05


Tree=2
num_leaves=31
num_cat=0
split_feature=31 2 16 45 6 8 45 6 0 13 2 0 40 10 13 8 6 8 45 45 32 46 9 6 12 35 40 11 41 40
split_gain=33.4664 7.45343 5.43647 3.04909 3.43069 1.55152 1.15344 1.12734 1.12179 1.11154 0.772503 0.656334 1.2949 0.606061 0.538887 0.625 0.773809 1.08333 0.410326 0.72439 0.6 0.8 0.371212 0.366994 0.315584 0.29004 0.540083 1.48205 2.25641 0.632675
threshold=0.27917543481689067 5.5000000000000009 1.0000000180025095e-35 -0.0012862886675832506 187.50000000000003 40631.500000000007 -0.037498651174473922 56.500000000000007 579.50000000000011 1.5000000000000002 1.5000000000000002 20.500000000000004 -1.0000000180025095e-35 47339786.000000007 2.5000000000000004 11602.500000000002 8.5000000000000018 329.50000000000006 0.0054013747441844992 0.0442168145289926 -0.16493834692998205 -0.019082379542263158 97497.000000000015 116.50000000000001 10.500000000000002 -0.02535137470850559 0.0097231182081875273 10207177.000000002 0.00080152412173528057 0.06451086845696806
decision_type=2 2 2 2 2 2 2 2 2 2 2 2 2 2 2 2 2 2 2 2 2 2 2 2 2 2 2 2 2 2
left_child=1 3 6 -1 5 7 -2 10 9 -4 -5 12 13 -3 15 16 -12 -18 -8 20 -20 -22 -19 -14 -9 26 -13 28 -28 -29
right_child=2 11 8 4 -6 -7 18 24 -10 -11 14 25 23 -15 -16 -17 17 22 19 -21 21 -23 -24 -25 -26 -27 27 29 -30 -31
leaf_value=-0.072273849044661734 -0.054558210601159021 0.0033238292381312026 -0.030591120951391437 -0.025994760388994748 -0.12206030561998998 0.032642999676799227 -0.084694009638848933 -0.080426127563449745 -0.010858552596369126 -0.071480215170152628 0.0031961223947082184 0.044976246555593756 0.016387682560491924 -0.18871795267541794 0.0066150302211291983 0.044029433583151173 -0.13195174787589517 -0.0013973532701723132 -0.099580562127859609 -0.071189257738296832 -0.08051401358488755 -0.040464440797177363 -0.025397170364993994 -0.023948096245670073 -0.039997051870769025 0.049528367851449928 -0.10639008135714734 0.041874057589974409 0.037428703206441642 -0.11339015865793858
leaf_weight=20 11.999999999999998 12.000000000000002 10.000000000000002 19 12.999999999999998 55 21 11.000000000000002 15.999999999999998 15.999999999999998 21 264 212 9.9999999999999982 53 11.999999999999998 11.999999999999998 16.000000000000004 9.9999999999999982 10.999999999999998 9.9999999999999982 10.000000000000005 10.999999999999998 21 9.9999999999999982 903 13.000000000000002 69 10.999999999999998 10.999999999999998
leaf_count=20 12 12 10 19 13 55 21 11 16 16 21 264 212 10 53 12 12 16 10 11 10 10 11 21 10 903 13 69 11 11
internal_value=-1.31924e-05 0.00168353 -0.0260345 -0.00626482 -0.00465665 -0.00318182 -0.0341892 -0.00560606 -0.0116667 -0.0180769 -0.00402778 0.00300131 0.000686275 -0.0109091 -0.0026 -0.00541667 -0.0075 -0.0116667 -0.0369355 -0.0340244 -0.03 -0.025 -0.00611111 0.00178112 -0.0164286 0.00346578 0.00228261 -0.000769231 -0.0116667 0.0025
internal_weight=1895 1779 116 253 233 220 74 165 42 26 144 1526 255 22 125 72 60 39 62 41 30 20 27 233 21 1271 368 104 24 80
internal_count=1895 1779 116 253 233 220 74 165 42 26 144 1526 255 22 125 72 60 39 62 41 30 20 27 233 21 1271 368 104 24 80
is_linear=0
shrinkage=0.05


Tree=3
num_leaves=31
num_cat=0
split_feature=31 16 0 6 9 43 44 42 8 9 0 33 6 11 42 8 13 12 6 2 6 8 45 31 6 9 35 35 32 8
split_gain=28.6239 7.25034 5.11291 4.36928 3.65714 1.71201 1.66995 1.29024 0.947783 0.901703 0.738907 0.891632 0.98837 0.737323 0.685714 0.658442 0.624708 0.569616 0.504974 0.798562 0.761905 0.431002 0.413905 1.07081 0.401369 1.2632 1.29663 1.26614 0.301482 0.297794
threshold=0.27917543481689067 1.0000000180025095e-35 9.5000000000000018 187.50000000000003 23209.500000000004 0.012630164331084636 0.0026450832843591056 0.49128056126156922 46428.000000000007 464651.50000000006 19.500000000000004 1.0000000180025095e-35 185.50000000000003 160705490.00000003 0.013126398938098588 698.50000000000011 3.5000000000000004 10.500000000000002 8.5000000000000018 3.5000000000000004 3.5000000000000004 2235.5000000000005 0.016136078097514321 0.24893120105949318 17.500000000000004 80750.500000000015 -0.028657852223528384 -0.01046882739521565 -1.0000000180025095e-35 353.50000000000006
decision_type=2 2 2 2 2 2 2 2 2 2 2 2 2 2 2 2 2 2 2 2 2 2 2 2 2 2 2 2 2 2
left_child=2 5 3 6 -3 13 8 10 9 16 11 12 -4 -2 -6 -13 17 18 20 -20 -1 -21 28 24 -24 26 -26 -28 -12 -19
right_child=1 4 7 -5 14 -7 -8 -9 -10 -11 22 15 -14 -15 -16 -17 -18 29 19 21 -22 -23 23 -25 25 -27 27 -29 -30 -31
leaf_value=-0.065532397010276411 -0.079006065382073942 -0.10630140763357863 0.0081610687504832229 -0.11595729033899048 0.0035704008719047494 -0.053685181568115359 -0.098611461478528201 -0.20101626282786916 0.079960671982869463 -0.076404821504848591 -0.0029490121910449758 -0.014285300142943397 -0.18629245968170405 -0.043970305748225816 -0.058386738954354922 0.0098709556497529501 0.017682986046907701 -0.074247123024768047 -0.0060233090638840015 -0.059113682268992475 0.0029978267029643936 -0.032998999160177858 0.06050042671791922 -0.061295493134067625 0.018566664729362092 0.04332996811346683 -0.18834311798893627 -0.0034725153004512206 0.049076649915529028 0.0070301073828700662
leaf_weight=12.000000000000002 49 9.9999999999999982 229 12.999999999999998 21 9.9999999999999982 17 9.9999999999999982 37 10.999999999999998 10.999999999999998 11.000000000000002 10.999999999999998 9.9999999999999982 13.999999999999998 9.9999999999999982 31 15.999999999999998 14.999999999999998 11.000000000000002 15.999999999999998 14.999999999999998 175 10.999999999999998 21 182 11.000000000000002 11.999999999999998 855 18
leaf_count=12 49 10 229 13 21 10 17 10 37 11 11 11 11 10 14 10 31 16 15 11 16 15 175 11 21 182 11 12 855 18
internal_value=0.000333334 -0.0239474 0.00190517 -0.00537736 -0.00833333 -0.0341304 -0.00354271 0.00290187 -0.00214286 -0.00396552 0.00301819 0.00059387 0.00145833 -0.0373729 -0.000714286 -0.00928571 -0.00283582 -0.00470874 -0.00731884 -0.0108537 -0.00214286 -0.0161538 0.0035133 0.00220874 0.00263092 0.00123894 -0.00636364 -0.0145652 0.00413395 0.000588235
internal_weight=1875 114 1761 212 45 69 199 1549 182 145 1539 261 240 59 35 21 134 103 69 41 28 26 1278 412 401 226 44 23 866 34
internal_count=1875 114 1761 212 45 69 199 1549 182 145 1539 261 240 59 35 21 134 103 69 41 28 26 1278 412 401 226 44 23 866 34
is_linear=0
shrinkage=0.05


Tree=4
num_leaves=31
num_cat=0
split_feature=32 0 6 16 9 45 12 0 44 46 44 42 2 10 0 6 33 40 13 6 8 9 6 6 16 32 35 19 10 9
split_gain=21.142 5.48589 4.73183 3.53729 3.95835 1.66804 1.43741 1.19229 7.15202 1.17556 1.34127 1.15909 1.10943 1.35531 0.934592 0.944831 0.985693 0.8 0.658442 0.626662 1.18577 0.428547 1.03939 0.362301 0.364646 0.265049 0.238827 0.270179 0.233333 0.228454
threshold=-0.067352822863236878 8.5000000000000018 187.50000000000003 1.0000000180025095e-35 20527.000000000004 -1.0000000180025095e-35 7.5000000000000009 1142.5000000000002 0.14806233618495371 0.00181402563857274 -0.011925603645980273 0.0094416290247480595 389.50000000000006 6083466.0000000009 21.500000000000004 189.50000000000003 1.0000000180025095e-35 -0.0030246570305080974 1.5000000000000002 8.5000000000000018 67.500000000000014 66668.000000000015 13.500000000000002 46.500000000000007 1.0000000180025095e-35 -1.0000000180025095e-35 0.0029023264189245107 1.0000000180025095e-35 1105376.0000000002 55135.000000000007
decision_type=2 2 2 2 2 2 2 2 2 2 2 2 2 2 2 2 2 2 2 2 2 2 2 2 2 2 2 2 2 2
left_child=3 2 5 9 -5 -2 19 14 12 10 -1 -6 -9 17 15 16 26 -14 -18 20 -7 22 28 -23 -25 -16 27 29 -8 -3
right_child=1 7 -4 4 11 6 21 8 -10 -11 -12 -13 13 -15 25 -17 18 -19 -20 -21 -22 23 -24 24 -26 -27 -28 -29 -30 -31
leaf_value=-0.044609370324151583 -0.079760048594339952 0.01080249490435032 -0.12747508385695003 -0.1009863372518997 0.0043021229715512503 -0.12178798806564158 -0.065614142157118999 -0.048313881323725556 -0.06521573243258745 -0.07605702667874753 -0.072566056603722923 -0.037582762726786845 0.027330967409862336 0.030509823992879794 -0.0028015611020848485 -0.1272875782213381 0.0081953962151610025 -0.10414251234365537 -0.011768784823710321 -0.041709887769950577 0.029521660814577341 0.022178740833465532 -0.042768443430072217 0.0028367559178185345 -0.024377025038452266 0.042374032699540681 -0.077914637824202437 -0.044196947865157848 0.0087631262185612849 0.025766689319949104
leaf_weight=18 19 112 9.9999999999999982 9.9999999999999982 17 11.000000000000002 10.000000000000002 9.9999999999999982 10.999999999999998 18 13.999999999999998 15.999999999999998 10.000000000000002 139 10.999999999999998 14.999999999999998 10.000000000000002 9.9999999999999982 10.999999999999998 17 11.999999999999998 54 10.999999999999998 18 14.999999999999998 1085 17 17 13.999999999999998 147
leaf_count=18 19 112 10 10 17 11 10 10 11 18 14 16 10 139 11 15 10 10 11 17 12 54 11 18 15 1085 17 17 14 147
internal_value=0.000288513 0.00149221 -0.00651832 -0.022957 -0.0124419 -0.00466851 -0.00302469 0.00244548 -0.00138889 -0.032 -0.02625 -0.00409091 0.00115385 0.00216981 0.00292982 0.000592705 0.00117834 -0.01 -0.00928571 -0.01125 -0.00586956 -0.000327869 -0.005 0.00155172 -0.00257576 0.00363139 0.00192833 0.00228261 0.000833334 0.0026834
internal_weight=1889 1796 191 93 43 181 162 1605 180 50 32 33 169 159 1425 329 314 20 21 40 23 122 35 87 33 1096 293 276 24 259
internal_count=1889 1796 191 93 43 181 162 1605 180 50 32 33 169 159 1425 329 314 20 21 40 23 122 35 87 33 1096 293 276 24 259
is_linear=0
shrinkage=0.05


Tree=5
num_leaves=31
num_cat=0
split_feature=31 16 10 6 33 46 42 8 1 33 8 16 12 12 42 8 6 44 12 8 12 6 31 36 10 8 8 8 32 18
split_gain=28.2742 5.24687 2.19426 2.14919 3.4355 2.08308 1.27688 1.15078 1.21814 1.30385 0.982699 0.823452 0.659506 0.545563 0.542272 0.539249 0.912378 1.08719 0.530303 0.470012 0.465646 0.429762 0.424091 1.66667 0.42206 0.442986 0.570218 0.32222 0.694444 0.364259
threshold=0.27917543481689067 1.0000000180025095e-35 4421837.0000000009 185.50000000000003 -0.0079125318177474101 -0.022997338372735928 0.013671950710087482 48139.500000000007 1.5000000000000002 -0.049530711359266323 7705.5000000000009 1.0000000180025095e-35 2.5000000000000004 6.5000000000000009 0.22381067440099958 484.50000000000006 20.500000000000004 0.0026450832843591056 11.500000000000002 264.50000000000006 9.5000000000000018 207.50000000000003 0.251437098667117 -0.0043813746859967997 17743706.500000004 87.500000000000014 36.000000000000007 46279.000000000007 0.10321443632744422 3.5000000000000004
decision_type=2 2 2 2 2 2 2 2 2 2 2 2 2 2 2 2 2 2 2 2 2 2 2 2 2 2 2 2 2 2
left_child=3 5 -3 7 -5 -2 -4 8 9 11 19 -1 -11 -6 22 16 17 24 -18 -7 -17 -15 27 -24 25 26 -14 29 -29 -10
right_child=1 2 6 4 13 10 -8 -9 14 12 -12 -13 15 21 -16 20 18 -19 -20 -21 -22 -23 23 -25 -26 -27 -28 28 -30 -31
leaf_value=0.0012304021663085861 -0.051992314963145353 -0.095937020389304684 0.0043014456097386009 0.08043458691590169 -0.038870550296208027 -0.048391116864060328 -0.021085165560579305 0.19957978930309161 0.051138472398256245 -0.063849320869490467 -0.036715772172750134 -0.11569858856382326 0.015043738388133544 -0.19125999214450637 -0.0030850176116196449 -0.0029887190544965552 -0.00059707892423247833 -0.058185971027894468 -0.13267232696109851 -0.07407360947009721 0.012495299332963819 -0.053032665021774332 0.038925273749559848 -0.058339370181193256 -0.044662765793398104 0.014035602087208674 -0.022671202545909458 0.031658818482586115 -0.018291712149407991 0.019311182141685316
leaf_weight=12 18 9.9999999999999982 19.000000000000004 31 10.999999999999998 19 11.999999999999998 281 326 11.999999999999998 11.999999999999998 11 27 10.000000000000002 10.999999999999998 98 11.000000000000002 12.999999999999998 9.9999999999999982 24 112 13.999999999999998 20.000000000000004 9.9999999999999982 18 60 19 18 18 638
leaf_count=12 18 10 19 31 11 19 12 281 326 12 12 11 27 10 11 98 11 13 10 24 112 14 20 10 18 60 19 18 18 638
internal_value=0.000196851 -0.0239474 -0.00963415 0.00173367 -0.00712121 -0.0319863 -0.00306452 0.00207246 0.00150277 -0.000831265 -0.0368182 -0.0123913 -0.000131579 -0.0178571 0.00240634 0.000244565 -0.00196203 -0.000474452 -0.0116667 -0.0403488 0.00190476 -0.0220833 0.00252427 -0.00333333 0.000967742 0.00216981 -0.00152174 0.0027 -0.00194444 0.00287344
internal_weight=1905 114 41 1791 66 73 31 1725 1444 403 55 23 380 35 1041 368 158 137 21 43 210 24 1030 30 124 106 46 1000 36 964
internal_count=1905 114 41 1791 66 73 31 1725 1444 403 55 23 380 35 1041 368 158 137 21 43 210 24 1030 30 124 106 46 1000 36 964
is_linear=0
shrinkage=0.05


Tree=6
num_leaves=31
num_cat=0
split_feature=31 2 38 42 42 8 10 13 13 41 1 8 2 42 41 8 6 2 8 8 41 2 9 35 40 6 2 42 6 36
split_gain=27.4815 4.44499 2.93636 2.03175 1.84897 1.44194 1.14065 1.05911 1.76095 1.02625 0.916017 0.882717 0.727273 0.632611 0.630687 0.682828 0.535747 0.739671 0.527819 1.19376 1.52041 0.49385 0.478927 0.392164 0.700833 1.69203 0.354635 0.803766 0.823802 1.20655
threshold=0.41155022111401179 4.5000000000000009 0.0024858297593951667 -0.016759722448576864 0.029730890389574272 194669.00000000003 4421837.0000000009 1.5000000000000002 2.5000000000000004 0.0010654968890576439 24.500000000000004 1316.5000000000002 2.5000000000000004 0.22381067440099958 -0.010703039971798422 101.50000000000001 163.50000000000003 7.5000000000000009 7887.0000000000009 7645.0000000000009 0.015367985652034325 1.5000000000000002 184880.00000000003 -0.048648924001907998 0.0016608793538017491 12.500000000000002 23.500000000000004 0.014310506036653714 21.500000000000004 0.0005449225274288934
decision_type=2 2 2 2 2 2 2 2 2 2 2 2 2 2 2 2 2 2 2 2 2 2 2 2 2 2 2 2 2 2
left_child=1 5 3 -2 6 7 -5 21 11 10 -8 -9 -13 16 -10 -16 18 -18 19 23 -21 -1 -17 24 -3 -26 27 -25 -29 -30
right_child=2 13 -4 4 -6 -7 9 8 14 -11 -12 12 -14 -15 15 22 17 -19 -20 20 -22 -23 -24 26 25 -27 -28 28 29 -31
leaf_value=-0.035103590004540247 -0.1213891926200035 0.0307905309036982 -0.057175896705598028 -0.04533122438631363 -0.071279646160904694 0.20134621055327817 -0.015641333742532803 -0.063622001104713943 -0.052699864253867079 0.0023295831139340676 -0.065334438778657231 -0.062419967613030994 -0.060957302979730822 -0.075986916832383455 -0.084168560136221121 0.010804016455290458 -0.050674470339160477 0.0075743263253476942 0.047877766650145391 0.0069735413655022845 -0.18201022284642437 0.0019782339174236087 -0.048305298820390079 0.019015599345426883 -0.050106624725333164 0.021728043055547423 0.048556733828603663 0.012883871681025167 -0.12493843214117724 0.049453400513913871
leaf_weight=12.999999999999998 18 50 28 11.999999999999998 11.999999999999998 29 11.000000000000002 12.999999999999998 11.999999999999998 18 9.9999999999999982 11 11 17 9.9999999999999982 29 15.999999999999998 68 587 16.000000000000004 10.999999999999998 46 15.999999999999998 375 11.000000000000002 19 368 24 14 13
leaf_count=13 18 50 28 12 12 29 11 13 12 18 10 11 11 17 10 29 16 68 587 16 11 46 16 375 11 19 368 24 14 13
internal_value=0.000471398 0.00196459 -0.0238991 -0.0190741 -0.0148413 -0.00526316 -0.0106863 -0.0071118 -0.0101961 -0.00653846 -0.0140476 -0.0192857 -0.0131818 0.00282882 -0.00544776 -0.00318182 0.00293257 -0.000952381 0.00315188 0.00239179 -0.00796296 -0.00177966 -0.000555555 0.00271167 -0.000625 -0.00666667 0.00304786 0.00206573 -0.00382353 -0.00981481
internal_weight=1888 1779 109 81 63 190 51 161 102 39 21 35 22 1589 67 55 1572 84 1488 901 27 59 45 874 80 30 794 426 51 27
internal_count=1888 1779 109 81 63 190 51 161 102 39 21 35 22 1589 67 55 1572 84 1488 901 27 59 45 874 80 30 794 426 51 27
is_linear=0
shrinkage=0.05


Tree=7
num_leaves=31
num_cat=0
split_feature=31 16 0 39 46 9 9 10 43 12 2 9 1 0 10 34 15 33 9 0 43 12 43 37 9 33 39 9 0 9
split_gain=23.5976 4.64045 4.15145 1.875 2.31481 1.8588 1.38532 1.31948 1.31273 0.785583 0.806667 0.659933 0.658253 0.70309 0.838679 0.44789 0.430708 0.416777 0.416667 0.403505 0.395681 0.563839 0.6875 1.1 0.533333 0.661172 0.400639 0.342622 0.758315 0.54697
threshold=0.27917543481689067 1.0000000180025095e-35 8.5000000000000018 0.0086877287791754573 0.012021477583914404 23209.500000000004 379.50000000000006 377291008.00000006 -0.015172366605661774 4.5000000000000009 2.5000000000000004 53536.000000000007 1775.5000000000002 17.500000000000004 337816116.00000006 -0.0011935021077745722 1.0000000180025095e-35 0.01477400831577909 32499.000000000004 4.5000000000000009 0.0092295505899720517 11.500000000000002 0.039856666558315858 0.025413677239107101 226095.50000000003 -0.031441770806496093 -0.25065466759768734 336846.50000000006 12.500000000000002 507442.00000000006
decision_type=2 2 2 2 2 2 2 2 2 2 2 2 2 2 2 2 2 2 2 2 2 2 2 2 2 2 2 2 2 2
left_child=2 3 6 4 11 -3 -1 9 -7 10 -8 -2 13 14 17 -11 19 27 -5 -17 26 -22 23 24 25 -23 -15 -4 -29 -30
right_child=1 5 12 18 -6 8 7 -9 -10 15 -12 -13 -14 20 -16 16 -18 -19 -20 -21 21 22 -24 -25 -26 -27 -28 28 29 -31
leaf_value=-0.05790943815867941 -0.035847442230652157 -0.084767601266284132 0.012179013527785876 -0.054777974154194248 -0.064986512563260046 -0.067021848529352876 0.0014040571596706424 -0.049533506088128863 0.0034520513541135473 0.0084339946495639202 -0.061559377335411114 -0.013344265818001558 -0.0049717293238364935 -0.040844361295006279 -0.096403911553916699 -0.071211432003900219 0.17493145785376429 -0.0087210370328547528 -0.16800312923089286 -0.0016845319901091687 0.034401247449393442 -0.03730159245136954 0.053816984736069377 -0.031266120095847484 0.11854841233718877 0.022848568583088282 0.037872128326829423 0.020188885235969723 -0.027183470305813008 0.022370654150761324
leaf_weight=10.999999999999998 16.000000000000004 10.999999999999998 178 15.000000000000002 18 10.999999999999998 10.000000000000002 11.999999999999998 25 23 14.999999999999998 10.999999999999998 9.9999999999999982 17 15.999999999999998 39 15.999999999999998 18 11.999999999999998 63 207 12.999999999999998 25 9.9999999999999982 18 14.000000000000002 1015 19 12.000000000000002 9.9999999999999982
leaf_count=11 16 11 178 15 18 11 10 12 25 23 15 11 10 17 16 39 16 18 12 63 207 13 25 10 18 14 1015 19 12 10
internal_value=0.000502646 -0.0210504 0.00195088 -0.0290278 -0.0227778 -0.00882979 -0.00505291 -0.00398876 -0.00333333 -0.00283133 -0.011 -0.0135185 0.00278761 0.00286896 0.000454546 -0.00138298 -0.00262712 0.00120253 -0.0394444 -0.00382353 0.00333207 0.0016899 -0.001875 -0.005 -0.00166667 -0.00611111 0.00378876 0.00180365 -0.00231707 -0.00863636
internal_weight=1890 119 1771 72 45 47 189 178 36 166 25 27 1582 1572 253 141 118 237 27 102 1319 287 80 55 45 27 1032 219 41 22
internal_count=1890 119 1771 72 45 47 189 178 36 166 25 27 1582 1572 253 141 118 237 27 102 1319 287 80 55 45 27 1032 219 41 22
is_linear=0
shrinkage=0.05


Tree=8
num_leaves=31
num_cat=0
split_feature=32 0 6 16 9 9 0 41 6 38 10 9 41 42 35 37 8 42 0 6 6 9 13 13 40 8 41 9 0 11
split_gain=15.5103 3.49012 5.21376 2.59886 2.6692 2.04509 1.64452 7.55874 2.25641 1.55769 1.42543 1.72756 1.10831 1.00446 0.924038 0.824176 0.777886 0.609025 0.540505 0.919034 0.499042 0.644779 0.438554 0.742998 0.387072 0.465385 0.383085 0.775175 0.659819 0.442179
threshold=-0.067352822863236878 8.5000000000000018 187.50000000000003 1.0000000180025095e-35 23209.500000000004 2083.5000000000005 1142.5000000000002 0.021153482178034876 7.5000000000000009 -0.0047912661216632695 6083466.0000000009 15950.500000000002 0.40425016453815016 0.013126398938098588 -0.082875158971124976 0.0034402451072916575 43875.000000000007 -0.077307077968293822 18.500000000000004 189.50000000000003 10.500000000000002 54328.500000000007 4.5000000000000009 1.5000000000000002 1.0000000180025095e-35 3927.0000000000005 -0.00015768605019638124 23209.500000000004 16.500000000000004 23266264.500000004
decision_type=2 2 2 2 2 2 2 2 2 2 2 2 2 2 2 2 2 2 2 2 2 2 2 2 2 2 2 2 2 2
left_child=3 2 5 9 -5 -2 12 10 -9 14 11 -8 18 -6 -1 -11 20 -14 19 26 -7 -22 23 -23 25 -25 27 -3 -28 -30
right_child=1 6 -4 4 13 16 7 8 -10 15 -12 -13 17 -15 -16 -17 -18 -19 -20 -21 21 22 -24 24 -26 -27 28 -29 29 -31
leaf_value=-0.033684129228320106 -0.061017975635848078 -0.029365604706078376 -0.10786102992544332 -0.080529221403306164 0.0050500796366116183 0.0026253630746387539 0.062213058032178858 -0.052653571794463616 -0.080024948414587294 -0.054076501291574069 0.035520324229871544 -0.086181696419398768 0.0026418978856175101 -0.049601089787884731 -0.14669606473448588 -0.064466338224696426 0.069414274521210795 -0.18080040781142423 0.036691515836815937 -0.15369653913707654 -0.05911601927017849 0.0013365265911655501 0.011613060393006426 -0.010999061783331352 -0.014735111447270409 -0.068023365175831296 0.01660415743122692 0.0035523527241141991 -0.017059177741803946 0.023581307754306169
leaf_weight=16.000000000000004 15.999999999999998 9.9999999999999982 9.9999999999999982 10.999999999999998 18 34 11.000000000000002 11.000000000000002 12.999999999999998 14.000000000000002 142 12.999999999999998 11 13.999999999999998 9.9999999999999982 11.999999999999998 38 12 1155 10.999999999999998 11.999999999999998 33 12.999999999999998 16.000000000000004 10.999999999999998 9.9999999999999982 179 27 17 15.999999999999998
leaf_count=16 16 10 10 11 18 34 11 11 13 14 142 13 11 14 10 12 38 12 1155 11 12 33 13 16 11 10 179 27 17 16
internal_value=0.000485386 0.00151291 -0.00484456 -0.0192105 -0.0101163 -0.0029235 0.00226658 -0.00210526 -0.0283333 -0.0267308 0.00168675 -0.00958333 0.00284423 -0.0028125 -0.0180769 -0.0353846 -0.00128742 -0.00804348 0.0030212 0.000961539 -0.00313953 -0.005 -0.00343373 -0.005 -0.00986486 -0.00653846 0.00158635 -0.00310811 0.00240566 -0.00409091
internal_weight=1916 1821 193 95 43 183 1628 190 24 52 166 24 1438 32 26 26 167 23 1415 260 129 95 83 70 37 26 249 37 212 33
internal_count=1916 1821 193 95 43 183 1628 190 24 52 166 24 1438 32 26 26 167 23 1415 260 129 95 83 70 37 26 249 37 212 33
is_linear=0
shrinkage=0.05


Tree=9
num_leaves=31
num_cat=0
split_feature=31 16 2 6 38 8 9 8 41 31 16 11 40 8 41 8 6 12 32 43 43 9 2 41 8 1 0 0 32 2
split_gain=19.3876 4.76377 3.5704 4.48686 3.2161 3.19268 2.45455 2.40057 1.27394 1.13636 0.843896 0.764878 1.38416 0.70955 0.642055 0.54697 0.486764 1.03027 0.477273 0.37137 0.628126 1.12667 0.421613 0.700962 0.358491 0.904348 0.342984 0.432737 0.606061 0.428253
threshold=0.27917543481689067 1.0000000180025095e-35 5.5000000000000009 187.50000000000003 -0.0047912661216632695 67.500000000000014 23209.500000000004 243.50000000000003 -0.018065177953836279 0.77043223546123096 1.0000000180025095e-35 3262070.0000000005 -0.0081103566858749688 47863.500000000007 0.40425016453815016 8120.0000000000009 10.500000000000002 6.5000000000000009 -0.17486938467406718 0.0092295505899720517 0.01130111675916067 128529.00000000001 13.500000000000002 0.017700721818221122 46279.000000000007 32.500000000000007 19.500000000000004 16.500000000000004 0.0054904575813994284 9.5000000000000018
decision_type=2 2 2 2 2 2 2 2 2 2 2 2 2 2 2 2 2 2 2 2 2 2 2 2 2 2 2 2 2 2
left_child=2 4 3 5 7 10 -3 -2 -7 -9 -1 -6 -13 14 19 -16 -10 -18 -8 26 21 -21 23 -22 -24 -26 27 -4 29 -29
right_child=1 6 13 -5 11 8 18 9 16 -11 -12 12 -14 -15 15 -17 17 -19 -20 20 22 -23 24 -25 25 -27 -28 28 -30 -31
leaf_value=-0.070543946074093686 0.007410297299467134 -0.076502760333140879 0.0062716859716475323 -0.069400962551683168 -0.04925277276976657 -0.088689999860842902 -0.013928043822848221 -0.018746650704054842 0.0077750735584583997 -0.057309114009475796 -0.092199905132002768 -0.050355008443044108 -0.053107646714833326 0.17059150562724887 0.010323290445365478 -0.17280271892585808 -0.014050050786412313 0.0015133999008216466 0.0057085504507942671 -0.033145936403128705 0.011522261408827851 0.013699787389037283 0.036777674514953916 -0.010250268242032515 0.030388730365753347 -0.010315305333176188 0.025951348221609806 -0.14099108746642172 0.04903327550104692 0.011014141583396614
leaf_weight=11.000000000000002 9.9999999999999982 10.999999999999998 141 15.999999999999998 15.999999999999998 15.999999999999998 11.999999999999995 11.000000000000002 70 10.999999999999998 13.999999999999998 14 11 254 12.000000000000002 9.9999999999999982 12.999999999999998 124 21.000000000000004 10.000000000000002 16.000000000000004 14.999999999999998 171 9.9999999999999982 13.000000000000002 9.9999999999999982 804 17 14.999999999999998 15.999999999999998
leaf_count=11 10 11 141 16 16 16 12 11 70 11 14 14 11 254 12 10 13 124 21 10 16 15 171 10 13 10 804 17 15 16
internal_value=0.000356201 -0.019359 0.00165354 -0.00371212 -0.0271918 -0.00205645 -0.00636364 -0.0153125 -0.00015695 -0.0245455 -0.019 -0.0364634 -0.031 0.00258917 0.00210317 -0.00636364 0.00089372 -0.000839416 0.000454546 0.00225364 0.000510204 -0.007 0.00136364 -0.00461538 0.00216495 -0.00369565 0.00268379 0.000767196 -0.00333333 -0.00712121
internal_weight=1895 117 1778 264 73 248 44 32 223 22 25 41 25 1514 1260 22 207 137 33 1238 245 25 220 26 194 23 993 189 48 33
internal_count=1895 117 1778 264 73 248 44 32 223 22 25 41 25 1514 1260 22 207 137 33 1238 245 25 220 26 194 23 993 189 48 33
is_linear=0
shrinkage=0.05


Tree=10
num_leaves=31
num_cat=0
split_feature=31 16 0 6 38 45 37 37 10 6 9 9 1 33 31 6 12 9 6 0 10 10 35 10 40 16 43 34 2 46
split_gain=14.3667 3.35753 2.67647 3.64615 2.46 1.9844 1.22727 1.13636 1.10113 0.956827 1.50134 0.66926 0.635638 0.581818 0.561039 0.431639 0.756984 0.894966 0.41642 0.628798 0.530897 0.543736 0.493262 1.13768 2.38235 0.453711 0.377882 0.488396 0.575359 0.493255
threshold=0.34418505304101671 1.0000000180025095e-35 9.5000000000000018 189.50000000000003 -0.0047912661216632695 -1.0000000180025095e-35 0.033974735387001034 0.0097469862660131967 4658156.0000000009 7.5000000000000009 72576.000000000015 2083.5000000000005 1863.0000000000002 0.096208259898358198 0.0019004300234163731 9.5000000000000018 6.5000000000000009 54328.500000000007 106.50000000000001 23.500000000000004 91154608.500000015 87003591.500000015 -0.048273468489572834 8362321.0000000009 -0.0073797696677267372 1.0000000180025095e-35 0.0092295505899720517 -0.074674162686849441 13.500000000000002 0.033766465771965674
decision_type=2 2 2 2 2 2 2 2 2 2 2 2 2 2 2 2 2 2 2 2 2 2 2 2 2 2 2 2 2 2
left_child=2 4 3 5 6 14 7 -2 -3 -6 -11 -7 18 -10 -1 -13 -17 -18 20 25 21 22 23 24 -4 -20 -24 -28 29 -29
right_child=1 8 12 -5 9 11 -8 -9 13 10 -12 15 -14 -15 -16 16 17 -19 19 -21 -22 -23 26 -25 -26 -27 27 28 -30 -31
leaf_value=-0.059295259931434363 -0.017809317971093922 -0.072677622316483823 0.042780126891408997 -0.093539229268834734 -0.04694375821827302 -0.049658838575479571 0.00053634182311470548 -0.055822949243412884 0.0031966383423553792 -0.043562459889764184 -0.17064053675511237 0.011282786958778305 -0.0037875670547878439 -0.041734744317612531 -0.01872431131651028 -0.034668729453166375 -0.11242059225728807 0.0037292391433215882 -0.013688674559113496 0.017425410180084793 0.065061353083995549 -0.020782627191045306 0.025495569784539419 0.024754239067559219 -0.064826780149916802 -0.16281864921550637 -0.092547037970403714 9.8593010873549561e-05 0.039431567629928534 -0.008306412760144221
leaf_weight=10.000000000000002 11.000000000000002 9.9999999999999982 17 10.999999999999998 14.999999999999998 11.999999999999998 10.999999999999998 10.999999999999998 18 13.000000000000002 9.9999999999999982 57 9.9999999999999982 14.999999999999998 10.999999999999998 14.999999999999998 10.999999999999998 96 20 132 292 10.999999999999998 788 71 17 19 9.9999999999999982 20.000000000000004 122 10.999999999999998
leaf_count=10 11 10 17 11 15 12 11 11 18 13 10 57 10 15 11 15 11 96 20 132 292 11 788 71 17 19 10 20 122 11
internal_value=0.000711242 -0.0164912 0.0018236 -0.00329596 -0.023169 -0.00183962 -0.0131818 -0.02 -0.00546512 -0.0318421 -0.0254348 -0.000235602 0.00256494 -0.00106061 -0.0164286 0.000530726 -0.00114754 0.000327103 0.00264706 0.000321638 0.00293966 0.00242268 0.00253788 -0.000714286 -0.00823529 -0.00525641 0.00289695 0.000705522 0.00140523 -0.00467742
internal_weight=1877 114 1763 223 71 212 33 22 43 38 23 191 1540 33 21 179 122 107 1530 171 1359 1067 1056 105 34 39 951 163 153 31
internal_count=1877 114 1763 223 71 212 33 22 43 38 23 191 1540 33 21 179 122 107 1530 171 1359 1067 1056 105 34 39 951 163 153 31
is_linear=0
shrinkage=0.05


Tree=11
num_leaves=31
num_cat=0
split_feature=31 0 6 8 38 10 38 8 10 46 45 12 6 4 8 10 0 0 35 11 45 31 6 9 12 36 34 39 18 13
split_gain=15.9557 2.60445 4.30663 2.63886 2.35929 1.88017 1.30731 1.21153 2.37128 0.913753 0.898252 0.787879 0.773932 0.731276 0.712178 0.615385 0.594956 0.615385 0.543171 1.28977 1.35 0.510677 0.46578 0.620606 0.45 0.352763 1.03575 0.681953 0.803571 0.865385
threshold=0.34418505304101671 9.5000000000000018 187.50000000000003 67.500000000000014 -0.00093576516948592819 3183874.0000000005 0.0038124765035522147 243.50000000000003 30462044.500000004 -0.0062610179713872473 -1.0000000180025095e-35 7.5000000000000009 127.50000000000001 1.5000000000000002 23576.500000000004 125804265.00000001 20.500000000000004 14.500000000000002 -0.048273468489572834 6406934.0000000009 -0.0078236726715024494 0.07094756713237281 17.500000000000004 76166.500000000015 7.5000000000000009 -0.0010362438073155107 -0.054639109798304199 0.035447046371461247 3.5000000000000004 1.0000000180025095e-35
decision_type=2 2 2 2 2 2 2 2 2 2 2 2 2 2 2 2 2 2 2 2 2 2 2 2 2 2 2 2 2 2
left_child=1 2 3 -1 7 -6 -7 11 9 -9 -5 -2 14 16 18 -10 17 -14 19 20 -3 -21 -12 -24 -22 -20 -27 -28 -29 -30
right_child=4 12 -4 10 5 6 -8 8 15 -11 22 -13 13 -15 -16 -17 -18 -19 25 21 24 -23 23 -25 -26 26 27 28 29 -31
leaf_value=-0.1170490205503073 -0.027516488140978984 0.057211015511418807 -0.083340604836445842 -0.049979553220436276 -0.043036530448233586 -0.050648102465602009 -0.014527519992919929 -0.069043741200659633 0.002503945693871744 -0.053031801793176736 0.0088508771155160881 0.0085737454777202581 0.0046834567780831161 -0.0073045866009256687 0.10581085245023125 -0.013482268349165719 0.016967203090258294 -0.15493623297677714 0.029003338250451999 -0.01563426732541226 -0.013113278105104334 0.018400115984087324 -0.044334839562158251 0.00015581838889352058 -0.039017341442588192 -0.097562057395035734 0.02182852110073584 0.080511774644216549 0.015924289732719987 -0.067262105904825342
leaf_weight=18 11.000000000000002 10.000000000000002 11.999999999999998 20 14.999999999999998 11.000000000000002 11.999999999999998 13.000000000000002 13.000000000000002 10.999999999999998 71 12.999999999999998 13.000000000000002 14.999999999999998 321 12.999999999999998 86 12.999999999999998 271 11.999999999999998 10.000000000000002 73 11.999999999999998 88 9.9999999999999982 15.999999999999998 616 20 9.9999999999999982 26
leaf_count=18 11 10 12 20 15 11 12 13 13 11 71 13 13 15 321 13 86 13 271 12 10 73 12 88 10 16 616 20 10 26
internal_value=0.000525607 0.00170109 -0.00337104 -0.00169856 -0.0177679 -0.0278947 -0.018913 -0.0125676 -0.017 -0.0283333 2.61782e-05 -0.00333333 0.00243758 -0.00129921 0.00277778 -0.00653846 8.92859e-05 -0.00653846 0.00216015 -0.00108696 -0.01 0.00205882 0.00119883 -0.001 -0.0175 0.00254953 0.00194767 0.00224702 -0.00303571 -0.0075
internal_weight=1855 1743 221 209 112 38 23 74 50 24 191 24 1522 127 1395 26 112 26 1074 115 30 85 171 100 20 959 688 672 56 36
internal_count=1855 1743 221 209 112 38 23 74 50 24 191 24 1522 127 1395 26 112 26 1074 115 30 85 171 100 20 959 688 672 56 36
is_linear=0
shrinkage=0.05


Tree=12
num_leaves=31
num_cat=0
split_feature=31 16 38 37 6 2 2 6 33 9 9 8 43 38 39 37 35 6 6 9 12 12 37 41 8 8 33 35 6 1
split_gain=16.6792 4.35479 2.19342 1.5029 1.49674 1.9025 1.407 2.72895 1.65592 1.16932 1.03941 0.592078 0.656231 0.881172 1.24774 1.44986 0.717949 0.538972 0.636618 0.527472 0.490375 0.479348 0.532822 0.426774 0.407029 0.555556 0.381963 0.378151 0.37507 0.781926
threshold=0.34418505304101671 1.0000000180025095e-35 -0.0047912661216632695 0.033974735387001034 7.5000000000000009 143.50000000000003 9.5000000000000018 198.50000000000003 0.001755542020593452 23209.500000000004 379.50000000000006 47863.500000000007 0.0029730159083880842 0.0091684958658098687 -0.006033187560552794 0.0044829426360225586 -0.024253272301280934 42.500000000000007 46.500000000000007 87330.000000000015 5.5000000000000009 12.500000000000002 0.081634112149032115 0.018621027059319516 67.500000000000014 36.000000000000007 0.096208259898358198 0.0026698527423647932 137.50000000000003 2.5000000000000004
decision_type=2 2 2 2 2 2 2 2 2 2 2 2 2 2 2 2 2 2 2 2 2 2 2 2 2 2 2 2 2 2
left_child=6 2 3 -2 -4 -6 7 8 10 -3 -1 12 28 21 15 -15 -17 24 -19 -10 -20 -14 27 -16 25 -12 -11 -23 -8 -30
right_child=1 9 4 -5 5 -7 11 -9 19 26 17 -13 13 14 23 16 -18 18 20 -21 -22 22 -24 -25 -26 -27 -28 -29 29 -31
leaf_value=-0.039272630076818443 -0.066874032601245526 -0.06589466241284557 -0.040565556246240732 0.0022037051288727356 -0.16194020004877074 -0.032218013177656595 0.024331028052546541 -0.079173574594623541 -0.01476392244480079 0.0016271967332648037 0.0064630308765189536 0.15672101589060797 0.028503350565204724 -0.18002644029170878 0.024100562464226094 -0.029317640129401454 0.052932175555664054 -0.10214684552036933 -0.049626845008343308 -0.084837746771952341 0.0007594519980672898 0.050241583674368664 -0.024022134587913413 -0.021028279718439454 0.0065108253107097032 -0.0047870079179193788 -0.0078845608429998718 -0.0062703042285624788 -0.15380455131088935 0.024760573212573952
leaf_weight=19 19.000000000000004 9.9999999999999982 17 9.9999999999999982 11.000000000000002 11.999999999999998 681 11.999999999999998 12.000000000000002 16.000000000000004 18.000000000000004 203 184 17 50 12.000000000000002 13.999999999999998 10.999999999999998 13.999999999999998 13.999999999999998 94 20 11.999999999999998 11.999999999999998 293 11.999999999999998 12.999999999999998 13.999999999999998 10.999999999999998 24
leaf_count=19 19 10 17 10 11 12 681 12 12 16 18 203 184 17 50 12 14 11 14 14 94 20 12 12 293 12 13 14 11 24
internal_value=0.000459431 -0.0186111 -0.0261594 -0.0156897 -0.03375 -0.0254348 0.00163434 -0.000611222 -3.08006e-05 -0.00525641 0.000661605 0.00252791 0.00205043 0.000223881 -0.00357143 -0.0101163 -0.00269231 0.00115385 -0.00172269 -0.0123077 -0.000555555 0.00195652 -0.0026087 0.000967742 0.00221362 -0.00333333 -0.000172414 0.000588235 0.00290503 -0.00214286
internal_weight=1861 108 69 29 40 23 1753 499 487 39 461 1254 1051 335 105 43 26 442 119 26 108 230 46 62 323 30 29 34 716 35
internal_count=1861 108 69 29 40 23 1753 499 487 39 461 1254 1051 335 105 43 26 442 119 26 108 230 46 62 323 30 29 34 716 35
is_linear=0
shrinkage=0.05


Tree=13
num_leaves=31
num_cat=0
split_feature=31 10 31 0 6 44 6 9 6 13 8 6 8 6 33 10 8 12 8 39 35 4 0 41 38 42 38 45 18 42
split_gain=11.5193 2.99501 2.22222 1.93293 3.17619 1.61477 1.79571 1.53939 1.12027 1.08871 0.722875 0.717747 0.535714 0.577444 0.659064 0.657088 0.530303 0.529781 0.8 0.527858 0.934733 1.56277 0.911441 0.480944 0.478267 0.446777 0.736634 1.05335 0.876623 0.483345
threshold=0.34418505304101671 4421837.0000000009 0.70353896088005052 9.5000000000000018 187.50000000000003 0.0066488349200605592 33.500000000000007 2083.5000000000005 8.5000000000000018 1.5000000000000002 47863.500000000007 9.5000000000000018 40631.500000000007 97.500000000000014 -0.0015849582705433991 59484267.000000007 421.50000000000006 9.5000000000000018 609.50000000000011 -0.013207366141898295 -0.058339958485458053 11.500000000000002 14.500000000000002 0.40425016453815016 0.034226100045408304 0.0094416290247480595 0.012222028837413504 0.058458226400301717 3.5000000000000004 0.084872021885619084
decision_type=2 2 2 2 2 2 2 2 2 2 2 2 2 2 2 2 2 2 2 2 2 2 2 2 2 2 2 2 2 2
left_child=3 2 -2 4 7 6 8 -1 -3 -8 19 -9 13 14 -13 17 -10 -16 -19 22 21 -21 -5 -22 25 26 27 -24 -28 -27
right_child=1 5 -4 10 -6 -7 9 11 16 -11 -12 12 -14 -15 15 -17 -18 18 -20 20 23 -23 24 -25 -26 29 28 -29 -30 -31
leaf_value=-0.040068696778374942 -0.038838576809338873 -0.014652545839915713 -0.04697236522718392 -0.013912978616297783 -0.086195259866591781 0.0068138776078813584 -0.034103249620911574 0.010129736164376527 -0.044856622416870294 0.001501344255712815 0.14888496509607757 0.016600023518128081 0.013654233764046612 -0.053329103096035418 -0.053126604260644895 0.0049565206935915903 -0.058208283359929426 -0.053016099874979142 0.0082325790953970517 -0.0070477815357142294 0.022604083820495779 0.021391492801359546 0.012080238177856549 -0.085177796209281842 -0.09230012791943118 0.032297366582880842 0.031730975262003434 -0.06892230128056967 -0.10329207109860075 -0.0012541473922211216
leaf_weight=17 18.000000000000004 10.999999999999998 11.999999999999998 14.999999999999998 9.9999999999999982 14.999999999999998 16.000000000000004 54 11.000000000000002 14.999999999999998 249 23 35 9.9999999999999982 22 13.999999999999998 9.9999999999999982 20 15.999999999999998 11.999999999999998 909 21 116 21 15.999999999999998 150 11.000000000000002 14.999999999999998 9.9999999999999982 13.999999999999998
leaf_count=17 18 11 12 15 10 15 16 54 11 15 249 23 35 10 22 14 10 20 16 12 909 21 116 21 16 150 11 15 10 14
internal_value=0.000948093 -0.0149074 -0.0283333 0.00191011 -0.00246606 -0.00974359 -0.013254 -0.00116114 -0.0215625 -0.00467742 0.00253047 0.000103093 -0.00178571 -0.00357143 -0.00236842 -0.00472222 -0.0283333 -0.00706897 -0.00333333 0.00206107 0.00266355 -0.00560606 0.000389049 0.00295699 0.000933735 0.00136076 -0.000592105 0.000801527 -0.00928571 0.00317073
internal_weight=1888 108 30 1780 221 78 63 211 32 31 1559 194 140 105 95 72 21 58 36 1310 963 33 347 930 332 316 152 131 21 164
internal_count=1888 108 30 1780 221 78 63 211 32 31 1559 194 140 105 95 72 21 58 36 1310 963 33 347 930 332 316 152 131 21 164
is_linear=0
shrinkage=0.05


Tree=14
num_leaves=31
num_cat=0
split_feature=32 0 6 9 9 37 2 37 2 41 6 12 0 41 8 10 9 8 2 8 14 34 2 9 9 2 12 0 38 40
split_gain=8.94493 2.21046 2.9741 1.91232 1.63299 2.07424 1.88431 2.54376 1.23657 6.31313 2.07424 1.01042 0.904773 0.748579 0.889292 0.710776 1.26984 0.685301 0.544608 0.934273 1.16308 0.537798 0.524802 0.496032 1.07456 0.612874 0.452308 0.373442 0.662677 0.952478
threshold=-0.067352822863236878 8.5000000000000018 175.50000000000003 761.00000000000011 92876.500000000015 0.033974735387001034 142.50000000000003 0.0044829426360225586 246.00000000000003 0.02330041180424532 7.5000000000000009 3.5000000000000004 533.00000000000011 -0.0028462364968266265 8120.0000000000009 8194651.5000000009 23938.000000000004 47863.500000000007 16.500000000000004 44332.500000000007 1.0000000180025095e-35 -0.045740741934077019 50.500000000000007 31138.000000000004 79854.500000000015 29.500000000000004 9.5000000000000018 28.500000000000004 -0.00051645575764380422 -0.0011382649709076546
decision_type=2 2 2 2 2 2 2 2 2 2 2 2 2 2 2 2 2 2 2 2 2 2 2 2 2 2 2 2 2 2
left_child=4 2 3 -2 5 6 -1 -8 17 15 -11 -5 -6 14 -13 16 -10 18 19 27 -21 22 23 -20 -25 -26 -22 -3 -29 -30
right_child=1 8 -4 11 12 -7 7 -9 9 10 -12 13 -14 -15 -16 -17 -18 -19 21 20 26 -23 -24 24 25 -27 -28 28 29 -31
leaf_value=-0.059948202758625183 -0.046344356555648496 0.0076996570374764156 -0.026731829942777497 -0.083101528076545542 -0.056409565600887626 0.0037835568812500764 -0.040743846638152184 -0.027263666692705281 0.0028718753882866622 -0.036558531154112471 -0.010864969028632982 -0.052322085519380002 0.0015597549655934715 0.0025947396066453329 0.01445142433886118 0.029185142443638446 -0.086374448978439211 0.14144071684127368 0.0276500892832118 0.014338291524405411 -0.14639755690202932 0.038866896216142942 0.010771621005064035 -0.039943737752985313 -0.040434570191818835 0.022897909625434264 -0.0010393367980947525 0.022838754263514661 -0.13863758351146471 -0.00070432703765542981
leaf_weight=14.999999999999998 10.999999999999998 375 9.9999999999999982 12.999999999999998 19 10.999999999999998 19 14.999999999999998 18.000000000000004 12.000000000000002 9.9999999999999982 19.000000000000004 18 139 9.9999999999999982 148 9.9999999999999982 255 14.999999999999998 13.999999999999998 12.000000000000002 478 112 9.9999999999999982 12.999999999999998 25 12.999999999999998 27 10.999999999999998 47
leaf_count=15 11 375 10 13 19 11 19 15 18 12 10 19 18 139 10 148 10 255 15 14 12 478 112 10 13 25 13 27 11 47
internal_value=0.000719538 0.00151356 -0.00341584 -0.00203125 -0.0140722 -0.0191667 -0.0235714 -0.0170588 0.00213396 -0.00156566 -0.0268182 -0.000801105 -0.00581081 0.000238095 -0.00706897 0.00159091 -0.00571429 0.00265458 0.00213542 0.000891784 -0.00653846 0.00308576 0.000714286 -0.00293651 -0.00541667 -0.00157895 -0.013 0.00152174 -0.00147059 -0.00448276
internal_weight=1904 1807 202 192 97 60 49 34 1605 198 22 181 37 168 29 176 28 1407 1152 499 39 653 175 63 48 38 25 460 85 58
internal_count=1904 1807 202 192 97 60 49 34 1605 198 22 181 37 168 29 176 28 1407 1152 499 39 653 175 63 48 38 25 460 85 58
is_linear=0
shrinkage=0.05


end of trees

feature_importances:
Column_6=52
Column_8=46
Column_9=35
Column_0=32
Column_2=24
Column_10=24
Column_12=21
Column_31=18
Column_41=17
Column_16=16
Column_13=15
Column_42=14
Column_45=13
Column_38=12
Column_33=11
Column_35=11
Column_37=11
Column_40=10
Column_1=9
Column_32=9
Column_43=8
Column_39=7
Column_44=6
Column_46=6
Column_11=5
Column_34=5
Column_18=3
Column_19=3
Column_36=3
Column_4=2
Column_14=1
Column_15=1

parameters:
[boosting: gbdt]
[objective: quantile]
[metric: quantile]
[tree_learner: serial]
[device_type: cpu]
[data_sample_strategy: bagging]
[data: ]
[valid: ]
[num_iterations: 200]
[learning_rate: 0.05]
[num_leaves: 31]
[num_threads: 0]
[seed: 0]
[deterministic: 0]
[force_col_wise: 0]
[force_row_wise: 0]
[histogram_pool_size: -1]
[max_depth: -1]
[min_data_in_leaf: 10]
[min_sum_hessian_in_leaf: 0.001]
[bagging_fraction: 0.85]
[pos_bagging_fraction: 1]
[neg_bagging_fraction: 1]
[bagging_freq: 1]
[bagging_seed: 3]
[bagging_by_query: 0]
[feature_fraction: 0.85]
[feature_fraction_bynode: 1]
[feature_fraction_seed: 2]
[extra_trees: 0]
[extra_seed: 6]
[early_stopping_round: 0]
[early_stopping_min_delta: 0]
[first_metric_only: 0]
[max_delta_step: 0]
[lambda_l1: 0]
[lambda_l2: 0]
[linear_lambda: 0]
[min_gain_to_split: 0]
[drop_rate: 0.1]
[max_drop: 50]
[skip_drop: 0.5]
[xgboost_dart_mode: 0]
[uniform_drop: 0]
[drop_seed: 4]
[top_rate: 0.2]
[other_rate: 0.1]
[min_data_per_group: 100]
[max_cat_threshold: 32]
[cat_l2: 10]
[cat_smooth: 10]
[max_cat_to_onehot: 4]
[top_k: 20]
[monotone_constraints: ]
[monotone_constraints_method: basic]
[monotone_penalty: 0]
[feature_contri: ]
[forcedsplits_filename: ]
[refit_decay_rate: 0.9]
[cegb_tradeoff: 1]
[cegb_penalty_split: 0]
[cegb_penalty_feature_lazy: ]
[cegb_penalty_feature_coupled: ]
[path_smooth: 0]
[interaction_constraints: ]
[verbosity: -1]
[saved_feature_importance_type: 0]
[use_quantized_grad: 0]
[num_grad_quant_bins: 4]
[quant_train_renew_leaf: 0]
[stochastic_rounding: 1]
[linear_tree: 0]
[max_bin: 255]
[max_bin_by_feature: ]
[min_data_in_bin: 3]
[bin_construct_sample_cnt: 200000]
[data_random_seed: 1]
[is_enable_sparse: 1]
[enable_bundle: 1]
[use_missing: 1]
[zero_as_missing: 0]
[feature_pre_filter: 1]
[pre_partition: 0]
[two_round: 0]
[header: 0]
[label_column: ]
[weight_column: ]
[group_column: ]
[ignore_column: ]
[categorical_feature: ]
[forcedbins_filename: ]
[precise_float_parser: 0]
[parser_config_file: ]
[objective_seed: 5]
[num_class: 1]
[is_unbalance: 0]
[scale_pos_weight: 1]
[sigmoid: 1]
[boost_from_average: 1]
[reg_sqrt: 0]
[alpha: 0.1]
[fair_c: 1]
[poisson_max_delta_step: 0.7]
[tweedie_variance_power: 1.5]
[lambdarank_truncation_level: 30]
[lambdarank_norm: 1]
[label_gain: ]
[lambdarank_position_bias_regularization: 0]
[eval_at: ]
[multi_error_top_k: 1]
[auc_mu_weights: ]
[num_machines: 1]
[local_listen_port: 12400]
[time_out: 120]
[machine_list_filename: ]
[machines: ]
[gpu_platform_id: -1]
[gpu_device_id: -1]
[gpu_use_dp: 0]
[num_gpu: 1]

end of parameters

pandas_categorical:null
