tree
version=v4
num_class=1
num_tree_per_iteration=1
label_index=0
max_feature_idx=17
objective=quantile
feature_names=Column_0 Column_1 Column_2 Column_3 Column_4 Column_5 Column_6 Column_7 Column_8 Column_9 Column_10 Column_11 Column_12 Column_13 Column_14 Column_15 Column_16 Column_17
feature_infos=[1:419128] [1:10338] [1:105057] [0:1] [0:800] none [0:250] [0:1] [0:976023576] [0:6526440] [0:951432192] [0:982550016] [1:18] [0:6] [0:1] [0:1] [-1:6] none
tree_sizes=2489 2414

Tree=0
num_leaves=31
num_cat=0
split_feature=8 1 2 9 9 11 2 9 16 12 10 2 10 9 9 12 1 13 13 13 14 8 1 1 8 2 10 12 9 11
split_gain=13.5262 12.0667 14.8398 6.64856 3.33597 4.85565 3.47204 3.30966 3.26818 2.24606 2.24382 1.8544 1.78773 1.82087 1.5989 1.48603 1.74331 1.36236 2.47475 1.34029 1.31187 1.61668 1.29342 2.64606 1.72596 1.19536 1.18893 1.05866 1.00679 1.16377
threshold=941104.50000000012 10.500000000000002 13.500000000000002 102546.00000000001 1865.0000000000002 4927496.5000000009 2815.5000000000005 473193.00000000006 1.0000000180025095e-35 3.5000000000000004 298773750.00000006 5.5000000000000009 29081777.500000004 125074.50000000001 26245.500000000004 9.5000000000000018 320.50000000000006 3.5000000000000004 2.5000000000000004 1.0000000180025095e-35 1.0000000180025095e-35 2255.0000000000005 22.500000000000004 25.500000000000004 2255.0000000000005 9.5000000000000018 1723776.5000000002 11.500000000000002 63220.500000000007 18703342.500000004
decision_type=2 2 2 2 2 2 2 2 2 2 2 2 2 2 2 2 2 2 2 2 2 2 2 2 2 2 2 2 2 2
left_child=1 2 7 4 -3 14 9 12 10 -7 -9 -12 13 19 17 -5 27 18 26 -1 -21 25 24 -24 -11 28 -6 -17 29 -22
right_child=-2 3 -4 15 5 6 -8 8 -10 22 11 -13 -14 -15 -16 16 -18 -19 -20 20 21 -23 23 -25 -26 -27 -28 -29 -30 -31
leaf_value=0 0.1609437942504883 0 0.03465735912322998 0 0 0 0.034657359727420102 0.03465735912322998 0 0.03465735912322998 0 0 0 0 0 0 0.083505998171337484 0 0.0054930624428939367 0 0 0 0 0 0 0.03465735912322998 0 0 0.017328680852702227 0
leaf_weight=46 231 36 547 108 20 17 21 15.999999999999998 23 21.000000000000004 14.000000000000002 11.999999999999998 178 12.999999999999998 22 41 18 12.999999999999998 11.999999999999998 73 85 65 21 98 9.9999999999999982 36 12.999999999999998 39 26 12.999999999999998
leaf_count=46 231 36 547 108 20 17 21 16 23 21 14 12 178 13 22 41 18 13 12 73 85 65 21 98 10 36 13 39 26 13
internal_value=-0.00633475 -0.00791491 -0.00506975 -0.0143137 -0.0190132 -0.0209328 -0.0165426 -0.0105 -0.0211538 -0.0189521 -0.0128571 -0.0219231 -0.00920561 -0.0112465 -0.03125 -0.00737864 -0.0118367 -0.0268966 -0.0227778 -0.0105523 -0.0117785 -0.00988889 -0.017 -0.0193697 -0.00790323 -0.0071875 -0.0298485 -0.015 -0.00951613 -0.0118367
internal_weight=1888 1657 1147 510 304 268 188 600 65 167 42 26 535 357 80 206 98 58 45 344 298 225 150 119 31 160 33 80 124 98
internal_count=1888 1657 1147 510 304 268 188 600 65 167 42 26 535 357 80 206 98 58 45 344 298 225 150 119 31 160 33 80 124 98
is_linear=0
shrinkage=0.05


Tree=1
num_leaves=31
num_cat=0
split_feature=8 1 2 9 2 1 8 9 9 6 6 11 10 2 14 16 6 13 1 12 1 6 10 11 10 1 2 8 2 16
split_gain=12.2858 11.9785 13.7722 5.57165 4.48382 2.28565 2.22959 2.03386 2.39445 1.83149 1.68351 1.58824 1.58684 1.48066 1.6993 1.49538 1.54286 1.47671 1.4048 2.00532 1.35839 1.35417 1.84143 2.56538 1.63106 1.4026 1.31303 1.29029 1.2684 1.24871
threshold=941104.50000000012 15.500000000000002 10.500000000000002 102546.00000000001 636.50000000000011 10.500000000000002 36.000000000000007 5760.0000000000009 26245.500000000004 94.500000000000014 45.500000000000007 6406934.0000000009 10322046.000000002 16.500000000000004 1.0000000180025095e-35 1.0000000180025095e-35 18.500000000000004 3.5000000000000004 303.00000000000006 10.500000000000002 25.500000000000004 22.500000000000004 9651617.5000000019 9396238.5000000019 25843046.000000004 1.5000000000000002 29.500000000000004 67.500000000000014 5.5000000000000009 1.0000000180025095e-35
decision_type=2 2 2 2 2 2 2 2 2 2 2 2 2 2 2 2 2 2 2 2 2 2 2 2 2 2 2 2 2 2
left_child=1 2 9 4 6 13 -3 -8 17 10 21 -6 -10 14 15 16 -4 -9 19 -5 -14 22 23 27 25 -23 -7 28 -1 -11
right_child=-2 3 5 18 11 26 7 8 12 29 -12 -13 20 -15 -16 -17 -18 -19 -20 -21 -22 24 -24 -25 -26 -27 -28 -29 -30 -31
leaf_value=0 0.14417893648147584 0 -0.0012130075357447813 0 0 -0.0015595811321414299 0 0 0 0 0 0 0 0.032924491167068484 0.019754700881966781 0 -0.0017328679561614991 0 0.0034657385461409618 0 0 0 0 0 0 0 0 0 0 0
leaf_weight=27 233 20 14.000000000000002 80 17 11.999999999999998 11.999999999999998 31 41 46 71 51 24 462 127 26 9.9999999999999982 9.9999999999999982 52 49 46 21 92 10.999999999999998 58 11.999999999999998 51 90 25 37
leaf_count=27 233 20 14 80 17 12 12 31 41 46 71 51 24 462 127 26 10 10 52 49 46 21 92 11 58 12 51 90 25 37
internal_value=-0.00573735 -0.00727692 -0.0046896 -0.0143995 -0.0192063 -0.00019943 -0.0232609 -0.0251829 -0.0236184 -0.0111224 -0.00974201 -0.00823529 -0.0274324 0.000696401 -0.00319209 -0.011 -0.02 -0.0132927 -0.00770718 -0.0105039 -0.0228571 -0.0112202 -0.00928571 -0.0126471 -0.0164286 -0.025303 -0.00928571 -0.0108451 -0.0171154 -0.0178916
internal_weight=1858 1625 1192 433 252 702 184 164 152 490 407 68 111 639 177 50 24 41 181 129 70 336 245 153 91 33 63 142 52 83
internal_count=1858 1625 1192 433 252 702 184 164 152 490 407 68 111 639 177 50 24 41 181 129 70 336 245 153 91 33 63 142 52 83
is_linear=0
shrinkage=0.05


end of trees

feature_importances:
Column_1=9
Column_2=9
Column_9=9
Column_8=6
Column_10=6
Column_6=4
Column_11=4
Column_12=4
Column_13=4
Column_16=3
Column_14=2

parameters:
[boosting: gbdt]
[objective: quantile]
[metric: quantile]
[tree_learner: serial]
[device_type: cpu]
[data_sample_strategy: bagging]
[data: ]
[valid: ]
[num_iterations: 120]
[learning_rate: 0.05]
[num_leaves: 31]
[num_threads: 0]
[seed: 0]
[deterministic: 0]
[force_col_wise: 0]
[force_row_wise: 0]
[histogram_pool_size: -1]
[max_depth: -1]
[min_data_in_leaf: 10]
[min_sum_hessian_in_leaf: 0.001]
[bagging_fraction: 0.85]
[pos_bagging_fraction: 1]
[neg_bagging_fraction: 1]
[bagging_freq: 1]
[bagging_seed: 3]
[bagging_by_query: 0]
[feature_fraction: 0.85]
[feature_fraction_bynode: 1]
[feature_fraction_seed: 2]
[extra_trees: 0]
[extra_seed: 6]
[early_stopping_round: 0]
[early_stopping_min_delta: 0]
[first_metric_only: 0]
[max_delta_step: 0]
[lambda_l1: 0]
[lambda_l2: 0]
[linear_lambda: 0]
[min_gain_to_split: 0]
[drop_rate: 0.1]
[max_drop: 50]
[skip_drop: 0.5]
[xgboost_dart_mode: 0]
[uniform_drop: 0]
[drop_seed: 4]
[top_rate: 0.2]
[other_rate: 0.1]
[min_data_per_group: 100]
[max_cat_threshold: 32]
[cat_l2: 10]
[cat_smooth: 10]
[max_cat_to_onehot: 4]
[top_k: 20]
[monotone_constraints: ]
[monotone_constraints_method: basic]
[monotone_penalty: 0]
[feature_contri: ]
[forcedsplits_filename: ]
[refit_decay_rate: 0.9]
[cegb_tradeoff: 1]
[cegb_penalty_split: 0]
[cegb_penalty_feature_lazy: ]
[cegb_penalty_feature_coupled: ]
[path_smooth: 0]
[interaction_constraints: ]
[verbosity: -1]
[saved_feature_importance_type: 0]
[use_quantized_grad: 0]
[num_grad_quant_bins: 4]
[quant_train_renew_leaf: 0]
[stochastic_rounding: 1]
[linear_tree: 0]
[max_bin: 255]
[max_bin_by_feature: ]
[min_data_in_bin: 3]
[bin_construct_sample_cnt: 200000]
[data_random_seed: 1]
[is_enable_sparse: 1]
[enable_bundle: 1]
[use_missing: 1]
[zero_as_missing: 0]
[feature_pre_filter: 1]
[pre_partition: 0]
[two_round: 0]
[header: 0]
[label_column: ]
[weight_column: ]
[group_column: ]
[ignore_column: ]
[categorical_feature: ]
[forcedbins_filename: ]
[precise_float_parser: 0]
[parser_config_file: ]
[objective_seed: 5]
[num_class: 1]
[is_unbalance: 0]
[scale_pos_weight: 1]
[sigmoid: 1]
[boost_from_average: 1]
[reg_sqrt: 0]
[alpha: 0.1]
[fair_c: 1]
[poisson_max_delta_step: 0.7]
[tweedie_variance_power: 1.5]
[lambdarank_truncation_level: 30]
[lambdarank_norm: 1]
[label_gain: ]
[lambdarank_position_bias_regularization: 0]
[eval_at: ]
[multi_error_top_k: 1]
[auc_mu_weights: ]
[num_machines: 1]
[local_listen_port: 12400]
[time_out: 120]
[machine_list_filename: ]
[machines: ]
[gpu_platform_id: -1]
[gpu_device_id: -1]
[gpu_use_dp: 0]
[num_gpu: 1]

end of parameters

pandas_categorical:null
