tree
version=v4
num_class=1
num_tree_per_iteration=1
label_index=0
max_feature_idx=46
objective=quantile
feature_names=Column_0 Column_1 Column_2 Column_3 Column_4 Column_5 Column_6 Column_7 Column_8 Column_9 Column_10 Column_11 Column_12 Column_13 Column_14 Column_15 Column_16 Column_17 Column_18 Column_19 Column_20 Column_21 Column_22 Column_23 Column_24 Column_25 Column_26 Column_27 Column_28 Column_29 Column_30 Column_31 Column_32 Column_33 Column_34 Column_35 Column_36 Column_37 Column_38 Column_39 Column_40 Column_41 Column_42 Column_43 Column_44 Column_45 Column_46
feature_infos=[1:419128] [1:10338] [1:105057] [0:1] [0:800] none [0:250] [0:1] [0:976023576] [0:6526440] [0:951432192] [0:982550016] [1:18] [0:6] [0:1] [0:1] [-1:6] none [0:5] [0:1] [0:1] [0:1] [0:1] [0:1] [0:1] [0:1] [0:1] [0:1] [0:1] [0:1] [0:1] [0:0.88661587149556698] [-0.21174932009488154:0.60552586045175072] [-0.49767089837333339:0.72933988251314252] [-0.21845551685773659:0.8497808874976629] [-0.14635787270554371:0.86530565242711155] [-0.0095105158173862878:0.9992211747005213] [-0.18376535312841397:0.75561688545303729] [-0.74065557590248576:0.4009934048714639] [-0.36854671518786891:0.45727736707654859] [-0.52464986523451362:0.61371751120103912] [-0.15084502832183419:0.78114462520581895] [-0.36208512478133126:0.54324896712804882] [-0.17574111057125183:0.89635337767906353] [-0.24121947486762466:0.4763947487018102] [-0.4129042787730311:0.32995157863203972] [-0.25200364852179286:0.55703542188154131]
tree_sizes=2544 2606 2848 2690 2757 2863 2996 3080 3120 3179 3032 3139 3044 3075 3191 3110

Tree=0
num_leaves=31
num_cat=0
split_feature=31 8 2 1 16 18 9 32 10 38 32 36 10 6 38 6 6 35 42 11 6 12 2 14 40 12 40 35 8 38
split_gain=24.8526 10.3844 7.72254 9.61846 5.45543 5.13271 3.52129 3.41294 2.75307 2.69302 2.50866 4.93502 2.16005 2.05198 2.00201 1.80492 2.14609 1.76087 2.49308 1.67656 3.49894 1.60498 1.56261 2.11713 2.63433 1.52856 2.035 2.08939 1.88316 1.42917
threshold=0.27917543481689067 941104.50000000012 10.500000000000002 10.500000000000002 1.0000000180025095e-35 3.5000000000000004 473193.00000000006 0.030483755846777798 4658156.0000000009 -0.023359501571036331 0.0075887010291462911 0.00045466578563156337 11831569.000000002 1.0000000180025095e-35 -0.010518064605109637 155.50000000000003 187.50000000000003 -0.028657852223528384 0.057772814770641556 32728840.000000004 21.500000000000004 14.500000000000002 15.500000000000002 1.0000000180025095e-35 0.00069864548305118251 8.5000000000000018 -0.031584936578441476 -0.04077561119155431 2255.0000000000005 -0.0068739334355974535
decision_type=2 2 2 2 2 2 2 2 2 2 2 2 2 2 2 2 2 2 2 2 2 2 2 2 2 2 2 2 2 2
left_child=1 2 6 22 14 12 10 15 -6 17 11 19 13 -5 -2 -8 -17 18 -7 20 -1 -14 23 24 -4 28 -27 -28 -11 -10
right_child=4 -3 3 5 8 9 7 -9 29 25 -12 -13 21 -15 -16 16 -18 -19 -20 -21 -22 -23 -24 -25 -26 26 27 -29 -30 -31
leaf_value=0 0 0.1609437942504883 0 0.054930615425109866 0 0 0 0.03465735912322998 0.03465735912322998 0 0 0 0 0 0 5.1643489484831662e-10 0 0.054930615425109866 0.03465735912322998 0 0 0 0.03465735912322998 0 0 0 0 0 0 0
leaf_weight=183 10.999999999999998 231 23 15.999999999999998 10.999999999999998 12.000000000000002 17 11.999999999999998 13.999999999999998 20 104 10.999999999999998 155 46 61 11.000000000000002 19 23 10.999999999999998 103 37 26 490 108 27 20 13.999999999999998 33 23 16.000000000000004
leaf_count=183 11 231 23 16 11 12 17 12 14 20 104 11 155 46 61 11 19 23 11 103 37 26 490 108 27 20 14 33 23 16
internal_value=-0.00633475 -0.00488732 -0.00636658 -0.00393028 -0.0290708 -0.0100376 -0.011499 -0.0229661 -0.0145122 -0.0171154 -0.00995434 -0.0120659 -0.00549383 -0.0135484 -0.0373611 -0.0290426 -0.0216667 -0.00695652 -0.0167391 -0.0109443 -0.0134091 -0.00273481 -0.000169753 -0.00449367 -0.013 -0.0213636 -0.0166418 -0.0109574 -0.0287209 -0.00666667
internal_weight=1888 1775 1544 1047 113 399 497 59 41 156 438 334 243 62 72 47 30 46 23 323 220 181 648 158 50 110 67 47 43 30
internal_count=1888 1775 1544 1047 113 399 497 59 41 156 438 334 243 62 72 47 30 46 23 323 220 181 648 158 50 110 67 47 43 30
is_linear=0
shrinkage=0.05


Tree=1
num_leaves=31
num_cat=0
split_feature=0 18 2 37 1 9 44 18 2 33 45 16 37 45 39 35 13 9 10 12 45 43 2 33 12 41 2 12 41 13
split_gain=10.3375 9.69012 9.47801 8.88899 5.36664 5.39873 4.30172 3.94837 3.79012 3.48312 3.23513 3.89751 2.77333 2.70525 3.40433 2.76923 2.21854 2.18013 1.8544 1.46295 1.92123 1.8 1.37696 1.28571 2.13404 1.96195 1.23351 1.50057 1.90382 1.14405
threshold=501.00000000000006 3.5000000000000004 10.500000000000002 0.0057108305758887213 10.500000000000002 93873.500000000015 -0.043161156518721447 3.5000000000000004 143.50000000000003 -0.003892220042776754 -0.0014379778322924847 3.5000000000000004 0.0007956057067512837 -0.02981144826420087 -0.0040166064116971363 -0.022598436804130699 1.5000000000000002 489092.00000000006 6861682.0000000009 3.5000000000000004 0.088828092743531414 -0.015172366605661774 4.5000000000000009 -0.2082228236879218 10.500000000000002 -0.0039293822658833868 16.500000000000004 8.5000000000000018 0.0045911134559614266 1.0000000180025095e-35
decision_type=2 2 2 2 2 2 2 2 2 2 2 2 2 2 2 2 2 2 2 2 2 2 2 2 2 2 2 2 2 2
left_child=2 23 9 -3 26 13 7 -7 -5 -1 12 17 -11 -6 16 18 -15 -12 -16 -10 -21 -22 -19 -2 -25 -26 27 28 -4 -24
right_child=1 3 4 8 5 6 -8 -9 19 10 11 -13 -14 14 15 -17 -18 22 -20 20 21 -23 29 24 25 -27 -28 -29 -30 -31
leaf_value=0 0.054930615425109866 0 0 0 0.03465735912322998 0 0.046883425712585448 0 0 0 0 0.046883425712585448 0 0 0 0.040770392873364189 0 -2.5821741279450005e-12 0 1.9624526004236033e-09 -0.00017328677237657964 0 0 0 0 0 0.032924491167068484 0.03465735912322998 -0.0017328679303397544 0
leaf_weight=122 36 47 69 11.999999999999998 18 32 140 21 12.999999999999998 13.000000000000002 314 53 11.999999999999998 17 14.000000000000002 26 25 9.9999999999999982 11.999999999999998 41 10.000000000000002 9.9999999999999982 10.000000000000002 81 17 28 508 122 10.999999999999998 13.999999999999998
leaf_count=122 36 47 69 12 18 32 140 21 13 13 314 53 12 17 14 26 25 10 12 41 10 10 10 81 17 28 508 122 11 14
internal_value=-0.00573735 -0.014322 -0.00411708 -0.0243233 -0.00125616 -0.00680328 -0.00173575 -0.0138679 -0.0147674 -0.00941606 -0.0115493 -0.0104613 -0.029 -0.0155357 -0.0189362 -0.0103846 -0.0295238 -0.0123851 -0.0219231 -0.0105405 -0.00729508 -0.02 -0.0244118 -0.00611111 -0.00849206 -0.0172222 0.00112676 -0.00217822 -0.0075 -0.0179167
internal_weight=1858 295 1563 133 1015 305 193 53 86 548 426 401 25 112 94 52 42 348 26 74 61 20 34 162 126 45 710 202 80 24
internal_count=1858 295 1563 133 1015 305 193 53 86 548 426 401 25 112 94 52 42 348 26 74 61 20 34 162 126 45 710 202 80 24
is_linear=0
shrinkage=0.05


Tree=2
num_leaves=31
num_cat=0
split_feature=31 8 2 1 18 16 33 10 34 43 36 32 12 45 33 44 9 46 6 42 35 44 1 44 44 46 41 42 36 13
split_gain=22.8519 10.158 5.33767 10.5831 4.90432 4.64918 2.75714 2.37752 2.24561 2.51282 2.15462 1.94803 1.9128 1.88412 1.71905 1.54821 1.43428 2.57852 1.40437 1.90152 2.30476 1.38984 1.38099 1.94712 1.34755 2.58642 1.269 1.65025 1.05938 1.03817
threshold=0.34418505304101671 941104.50000000012 10.500000000000002 10.500000000000002 3.5000000000000004 1.0000000180025095e-35 -0.0046200673525398335 10943478.500000002 -0.028616806185296852 -0.013906683519030474 0.0010611440644328462 -0.15955822259336236 14.500000000000002 -0.019779544067327261 0.096208259898358198 -0.041442546105255107 165008.50000000003 -0.038915872725262014 34.500000000000007 0.037009687693941869 -0.019621051858797842 0.013407842820005027 2.5000000000000004 -0.030378359905872437 0.0095169356888227825 0.0042397101605321603 0.0091399473261018788 0.0089388918867499417 -0.0014052030739773287 4.5000000000000009
decision_type=2 2 2 2 2 2 2 2 2 2 2 2 2 2 2 2 2 2 2 2 2 2 2 2 2 2 2 2 2 2
left_child=1 2 6 -4 7 11 22 13 9 -6 24 14 -9 -5 -2 -14 18 -18 19 20 -11 28 -1 -24 25 29 27 -7 -15 -8
right_child=5 -3 3 4 8 26 10 12 -10 16 -12 -13 15 21 -16 -17 17 -19 -20 -21 -22 -23 23 -25 -26 -27 -28 -29 -30 -31
leaf_value=0.03465735912322998 -6.8685839114042647e-11 0.14460549418339433 8.6643396516987718e-05 0.085518979756097346 -0.0012069424731868063 0.032924491167068484 0 0 0 0 -0.00017328677237657964 -4.9061308430955014e-11 -0.0012130075357447813 -0.00027465299936520361 0 0 -8.831036541070691e-11 -1.9624523372382006e-11 -9.8122630021180165e-11 0 0 0 0.034484072350853399 0 0.03465735912322998 0 0 0 0 3.8732616344075194e-14
leaf_weight=67 14.000000000000002 243 637 13.999999999999998 24 12.000000000000002 344 167 24 27.999999999999996 9.9999999999999982 46 14.000000000000002 20 9.9999999999999982 15.999999999999998 12.000000000000002 19 13.999999999999998 19 12.000000000000002 15.999999999999998 10.000000000000002 15.999999999999998 11.999999999999998 10.999999999999998 9.9999999999999982 19 11.000000000000002 24
leaf_count=67 14 243 637 14 24 12 344 167 24 28 10 46 14 20 10 16 12 19 14 19 12 16 10 16 12 11 10 19 11 24
internal_value=-0.00587071 -0.00450112 -0.00599935 -0.00397803 -0.0102439 -0.0278829 -0.0102834 -0.00604651 -0.0173684 -0.02 -0.0120823 -0.0357143 -0.00337563 -0.0146721 -0.0241667 -0.015 -0.0233654 -0.0143548 -0.0271918 -0.0238136 -0.03 -0.0194681 -0.00252688 -0.0123077 -0.0114962 -0.0120185 -0.0145122 -0.00951613 -0.0256452 -0.0113043
internal_weight=1895 1784 1541 1047 410 111 494 258 152 128 401 70 197 61 24 30 104 31 73 59 40 47 93 26 391 379 41 31 31 368
internal_count=1895 1784 1541 1047 410 111 494 258 152 128 401 70 197 61 24 30 104 31 73 59 40 47 93 26 391 379 41 31 31 368
is_linear=0
shrinkage=0.05


Tree=3
num_leaves=31
num_cat=0
split_feature=2 31 8 36 32 1 8 12 8 12 8 36 14 35 8 31 42 2 6 41 37 12 38 38 0 8 13 0 8 2
split_gain=7.22025 5.60102 4.41049 2.90741 2.69092 2.54373 2.38338 2.19063 2.283 2.0628 2.44133 2.05714 2.05425 2.71343 2.4784 2.18873 2.02582 1.46373 1.39887 1.39511 1.6693 2.20119 1.40109 1.82727 1.80512 1.37143 1.33092 1.25006 2.14198 1.16827
threshold=10.500000000000002 0.696999520666023 941104.50000000012 0.0010008963162103689 0.037003922239703106 2.5000000000000004 941104.50000000012 9.5000000000000018 4427.5000000000009 4.5000000000000009 228.50000000000003 0.00078483583447681372 1.0000000180025095e-35 0.068734288728146256 87647.000000000015 0.0030056777253846287 0.0010804154553079037 7.5000000000000009 7.5000000000000009 -0.0020538479929337783 0.087620582709889497 10.500000000000002 0.0061001515394227077 0.036855887419020093 1270.5000000000002 1512.0000000000002 2.5000000000000004 12.500000000000002 9435.0000000000018 120.50000000000001
decision_type=2 2 2 2 2 2 2 2 2 2 2 2 2 2 2 2 2 2 2 2 2 2 2 2 2 2 2 2 2 2
left_child=2 6 3 4 5 7 12 8 9 -1 18 -3 13 14 15 16 -2 27 -11 -17 22 -22 -21 24 29 -13 -7 28 -10 -24
right_child=1 11 -4 -5 -6 26 -8 -9 17 10 -12 25 -14 -15 -16 19 -18 -19 -20 20 21 -23 23 -25 -26 -27 -28 -29 -30 -31
leaf_value=0 -4.3321698258493859e-06 0 0.1296003110089852 8.664338618828983e-06 0 0 0.15278311721671378 0 -0.00023441709712514051 0 0 -9.4688311257120446e-12 0.031273934438889206 0.031273934438889206 -0.0027067396869722704 0 -0.0019018225597450993 0 0 0 -5.7401725797898358e-12 -0.0033834246843407727 -0.0023136060973217845 0 0 -0.0023441712831762072 0 0.031191623652458818 0 0.005493062447309455
leaf_weight=46 23 35 58 32 65 19 172 154 9.9999999999999982 28 40 20 383 93 12.999999999999998 257 9.9999999999999982 27 9.9999999999999982 141 10.000000000000002 13.999999999999998 52 58 14.999999999999998 14.999999999999998 15.999999999999998 9.9999999999999982 37 11.999999999999998
leaf_count=46 23 35 58 32 65 19 172 154 10 28 40 20 383 93 13 257 10 27 10 141 10 14 52 58 15 15 16 10 37 12
internal_value=-0.00324 -0.00123583 -0.00804348 -0.0095749 -0.0105844 -0.0121285 -0.000466879 -0.010884 -0.0142308 -0.00991935 -0.0148718 -0.015 -0.00133673 -0.00295129 -0.00417355 -0.00369932 -0.0162121 -0.0205952 -0.0239474 -0.00296064 -0.0052649 -0.0179167 -0.00417266 -0.00777372 -0.0127215 -0.0235714 -0.025 -0.0160526 -0.0194681 -0.0090625
internal_weight=1875 1323 552 494 462 397 1253 362 208 124 78 70 1081 698 605 592 33 84 38 559 302 24 278 137 79 35 35 57 47 64
internal_count=1875 1323 552 494 462 397 1253 362 208 124 78 70 1081 698 605 592 33 84 38 559 302 24 278 137 79 35 35 57 47 64
is_linear=0
shrinkage=0.05


Tree=4
num_leaves=31
num_cat=0
split_feature=2 8 36 32 1 8 14 35 35 33 42 36 39 43 43 40 37 13 8 9 2 6 0 2 8 45 43 12 40 18
split_gain=7.75902 3.93156 2.93679 2.28579 2.55288 2.16542 1.68747 2.11834 1.53242 2.75331 1.41107 1.64282 1.42359 1.28889 1.53472 2.04704 1.30667 1.2011 1.17251 2.54138 2.13184 2.08209 1.39793 1.34054 1.4216 1.0172 1.01711 0.913749 0.87723 0.85928
threshold=10.500000000000002 584007.00000000012 0.00084349445109196833 0.040157790145703719 2.5000000000000004 941104.50000000012 1.0000000180025095e-35 0.083641088145494993 0.019098162620523478 -0.054866218295044698 -0.0024986949530584742 0.00096949239066905057 0.14672195759252424 0.019428701125836684 0.0047086057993608451 -0.017108890549725017 0.029142495163566321 2.5000000000000004 4994.5000000000009 56160.500000000007 2.5000000000000004 12.500000000000002 18.500000000000004 5.5000000000000009 76.500000000000014 -0.031696944019327024 0.026873898068453445 4.5000000000000009 0.12622529278680036 4.5000000000000009
decision_type=2 2 2 2 2 2 2 2 2 2 2 2 2 2 2 2 2 2 2 2 2 2 2 2 2 2 2 2 2 2
left_child=1 2 3 4 18 6 7 8 10 -10 26 12 13 14 25 -16 -17 -6 19 21 -20 23 -22 24 -1 -12 -2 -25 -8 -27
right_child=5 -3 -4 -5 17 -7 28 -9 9 -11 11 -13 -14 -15 15 16 -18 -19 20 -21 22 -23 -24 27 -26 29 -28 -29 -30 -31
leaf_value=0 1.2755946157583301e-12 0.12312029545853594 8.2311216878875324e-06 0.015595814161806221 0 0.127663281353117 0.029710237716944751 0.029710237716944751 3.9739665684948755e-12 -0.0032210202991899135 0.012579900028302317 4.7344155628560223e-13 0.033303989380577763 4.4155182705353455e-12 -0.0023207295682485924 -0.0020302417596017811 4.885771043636142e-12 0 1.2910870639725004e-13 0 0 0 0 0.03465735912322998 0 0 -0.0022310674517912583 0 -0.0049471214062852334 -0.0017863291384983581
leaf_weight=21 273 58 36 56 17 169 375 86 20 19 25 38 27 28 12.999999999999998 15.000000000000002 9.9999999999999982 14.999999999999998 13.999999999999998 106 113 18 15.999999999999998 23 26 105 18 37 11.999999999999998 100
leaf_count=21 273 58 36 56 17 169 375 86 20 19 25 38 27 28 13 15 10 15 14 106 113 18 16 23 26 105 18 37 12 100
internal_value=-0.00235839 -0.00732014 -0.00875502 -0.00982684 -0.011133 -0.000288822 -0.0010567 -0.00240026 -0.00332127 -0.0129487 -0.0027454 -0.00483379 -0.00599071 -0.00699324 -0.0080597 -0.0173684 -0.009 -0.0246875 -0.00997326 -0.00777056 -0.0135315 -0.0126 -0.0155426 -0.00995327 -0.0162766 -0.00652174 -0.000154639 -0.005 0.00164083 -0.00768293
internal_weight=1889 556 498 462 406 1333 1164 777 691 39 652 361 323 296 268 38 25 32 374 231 143 125 129 107 47 230 291 60 387 205
internal_count=1889 556 498 462 406 1333 1164 777 691 39 652 361 323 296 268 38 25 32 374 231 143 125 129 107 47 230 291 60 387 205
is_linear=0
shrinkage=0.05


Tree=5
num_leaves=31
num_cat=0
split_feature=32 8 46 45 18 44 8 12 6 6 8 10 12 1 16 41 10 12 6 8 8 6 6 8 6 35 35 44 12 41
split_gain=5.75266 4.27735 3.47944 2.59184 2.5641 2.00071 1.74015 1.51713 1.51681 1.45741 1.22987 1.21928 1.73473 1.16383 1.12848 1.08746 1.83342 1.06754 1.04203 1.61908 0.929435 0.993457 0.875758 1.00546 0.825943 0.787293 0.985076 0.93732 1.08152 0.740192
threshold=0.019054873948294856 48013.000000000007 -0.0027014273007620643 -0.001191752444590307 4.5000000000000009 0.0018540109189079275 4893.0000000000009 4.5000000000000009 49.500000000000007 16.500000000000004 46428.000000000007 35626959.000000007 9.5000000000000018 1.5000000000000002 -1.0000000180025095e-35 -0.00064039675963492994 10081737.500000002 8.5000000000000018 95.500000000000014 8177.5000000000009 985.50000000000011 26.500000000000004 145.50000000000003 47220.500000000007 21.500000000000004 0.12011250838190989 0.0015644680561992268 0.014792719644722728 6.5000000000000009 0.010310627350285278
decision_type=2 2 2 2 2 2 2 2 2 2 2 2 2 2 2 2 2 2 2 2 2 2 2 2 2 2 2 2 2 2
left_child=1 2 15 4 -4 17 8 13 9 -5 25 12 -11 -8 -9 16 -1 -6 19 -16 21 -13 -20 -24 -14 26 -2 28 -28 -30
right_child=10 -3 3 6 5 -7 7 14 -10 11 -12 20 24 -15 18 -17 -18 -19 22 -21 -22 -23 23 -25 -26 -27 27 -29 29 -31
leaf_value=-0.0017977997872631792 2.3892856907598341e-12 0.055932507637186601 2.3892856907598341e-12 0 -0.0033134709257246105 0 -2.5692628761866471e-12 -0.0026489301120945479 0.006103033634672181 -0.0044035087234350762 0.03020092045695958 0 0.030828232221794399 -0.0045493882133742928 -0.00069973507014633096 2.3892856907598341e-12 1.7670215876501076e-12 -0.0047344226930284622 -0.0015595811063198789 0 -0.0021374784851805888 0.02392897175463686 0.014112363546481863 0 0 0.032279379266557919 -0.0042648387564186456 0.00029426230484960476 0.0057374903315476683 -0.0030701195537963313
leaf_weight=9.9999999999999982 591 115 12.999999999999998 227 10.000000000000002 11.999999999999998 20 18 63 22 220 9.9999999999999982 13.000000000000002 17 18 126 29 17 22 80 13.999999999999998 29 15.999999999999998 17 17 73 12.999999999999998 30 23 20
leaf_count=10 591 115 13 227 10 12 20 18 63 22 220 10 13 17 18 126 29 17 22 80 14 29 16 17 17 73 13 30 23 20
internal_value=-0.00166667 -0.00446524 -0.00573171 -0.00736641 -0.0180769 -0.0244872 -0.00644279 -0.0101442 -0.00449367 -0.00584337 0.00103093 -0.0107143 -0.0161538 -0.0193243 -0.00815789 0.000757576 -0.00653846 -0.032037 -0.00676471 -0.00367347 -0.00537736 -0.00141026 -0.0122727 -0.00712121 -0.00833333 6.66669e-05 -0.000465288 -0.00546512 -0.00928571 -0.00546512
internal_weight=1905 935 820 655 52 39 603 208 395 332 970 105 52 37 171 165 39 27 153 98 53 39 55 33 30 750 677 86 56 43
internal_count=1905 935 820 655 52 39 603 208 395 332 970 105 52 37 171 165 39 27 153 98 53 39 55 33 30 750 677 86 56 43
is_linear=0
shrinkage=0.05


Tree=6
num_leaves=31
num_cat=0
split_feature=8 8 6 18 43 40 8 1 32 6 1 12 2 8 39 46 46 31 40 13 41 13 2 38 46 9 9 6 9 9
split_gain=3.53027 1.94676 2.62727 1.72342 1.55531 1.17231 1.05858 2.42018 1.97784 1.63636 0.872727 0.791268 0.766477 2.17292 1.30667 0.930969 0.749131 1.89963 1.37791 1.0974 1.13636 0.692647 0.676071 1.07377 2.10162 1.04895 0.719076 0.980519 0.719574 1.64223
threshold=941104.50000000012 48139.500000000007 3.5000000000000004 3.5000000000000004 0.014094165260814915 0.35700695666292831 46004.500000000007 1.5000000000000002 0.033675904314877443 185.50000000000003 2.5000000000000004 2.5000000000000004 5.5000000000000009 67.500000000000014 -1.0000000180025095e-35 -0.0028583132608459949 0.028929049984959942 0.71554196369028256 0.071896593432676445 1.5000000000000002 0.0033972293247718434 3.5000000000000004 19.500000000000004 0.00032672810338191136 -0.0062610179713872473 100233.50000000001 167614.00000000003 37.500000000000007 45993.500000000007 40409.500000000007
decision_type=2 2 2 2 2 2 2 2 2 2 2 2 2 2 2 2 2 2 2 2 2 2 2 2 2 2 2 2 2 2
left_child=1 3 10 11 5 6 12 -8 9 -9 -3 -1 13 14 -5 -15 22 18 19 20 -18 -17 23 26 25 -25 27 28 29 -14
right_child=-2 2 -4 4 -6 -7 7 8 -10 -11 -12 -13 16 15 -16 21 17 -19 -20 -21 -22 -23 -24 24 -26 -27 -28 -29 -30 -31
leaf_value=-0.002961437765132793 0.11442345202457992 0.06276794531291377 -0.0035010170253228882 0 9.337662121572946e-05 -0.0044717085399383766 1.2381524581423897e-13 -0.0047084296379763593 0.0419677178273496 0 -0.0016969463622794967 4.7818581308411653e-05 0 7.8195655151420771e-06 -0.0014065027224743397 0 3.318829957891107e-12 -0.001035397570319282 -0.0033834246845240164 8.9316459749133088e-05 -0.0044795898847561702 6.23832475304782e-05 4.4976947847132212e-13 -0.0012417751791776017 -0.00077979070820977537 -0.0031091270908422093 0.0001676732854572335 -0.0045705425221400989 9.3870109447682749e-05 -0.0057185904565648345
leaf_weight=24 236 12.000000000000002 9.9999999999999982 10 134 9.9999999999999982 23 11.000000000000002 9.9999999999999982 10.999999999999998 9.9999999999999982 426 110 38 15 98 11.000000000000002 11.999999999999998 15.999999999999998 77 10.999999999999998 29 285 13.000000000000002 50 10.999999999999998 77 19 75 13.999999999999998
leaf_count=24 236 12 10 10 134 10 23 11 10 11 10 426 110 38 15 98 11 12 16 77 11 29 285 13 50 11 77 19 75 14
internal_value=-0.000720339 -0.00153753 -0.01375 -0.0012963 -0.00230769 -0.00296332 -0.00279727 -0.00954545 -0.0184375 -0.0268182 -0.00409091 0.00133333 -0.00241504 -0.00526316 -0.019 -0.00318182 -0.00172215 -0.00523622 -0.00326087 -0.00106061 -0.0109091 -0.00523622 -0.00103976 -0.00245257 -0.00783784 -0.02 -0.00110169 -0.00256881 -0.00153266 -0.00387097
internal_weight=1888 1652 32 1620 1170 1036 1026 55 32 22 22 450 971 190 25 165 781 127 115 99 22 127 654 369 74 24 295 218 199 124
internal_count=1888 1652 32 1620 1170 1036 1026 55 32 22 22 450 971 190 25 165 781 127 115 99 22 127 654 369 74 24 295 218 199 124
is_linear=0
shrinkage=0.05


Tree=7
num_leaves=31
num_cat=0
split_feature=31 10 0 10 11 15 10 10 39 43 34 16 10 32 7 10 1 40 44 9 12 32 12 39 46 11 9 35 45 45
split_gain=2.15766 3.48347 1.7289 1.41103 1.3991 1.22324 1.34825 1.21639 1.875 1.54029 1.09412 1.07478 1.00196 0.967151 0.893164 0.814641 3.11381 1.83752 1.53509 1.13656 1.42903 0.804762 0.770618 0.752688 1.38633 0.657665 0.607755 1.09815 1.1361 0.662325
threshold=0.69322893176770262 85610376.500000015 23.500000000000004 417871.00000000006 56591286.000000007 1.0000000180025095e-35 320016344.50000006 43443570.500000007 -0.013207366141898295 -0.00076574879102497102 0.079935369996593023 -1.0000000180025095e-35 293110.00000000006 -0.17789204605373884 1.0000000180025095e-35 1210825.0000000002 16.500000000000004 -0.030857344169694597 0.010174655326318609 5760.0000000000009 8.5000000000000018 0.10245266718209882 6.5000000000000009 -0.15074030565324123 -0.053224629099594939 17460599.000000004 52520.500000000007 -0.04127253096330933 -0.013572660307072376 0.030653550493472587
decision_type=2 2 2 2 2 2 2 2 2 2 2 2 2 2 2 2 2 2 2 2 2 2 2 2 2 2 2 2 2 2
left_child=2 10 3 12 7 6 22 11 9 -9 -2 -4 14 -3 -1 16 19 -18 21 -13 -21 -19 -5 24 -6 -17 27 -27 -29 -28
right_child=1 13 4 5 23 -7 -8 8 -10 -11 -12 15 -14 -15 -16 25 17 18 -20 20 -22 -23 -24 -25 -26 26 29 28 -30 -31
leaf_value=-0.00022270869341577137 -0.00016780436898934683 -0.0015921854394926084 -0.002775543666817227 -4.6935054081525457e-06 -0.00012958287143909831 0.11808609533505926 -0.0010748871422569832 -0.0020660516649044424 -1.4345564552360669e-06 -0.0032747097553955775 4.2728115093914846e-13 0.029868560031266974 -0.002648874709293105 -0.0016387836240547259 -0.00090953840558950544 1.1341720719595583e-05 -0.0028252290914803561 -0.0049645581689392211 0.067590112451104786 -0.0062324253624943902 0.04549510627488583 -0.0001185925380071545 0 0.031402535983683741 0.00022743068311564444 6.0347123453607827e-05 0.00021196565790748855 -0.0044198108978641014 -0.0032941081746678462 -0.001855629012498699
leaf_weight=20 20 10.000000000000002 12.999999999999998 106 10.000000000000002 57 23 14.000000000000002 45 12.999999999999998 31 121 9.9999999999999982 19 17 262 10.999999999999998 14.000000000000002 13.999999999999998 19 13.999999999999998 9.9999999999999982 328 434 21 15.999999999999998 130 9.9999999999999982 21.000000000000004 57
leaf_count=20 20 10 13 106 10 57 23 14 45 13 31 121 10 19 17 262 11 14 14 19 14 10 328 434 21 16 130 10 21 57
internal_value=-0.000714286 -0.00875 -0.000359116 -0.00266488 0.000676541 -0.00190661 -0.00276805 -0.000612245 -0.00680556 -0.0172222 -0.000882353 1.40451e-05 -0.0109574 -0.0225862 -0.00716216 0.00027897 -0.00238916 -0.0133673 -0.00815789 0.0011039 -0.00712121 -0.0158333 -0.00214286 0.00284946 -0.00467742 0.00137097 -0.000555555 -0.0056383 -0.011129 0.000721925
internal_weight=1890 80 1810 561 1249 514 457 784 72 27 51 712 47 29 37 699 203 49 38 154 33 24 434 465 31 496 234 47 31 187
internal_count=1890 80 1810 561 1249 514 457 784 72 27 51 712 47 29 37 699 203 49 38 154 33 24 434 465 31 496 234 47 31 187
is_linear=0
shrinkage=0.05


Tree=8
num_leaves=31
num_cat=0
split_feature=8 8 6 0 32 37 46 37 44 41 37 41 41 41 13 1 38 38 2 41 0 36 16 10 39 39 39 39 32 35
split_gain=3.39079 3.08507 2.55364 1.83273 1.7544 4.25358 3.4848 1.89864 6.81502 1.63611 1.50693 1.04148 1.14648 1.42476 0.932893 0.796932 0.75011 1.21903 0.868333 0.859931 0.801373 0.685581 1.44026 0.61112 0.6991 1.25 0.706033 0.59168 0.504167 0.501867
threshold=941104.50000000012 48139.500000000007 3.5000000000000004 86.500000000000014 -0.067352822863236878 -0.00040921546683837725 0.028929049984959942 -0.066567033556205454 0.14297074960458717 0.40425016453815016 0.11352641535977022 -0.020774406941634693 0.037013979577369911 0.0099007997944037893 4.5000000000000009 918.50000000000011 -0.045553358922664718 -0.066644439173232942 21.500000000000004 -0.017156628941229716 51.500000000000007 -6.0219991298336054e-05 1.0000000180025095e-35 11543074.500000002 -0.029688387394740941 -0.076349435572666102 0.012359193641858422 -0.0068102024281186798 0.38006824599077477 -0.005451168105525513
decision_type=2 2 2 2 2 2 2 2 2 2 2 2 2 2 2 2 2 2 2 2 2 2 2 2 2 2 2 2 2 2
left_child=1 4 3 -3 5 -1 -7 8 15 11 -11 -9 13 16 21 -6 17 27 20 -20 29 23 -23 -15 25 -25 -26 -13 -17 -18
right_child=-2 2 -4 -5 7 6 -8 9 -10 10 -12 12 -14 14 -16 28 18 -19 19 -21 -22 22 -24 24 26 -27 -28 -29 -30 -31
leaf_value=-1.6929054087963499e-05 0.11423186245180723 0.057059746377446874 -0.0027621326158447884 -0.0011946207912183905 -0.0014660898803246026 2.6469399586300719e-12 -0.0015568444420670079 0.00016667552852553402 -5.6708378864684687e-07 -0.00401846819532088 0.028211268485295989 -0.0035019245642534998 0.046878777252552739 0.00016494481283077338 -0.0014566593367537413 3.4167061660771466e-05 0.014220584141620302 -0.0056566344260661431 -0.0027618894525597861 0.00010867810245014569 -0.0031472677149362079 -0.0054643352114187617 -0.00041329355490387948 -0.00018642348648769376 0.054288661429307529 -0.0031199000579245975 -0.0020683126927633498 0.031434384389045264 -0.0015847548642611842 -4.7818364692485664e-07
leaf_weight=17 240 14.000000000000002 10.999999999999998 10.999999999999998 13.999999999999998 59 19 163 12.999999999999998 11.000000000000002 9.9999999999999982 18 89 34 15.999999999999998 54 36 11.999999999999998 12.999999999999998 310 9.9999999999999982 18 19 10.000000000000002 22 9.9999999999999982 19 25 9.9999999999999982 609
leaf_count=17 240 14 11 11 14 59 19 163 13 11 10 18 89 34 16 54 36 12 13 310 10 18 19 10 22 10 19 25 10 609
internal_value=-0.000558455 -0.00135442 -0.0158333 -0.007 -0.00103659 -0.00763158 -0.00269231 -0.000631068 -0.00763736 -0.000192572 -0.0140476 1.04677e-05 -0.000472441 -0.000884843 -0.00547297 -0.00205128 -0.000227493 -0.00590909 9.20247e-05 0.00221362 -0.000954198 -0.00409091 -0.00986486 -0.00184211 -0.00483607 -0.0125 -0.00109756 -0.00197674 0.0003125 -0.000736434
internal_weight=1916 1676 36 25 1640 95 78 1545 91 1454 21 1433 1270 1181 148 78 1033 55 978 323 655 132 37 95 61 20 41 43 64 645
internal_count=1916 1676 36 25 1640 95 78 1545 91 1454 21 1433 1270 1181 148 78 1033 55 978 323 655 132 37 95 61 20 41 43 64 645
is_linear=0
shrinkage=0.05


Tree=9
num_leaves=31
num_cat=0
split_feature=31 38 40 8 8 6 6 0 39 6 0 41 44 43 43 34 33 36 32 41 41 0 37 6 44 42 41 32 0 38
split_gain=3.44518 7.39754 2.572 2.34256 2.81549 2.4527 2.09612 1.5 1.44327 1.41964 0.847248 2.27128 1.02097 1.40485 1.31734 0.670037 1.30168 0.691026 0.84992 0.550229 1.51016 1.42234 0.959002 0.860437 0.830289 0.63 0.610385 0.554401 1.21905 0.547348
threshold=0.34418505304101671 0.013956284151696639 0.56648649555669117 941104.50000000012 48139.500000000007 3.5000000000000004 149.50000000000003 86.500000000000014 0.0095360475870061422 20.500000000000004 4.5000000000000009 -1.0000000180025095e-35 -0.064676906963165762 0.031258739485785662 0.061725950478256374 -0.048266969431751953 -0.060823289305768906 -0.0022549876393204182 0.15201239066541336 -0.0030180946535993407 -0.0012083556752342805 46.500000000000007 -0.023453033661320767 24.500000000000004 -0.0069096326798606762 0.0010804154553079037 0.00890665850889856 0.0075887010291462911 17.500000000000004 0.00099612341633285731
decision_type=2 2 2 2 2 2 2 2 2 2 2 2 2 2 2 2 2 2 2 2 2 2 2 2 2 2 2 2 2 2
left_child=2 6 3 4 9 7 8 -6 29 -1 11 -11 13 15 -15 16 17 18 -12 -14 21 -21 -22 27 25 26 -25 28 -24 -2
right_child=1 -3 -4 -5 5 -7 -8 -9 -10 10 12 -13 19 14 -16 -17 -18 -19 -20 20 22 -23 23 24 -26 -27 -28 -29 -30 -31
leaf_value=9.0662816005772302e-06 8.3813184754446227e-08 -2.0368148648920001e-06 -0.0039976509899357204 0.10907369601494246 0.044691224752585357 -0.0026045957402241263 -0.0017929332338560179 -0.001435489046201325 -9.7518279436433205e-06 -0.00039451481931574952 -0.0031549396901414022 4.712251541437313e-06 0.00022287296950325417 -0.0018451711117890208 -0.0022175881534082591 0.025529829101641463 -0.0042710648997148761 0.029821988566792287 -0.00021336539735387021 -0.0029602911945255978 -0.0046295540578487433 0.00015383623056029809 -1.6497411171322598e-06 -0.0018464113350768801 5.3768266289004645e-05 0.0093813760072211042 -0.00092278702007693957 0.00016646946041206875 -0.0058940723273742052 -2.5578758489891105e-05
leaf_weight=706 64 17 9.9999999999999982 242 15.000000000000002 11.999999999999998 9.9999999999999982 9.9999999999999982 10.999999999999998 15.999999999999998 10.999999999999998 25 154 15.000000000000002 15.999999999999998 34 11.999999999999998 22.000000000000004 19 14.000000000000002 18 10.999999999999998 14.000000000000002 26 319 13.999999999999998 24 12.999999999999998 9.9999999999999982 10.999999999999998
leaf_count=706 64 17 10 242 15 12 10 10 11 16 11 25 154 15 16 34 12 22 19 14 18 11 14 26 319 14 24 13 10 11
internal_value=-0.000250659 -0.00871681 0.000286195 0.000428894 -0.000294117 -0.0139189 -0.00333333 -0.005 -0.000813953 4.35367e-05 -0.00141677 -0.00841463 -0.00103217 -0.00507752 -0.0143548 -0.00214286 -0.00515625 -0.00173077 -0.00666667 -0.000186386 -0.00104752 -0.013 -0.000365297 0.000119048 0.000822454 -0.004375 -0.007 -0.00716216 -0.0116667 0.00166667
internal_weight=1895 113 1782 1772 1530 37 96 25 86 1493 787 41 746 129 31 98 64 52 30 617 463 25 438 420 383 64 50 37 24 75
internal_count=1895 113 1782 1772 1530 37 96 25 86 1493 787 41 746 129 31 98 64 52 30 617 463 25 438 420 383 64 50 37 24 75
is_linear=0
shrinkage=0.05


Tree=10
num_leaves=31
num_cat=0
split_feature=31 38 40 9 35 6 11 9 35 18 9 0 31 12 6 9 6 12 45 9 6 32 21 12 40 6 10 0 36 2
split_gain=2.94564 5.54358 2.45359 1.47208 1.11276 1.06045 0.938983 1.27481 1.02191 1.25 0.8717 0.767017 2.04174 0.765902 0.8 0.757744 1.0532 1.5623 1.78434 1.00076 1.17593 1.10205 0.656513 0.964888 0.974898 1.04497 0.641089 1.1112 0.6378 0.585766
threshold=0.34418505304101671 0.0058205184349021883 0.56648649555669117 954718.50000000012 0.12011250838190989 20.500000000000004 29964122.500000004 200429.50000000003 0.019098162620523478 4.5000000000000009 79854.500000000015 573.50000000000011 0.75668985750541562 16.500000000000004 2.5000000000000004 406578.00000000006 155.50000000000003 11.500000000000002 -0.028398781918314294 109419.00000000001 34.500000000000007 0.087978825477015854 1.0000000180025095e-35 6.5000000000000009 -0.017108890549725017 22.500000000000004 26806749.500000004 12.500000000000002 7.5472755290236223e-05 9.5000000000000018
decision_type=2 2 2 2 2 2 2 2 2 2 2 2 2 2 2 2 2 2 2 2 2 2 2 2 2 2 2 2 2 2
left_child=2 11 3 4 5 10 7 22 15 -10 13 12 -2 29 -15 19 17 18 -17 20 28 -22 23 -7 -25 -26 27 -27 -8 -1
right_child=1 -3 -4 -5 -6 6 8 -9 9 -11 -12 -13 -14 14 -16 16 -18 -19 -20 -21 21 -23 -24 24 25 26 -28 -29 -30 -31
leaf_value=-4.2940489768261871e-07 -0.0013893555590558384 -0.00017316331461553268 -0.003797768440438934 0.12100094060419274 0.034360826291251804 3.8365015503408483e-05 0.026420569048679583 -0.0029971927046327537 0.068395520786834696 -0.0031988320296206839 0.0044186901750086693 7.6696031293349421e-07 2.6007826277272501e-06 9.3300225861135341e-05 -0.00072344730079453327 -0.00054577878251025681 5.1079852974554415e-05 7.2819221428616635e-05 -0.0015802612670232118 9.295974968326912e-05 -0.0013245432631394218 -0.0028532825883487972 0.00022527158690399218 -0.0029241833359569106 7.5598814560288297e-05 -5.0112567633880357e-06 -0.0044995474638549479 2.1940216106822822e-05 -0.0024255983606779386 3.8287392640101897e-05
leaf_weight=199 20 20 9.9999999999999982 128 85 15.999999999999998 47 10.999999999999998 10 10 143 36 38 10.000000000000002 9.9999999999999982 26 95 33 45 310 22 14.999999999999998 24 10.999999999999998 15.999999999999998 15.999999999999998 14.999999999999998 28 13.999999999999998 414
leaf_count=199 20 20 10 128 85 16 47 11 10 10 143 36 38 10 10 26 95 33 45 310 22 15 24 11 16 16 15 28 14 414
internal_value=-0.000807139 -0.00859649 -0.00030346 -0.000162578 -0.000569231 -0.000876623 -0.00219895 -0.0059489 -0.00137959 -0.0125 0.000425258 -0.00351064 -0.00706897 -0.000371248 -0.01 -0.00101318 -0.00354271 -0.00701923 -0.0111972 0.000220588 -0.00418367 -0.0112162 -0.00452381 -0.00627451 -0.00837209 -0.00633333 -0.00940678 -0.00636364 8.19674e-05 -5.70961e-05
internal_weight=1877 114 1763 1753 1625 1540 764 137 627 20 776 94 58 633 20 607 199 104 71 408 98 37 126 102 86 75 59 44 61 613
internal_count=1877 114 1763 1753 1625 1540 764 137 627 20 776 94 58 633 20 607 199 104 71 408 98 37 126 102 86 75 59 44 61 613
is_linear=0
shrinkage=0.05


Tree=11
num_leaves=31
num_cat=0
split_feature=8 8 13 0 41 35 39 42 31 46 38 44 35 44 0 12 36 44 8 8 6 0 8 9 11 8 23 31 34 6
split_gain=2.64924 2.72199 2.50061 3.35238 1.90073 1.29371 1.14551 1.52261 2.06869 1.03857 1.83544 1.74972 1.04812 1.35 1.25 0.809619 1.08491 1.50741 1.07464 1.89099 1.38425 1.55824 1.76475 1.45648 1.19898 1.08445 1.03082 1.24769 1.01478 0.801515
threshold=941104.50000000012 48139.500000000007 3.5000000000000004 86.500000000000014 0.40425016453815016 0.083641088145494993 0.053796136160512702 -0.10632425867895899 0.067998320610185556 -0.042466464672830731 -0.0079901294674090493 -0.028039665006034182 -0.10003800936146066 -0.038326704646257828 404.50000000000006 9.5000000000000018 -0.0014827016614728072 -0.049670277895104233 443.00000000000006 492.50000000000006 30.500000000000004 16.500000000000004 2193.5000000000005 31138.000000000004 1402133.5000000002 10474.500000000002 1.0000000180025095e-35 0.70353896088005052 -0.017313137837044495 29.500000000000004
decision_type=2 2 2 2 2 2 2 2 2 2 2 2 2 2 2 2 2 2 2 2 2 2 2 2 2 2 2 2 2 2
left_child=1 4 -3 -4 5 6 7 8 -1 10 -9 -12 13 -11 -15 16 -14 -18 26 -20 21 22 -21 -24 -23 -25 -19 -28 -26 -6
right_child=-2 2 3 -5 29 -7 -8 9 -10 12 11 -13 15 14 -16 -17 17 18 19 20 -22 24 23 25 28 -27 27 -29 -30 -31
leaf_value=-0.0025261161632895157 0.10170729375447406 0.021958104515913422 -0.0022480730857801202 -0.0040710229546511633 -0.0036078800184169875 0.02796852502367337 8.2212769385864614e-06 -0.00013404025348383582 -0.0039198111846299195 0.00011707433416831468 -0.0012506034321588802 -0.0020914104692585614 6.0364786813765271e-05 -0.0016955072268007979 -0.00016281513367740169 4.4341758005614515e-05 -0.0037061319135290663 8.2693696994846119e-05 -0.0041027944019918312 -0.0012700594321328614 -3.8596445194476154e-07 -0.0039077207582255986 0.0067231904881996339 -0.00015008756865102102 -0.0030038541585566581 -4.8017300244270484e-06 -0.0015422555419661362 6.8032057375096084e-06 2.3283781410497466e-05 -0.0013390840994150261
leaf_weight=33 229 18 10.000000000000002 10.999999999999998 10.000000000000002 95 166 61 11.999999999999998 10.000000000000002 12.999999999999998 25 80 10.000000000000002 9.9999999999999982 488 26 165 9.9999999999999982 10.999999999999998 187 18 12.999999999999998 14.000000000000002 9.9999999999999982 12.999999999999998 16.000000000000004 10.999999999999998 68 11.999999999999998
leaf_count=33 229 18 10 11 10 95 166 61 12 10 13 25 80 10 10 488 26 165 10 11 187 18 13 14 10 13 16 11 68 12
internal_value=-0.000471698 -0.00118081 -0.0142308 -0.0259524 -0.000860113 -0.000654952 -0.00102041 -0.0015184 -0.0105556 -0.00119539 -0.00611111 -0.0147368 -0.000775862 -0.01 -0.0175 -0.000530973 -0.00169782 -0.00247331 -0.00190298 -0.00357558 -0.00293413 -0.00656463 -0.0136275 -0.00875 -0.0028125 -0.0153704 0.00109375 -0.00796296 -0.000128205 -0.0154545
internal_weight=1855 1626 39 21 1587 1565 1470 1304 45 1259 99 38 1160 30 20 1130 642 562 536 344 334 147 51 40 96 27 192 27 78 22
internal_count=1855 1626 39 21 1587 1565 1470 1304 45 1259 99 38 1160 30 20 1130 642 562 536 344 334 147 51 40 96 27 192 27 78 22
is_linear=0
shrinkage=0.05


Tree=12
num_leaves=31
num_cat=0
split_feature=8 8 40 41 37 6 6 18 39 6 37 35 41 44 6 13 6 18 9 36 44 2 10 32 42 44 39 38 43 41
split_gain=2.68178 3.9997 4.78413 2.25333 2.45 1.68056 1.42415 1.1646 1.98764 1.16347 1.63469 1.41621 1.7248 0.953053 0.869403 1.20903 0.91598 1.75862 0.78417 1.08662 0.768766 0.828216 2.30083 1.92667 0.7327 1.71747 0.955766 0.904156 0.667233 1.25076
threshold=11624080.500000002 48139.500000000007 -0.010799617930568885 0.40425016453815016 0.13298652446615528 3.5000000000000004 20.500000000000004 4.5000000000000009 -0.15074030565324123 30.500000000000004 0.0044829426360225586 -0.023279853467420175 -0.00028109812839025825 -0.076847416953984019 118.50000000000001 4.5000000000000009 25.500000000000004 2.5000000000000004 231663.00000000003 -0.0024708270062516417 0.013407842820005027 191.00000000000003 9651617.5000000019 0.19976563030620545 -1.0000000180025095e-35 -0.0046004397017540806 -0.005760593717681348 0.00099612341633285731 -0.003560288998927282 -0.0049246839905689888
decision_type=2 2 2 2 2 2 2 2 2 2 2 2 2 2 2 2 2 2 2 2 2 2 2 2 2 2 2 2 2 2
left_child=1 3 -3 6 -5 -4 20 13 -9 10 -10 12 -11 18 16 -16 17 -15 19 -8 21 28 23 -23 25 26 -13 -28 -1 -30
right_child=-2 2 5 4 -6 -7 7 8 9 11 -12 24 -14 14 15 -17 -18 -19 -20 -21 -22 22 -24 -25 -26 -27 27 -29 29 -31
leaf_value=8.8750503941712865e-05 0.11024648876220444 -0.0011676575065273048 0.037149506988193214 -0.0019004794322048065 0.027053251370764909 -0.0033999529739921815 0.00018246353840939525 -0.0020053705251043114 -0.0018608437589459387 -3.9349596369093844e-05 0.025639858616354091 -0.0044469273718066504 -0.0039690077901396847 -0.0041296451704661832 -7.8897950739197873e-05 -0.0018009570098755003 0.00023898481960809206 5.7986453506050039e-05 -0.00095920993004976337 -0.0025314102403540158 7.8694051377838408e-06 -0.0045709884264634728 0.033086911297743847 -0.00028287010190315329 1.352094750358747e-05 0.022981361112547651 0.029785581269440056 -0.0014106674197292314 -0.0026801574795295696 6.2039496801428087e-06
leaf_weight=128 186 19 32 10 10 18 10.000000000000002 18 76 16.000000000000004 26 11.999999999999998 12.999999999999998 12.000000000000002 37 9.9999999999999982 188 17 61 12.999999999999998 174 15.000000000000002 31 9.9999999999999982 248 31 14.000000000000002 10.999999999999998 20 395
leaf_count=128 186 19 32 10 10 18 10 18 76 16 26 12 13 12 37 10 188 17 61 13 174 15 31 10 248 31 14 11 20 395
internal_value=-0.000695862 -0.00132836 -0.0131159 -0.000821918 -0.0175 -0.005 -0.000611601 -0.00207257 -0.00370968 -0.00305369 -0.0077451 -0.00166667 -0.0122414 0.000114943 0.00159091 -0.00457447 0.00292627 -0.00534483 -0.00452381 -0.0123913 0.000924968 7.51254e-05 -0.00571429 -0.017 -0.000696202 -0.00529412 -0.0125676 -0.007 0.000672192 -0.000301205
internal_weight=1861 1675 69 1606 20 50 1586 813 465 447 102 345 29 348 264 47 217 29 84 23 773 599 56 25 316 68 37 25 543 415
internal_count=1861 1675 69 1606 20 50 1586 813 465 447 102 345 29 348 264 47 217 29 84 23 773 599 56 25 316 68 37 25 543 415
is_linear=0
shrinkage=0.05


Tree=13
num_leaves=31
num_cat=0
split_feature=8 8 0 6 41 37 42 44 43 42 35 15 45 37 8 10 10 12 13 42 44 42 39 42 2 0 39 0 2 0
split_gain=2.22918 4.71321 5.08439 2.24943 1.6743 1.50693 1.47029 1.10658 1.32396 1.63188 1.33092 0.903586 0.740984 1.68056 0.654273 1.31777 1.30034 0.931373 0.660735 1.46482 2.11778 0.67418 1.5258 0.555626 0.746487 0.636345 0.411118 1.45833 0.4574 0.582814
threshold=11624080.500000002 48139.500000000007 86.500000000000014 3.5000000000000004 0.40425016453815016 0.13298652446615528 0.024954984647870791 1.0000000180025095e-35 0.021036475052028162 0.0071512580265090534 -0.043852873303405336 1.0000000180025095e-35 0.1138775742693174 0.063773888589897604 101.50000000000001 3458225.5000000005 2236344.0000000005 5.5000000000000009 1.0000000180025095e-35 0.0042898756891994487 -0.026541718672614654 -0.12929685577654529 0.0038370757871000081 -0.083558661396534603 13.500000000000002 16.500000000000004 -0.13209699969299435 444.00000000000006 4.5000000000000009 6.5000000000000009
decision_type=2 2 2 2 2 2 2 2 2 2 2 2 2 2 2 2 2 2 2 2 2 2 2 2 2 2 2 2 2 2
left_child=1 4 3 -3 7 -6 -4 8 11 10 -10 14 -9 -14 -1 16 17 -16 19 23 -21 22 -20 -17 25 -25 27 -23 29 -28
right_child=-2 2 6 -5 5 -7 -8 12 9 -11 -12 -13 13 -15 15 18 -18 -19 21 20 -22 26 -24 24 -26 -27 28 -29 -30 -31
leaf_value=7.7069473045536109e-05 0.10502848047769275 0.065371239872728706 -0.0050931510826651531 -0.0040761885042118126 -0.0031523558533131362 0.025700588802226667 -0.00065825809155868587 6.178650810969136e-05 -1.3054944852525058e-05 -8.9463528408917635e-05 -0.0024119128330051896 -0.0043829379313697391 -0.0026814394093874084 0.00017556277690547741 -0.0028308274045910414 -0.0026870149293543935 -0.00021201509479916458 2.0431039136771618e-05 -0.0035276012534443042 -0.00044971350274556249 -0.0042089057234436936 -0.0027163332387921016 0.02675689356476544 1.7726558328438641e-05 6.8813233308549014e-05 -0.0016189198107383783 4.9650996353039136e-05 0.032458355945621173 6.1012533991199225e-05 -0.00011833932287777375
leaf_weight=136 199 31 13.000000000000002 18 11 10 13.999999999999998 442 15.999999999999998 39 19 13.999999999999998 11.999999999999998 24 14.999999999999998 12.999999999999998 19 19 14.999999999999998 17.000000000000004 13.999999999999998 10.000000000000002 28 42 51 19 48 13.999999999999998 540 26
leaf_count=136 199 31 13 18 11 10 14 442 16 39 19 14 12 24 15 13 19 19 15 17 14 10 28 42 51 19 48 14 540 26
internal_value=-5.29642e-06 -0.000595026 -0.0127632 -0.00316327 -2.16985e-05 -0.0140476 -0.0301852 0.000163317 -0.000700179 -0.00716216 -0.015 -0.000240384 0.00217573 -0.00472222 -6.82259e-05 -0.000561798 -0.00820755 -0.00235294 -7.76581e-05 -0.00301282 -0.0127419 0.000594714 -0.00546512 -0.0006 0.000535714 -0.00319672 0.00100313 -0.00541667 0.00125407 -0.00243243
internal_weight=1888 1689 76 49 1613 21 27 1592 1114 74 35 1040 478 36 1026 890 53 34 837 156 31 681 43 125 112 61 638 24 614 74
internal_count=1888 1689 76 49 1613 21 27 1592 1114 74 35 1040 478 36 1026 890 53 34 837 156 31 681 43 125 112 61 638 24 614 74
is_linear=0
shrinkage=0.05


Tree=14
num_leaves=31
num_cat=0
split_feature=8 8 1 44 9 36 35 40 41 41 45 35 0 0 36 6 12 39 39 25 8 10 11 12 35 39 10 2 6 38
split_gain=2.34763 4.15659 5.75526 2.34213 2.20417 1.37779 1.73473 1.11154 0.87276 0.840278 0.810941 0.712171 0.656314 2.33611 1.71734 1.17542 0.874684 1.43761 0.984615 0.600037 0.527679 1.08237 1.03939 0.810432 0.735591 0.697369 0.660808 0.72079 0.711353 0.567423
threshold=11624080.500000002 48139.500000000007 35.500000000000007 -0.046661797983537305 139726.50000000003 -0.005114163423744207 0.023602224431896839 -0.010799617930568885 0.02897124557378589 0.00047706863546586128 -0.19628803324113714 -0.1196589392112216 92.500000000000014 74.500000000000014 -0.00028875973936098631 39.500000000000007 10.500000000000002 -0.12245007888611414 0.020416399633290987 1.0000000180025095e-35 366.00000000000006 1210825.0000000002 505091.50000000006 2.5000000000000004 -0.045918248727389407 -0.16438975127821867 336128.00000000006 145.50000000000003 1.5000000000000002 -0.0059431327881636067
decision_type=2 2 2 2 2 2 2 2 2 2 2 2 2 2 2 2 2 2 2 2 2 2 2 2 2 2 2 2 2 2
left_child=1 3 4 5 9 -1 12 -8 10 -3 -5 -12 13 14 -7 -16 -14 -18 -19 20 23 22 -22 -13 -23 -26 27 28 -25 -27
right_child=-2 2 -4 8 -6 6 7 -9 -10 -11 11 19 16 -15 15 -17 17 18 -20 -21 21 24 -24 26 25 29 -28 -29 -30 -31
leaf_value=0.020679781318146295 0.099365013789650847 0.037633252777542606 -0.0017786816750150391 -0.0013525291273517993 -0.0030261459000819821 0.0052407126029523328 -0.00064569502121840621 -0.0053514687655631596 0.019958356363990768 -0.0020807171098629878 -0.00082621674408383779 -0.0067135061712393839 5.0698657498850993e-05 -0.0057995555237780666 -0.0045430707280941247 0.0053269353402094688 -0.0015415030162882991 0.00030383083979112818 -0.003848721063660319 0.00010952791486461609 3.7673954759218764e-05 5.3104552527766749e-05 -0.005559269134889076 4.8100632399038e-05 -0.0015856366085629705 0.015435384666255478 6.4321334121867919e-05 -0.0031535236298790661 -0.0023327002459385673 -0.00029158811879712574
leaf_weight=43 204 36 15.999999999999998 10.999999999999998 11.999999999999998 33 10.000000000000002 15.999999999999998 109 11.999999999999998 11.999999999999998 12.999999999999998 95 11.999999999999998 14.000000000000002 12.999999999999998 9.9999999999999982 16.000000000000004 9.9999999999999982 92 10.000000000000002 80 10.999999999999998 74 10.999999999999998 87 240 10.999999999999998 12.999999999999998 578
leaf_count=43 204 36 16 11 12 33 10 16 109 12 12 13 95 12 14 13 10 16 10 92 10 80 11 74 11 87 240 11 13 578
internal_value=-6.82771e-05 -0.00067647 -0.0121053 -0.000141625 -0.005 -0.004375 -0.00591703 -0.0180769 0.000710059 -0.000208333 0.00033387 0.000454546 -0.00435961 -0.00819444 -0.00416667 -0.0135185 -0.00225191 -0.00888889 -0.00269231 0.000573771 0.000257092 -0.000469755 -0.0116667 0.0018661 -0.00015873 -0.000695266 0.00233728 -0.00112245 0.000402299 -0.000488722
internal_weight=1904 1700 76 1624 60 272 229 26 1352 48 1243 1232 203 72 60 27 131 36 26 1220 1128 777 21 351 756 676 338 98 87 665
internal_count=1904 1700 76 1624 60 272 229 26 1352 48 1243 1232 203 72 60 27 131 36 26 1220 1128 777 21 351 756 676 338 98 87 665
is_linear=0
shrinkage=0.05


Tree=15
num_leaves=31
num_cat=0
split_feature=8 8 1 6 44 31 13 8 41 37 44 31 31 13 43 38 37 16 42 8 10 10 18 38 32 6 6 34 1 24
split_gain=2.32256 3.92629 4.04444 2.75415 2.31657 1.62017 1.30667 1.13407 1.72188 0.921201 5.76517 0.839683 1.37143 0.630362 0.65928 0.809672 0.804605 1.15796 0.674326 0.611547 0.597906 1.06667 0.57383 0.769165 1.39752 1.11039 1.06124 0.790727 0.867427 0.75346
threshold=11624080.500000002 48139.500000000007 35.500000000000007 3.5000000000000004 -0.043161156518721447 0.13863932087073941 3.5000000000000004 11802.500000000002 -0.00015768605019638124 -0.080283459505613178 0.14297074960458717 0.010308412459332722 0.070757927672019189 3.5000000000000004 -0.027980682876133017 -0.0047912661216632695 0.012725409575062317 1.0000000180025095e-35 -0.0094154614817477857 274.00000000000006 1210825.0000000002 561611.50000000012 4.5000000000000009 0.00044105947201518518 0.0054904575813994284 24.500000000000004 30.500000000000004 -0.0080793342178181859 3.5000000000000004 1.0000000180025095e-35
decision_type=2 2 2 2 2 2 2 2 2 2 2 2 2 2 2 2 2 2 2 2 2 2 2 2 2 2 2 2 2 2
left_child=1 4 3 -3 5 7 -5 13 -9 10 -6 -10 -13 14 -1 16 -16 -18 -17 -11 21 -21 -22 29 -25 -26 -27 28 -28 -24
right_child=-2 2 -4 6 9 -7 -8 8 11 19 -12 12 -14 -15 15 18 17 -19 -20 20 22 -23 23 24 25 26 27 -29 -30 -31
leaf_value=0.00017590010744251638 0.094691079411650406 0.03855648170486322 -0.001796273120547988 -0.0045673050469820847 3.5443689331975005e-05 0.00010119753268831079 -0.0016689879779282183 0.015035369257290924 -0.0014981656533565191 6.8134342991491378e-05 -0.00099359040083403494 -0.0004787418755225919 -0.0043678969083930886 0.026050429770598779 -0.0037133002027982124 1.7908404640681542e-05 -0.00013791407859344156 -0.0037213696304478567 -0.0013559795906147292 0.00026966778351112546 5.0611334146607811e-05 -0.0053040526584837129 1.7783188159275272e-05 -0.0026303138279547126 0.019407033637235456 -0.0016665772393331124 -0.0014287598915943235 0.032170244474629205 -0.0028474083667624816 -0.00023324224986398303
leaf_weight=32 199 38 14.999999999999998 15.000000000000002 47 72 9.9999999999999982 15.999999999999998 9.9999999999999982 368 9.9999999999999982 20 14.999999999999998 33 9.9999999999999982 28 19 20 10.999999999999998 20.000000000000004 321 9.9999999999999982 404 11.999999999999998 38 15.999999999999998 9.9999999999999982 31 31 17
leaf_count=32 199 38 15 15 47 72 10 16 10 368 10 20 15 33 10 28 19 20 11 20 321 10 404 12 38 16 10 31 31 17
internal_value=-0.000110643 -0.000709241 -0.0116667 -0.00611111 -0.000181986 -0.00426573 -0.019 -0.0064486 -0.0122131 0.000692884 -0.00552632 -0.0172222 -0.0135714 -0.00415033 -0.00583333 -0.00806818 -0.0123469 -0.00910256 -0.00269231 0.000970266 0.000274725 -0.00666667 0.000511364 -0.000456172 -0.00369565 -0.00214286 -0.00522727 -0.00263889 -0.00719512 0.000605701
internal_weight=1898 1699 78 63 1621 286 25 214 61 1335 57 45 35 153 120 88 49 39 39 1278 910 30 880 559 138 126 88 72 41 421
internal_count=1898 1699 78 63 1621 286 25 214 61 1335 57 45 35 153 120 88 49 39 39 1278 910 30 880 559 138 126 88 72 41 421
is_linear=0
shrinkage=0.05


end of trees

feature_importances:
Column_8=46
Column_6=39
Column_12=24
Column_41=24
Column_0=22
Column_44=22
Column_2=21
Column_10=21
Column_35=20
Column_9=19
Column_39=18
Column_32=16
Column_38=16
Column_1=14
Column_31=14
Column_36=14
Column_37=14
Column_42=14
Column_13=13
Column_40=12
Column_43=12
Column_18=11
Column_45=11
Column_46=9
Column_16=7
Column_11=6
Column_33=6
Column_34=5
Column_14=3
Column_15=2
Column_7=1
Column_21=1
Column_23=1
Column_24=1
Column_25=1

parameters:
[boosting: gbdt]
[objective: quantile]
[metric: quantile]
[tree_learner: serial]
[device_type: cpu]
[data_sample_strategy: bagging]
[data: ]
[valid: ]
[num_iterations: 200]
[learning_rate: 0.05]
[num_leaves: 31]
[num_threads: 0]
[seed: 0]
[deterministic: 0]
[force_col_wise: 0]
[force_row_wise: 0]
[histogram_pool_size: -1]
[max_depth: -1]
[min_data_in_leaf: 10]
[min_sum_hessian_in_leaf: 0.001]
[bagging_fraction: 0.85]
[pos_bagging_fraction: 1]
[neg_bagging_fraction: 1]
[bagging_freq: 1]
[bagging_seed: 3]
[bagging_by_query: 0]
[feature_fraction: 0.85]
[feature_fraction_bynode: 1]
[feature_fraction_seed: 2]
[extra_trees: 0]
[extra_seed: 6]
[early_stopping_round: 0]
[early_stopping_min_delta: 0]
[first_metric_only: 0]
[max_delta_step: 0]
[lambda_l1: 0]
[lambda_l2: 0]
[linear_lambda: 0]
[min_gain_to_split: 0]
[drop_rate: 0.1]
[max_drop: 50]
[skip_drop: 0.5]
[xgboost_dart_mode: 0]
[uniform_drop: 0]
[drop_seed: 4]
[top_rate: 0.2]
[other_rate: 0.1]
[min_data_per_group: 100]
[max_cat_threshold: 32]
[cat_l2: 10]
[cat_smooth: 10]
[max_cat_to_onehot: 4]
[top_k: 20]
[monotone_constraints: ]
[monotone_constraints_method: basic]
[monotone_penalty: 0]
[feature_contri: ]
[forcedsplits_filename: ]
[refit_decay_rate: 0.9]
[cegb_tradeoff: 1]
[cegb_penalty_split: 0]
[cegb_penalty_feature_lazy: ]
[cegb_penalty_feature_coupled: ]
[path_smooth: 0]
[interaction_constraints: ]
[verbosity: -1]
[saved_feature_importance_type: 0]
[use_quantized_grad: 0]
[num_grad_quant_bins: 4]
[quant_train_renew_leaf: 0]
[stochastic_rounding: 1]
[linear_tree: 0]
[max_bin: 255]
[max_bin_by_feature: ]
[min_data_in_bin: 3]
[bin_construct_sample_cnt: 200000]
[data_random_seed: 1]
[is_enable_sparse: 1]
[enable_bundle: 1]
[use_missing: 1]
[zero_as_missing: 0]
[feature_pre_filter: 1]
[pre_partition: 0]
[two_round: 0]
[header: 0]
[label_column: ]
[weight_column: ]
[group_column: ]
[ignore_column: ]
[categorical_feature: ]
[forcedbins_filename: ]
[precise_float_parser: 0]
[parser_config_file: ]
[objective_seed: 5]
[num_class: 1]
[is_unbalance: 0]
[scale_pos_weight: 1]
[sigmoid: 1]
[boost_from_average: 1]
[reg_sqrt: 0]
[alpha: 0.1]
[fair_c: 1]
[poisson_max_delta_step: 0.7]
[tweedie_variance_power: 1.5]
[lambdarank_truncation_level: 30]
[lambdarank_norm: 1]
[label_gain: ]
[lambdarank_position_bias_regularization: 0]
[eval_at: ]
[multi_error_top_k: 1]
[auc_mu_weights: ]
[num_machines: 1]
[local_listen_port: 12400]
[time_out: 120]
[machine_list_filename: ]
[machines: ]
[gpu_platform_id: -1]
[gpu_device_id: -1]
[gpu_use_dp: 0]
[num_gpu: 1]

end of parameters

pandas_categorical:null
