tree
version=v4
num_class=1
num_tree_per_iteration=1
label_index=0
max_feature_idx=17
objective=quantile
feature_names=Column_0 Column_1 Column_2 Column_3 Column_4 Column_5 Column_6 Column_7 Column_8 Column_9 Column_10 Column_11 Column_12 Column_13 Column_14 Column_15 Column_16 Column_17
feature_infos=[1:419128] [1:10338] [1:105057] [0:1] [0:800] none [0:250] [0:1] [0:976023576] [0:6526440] [0:951432192] [0:982550016] [1:18] [0:6] [0:1] [0:1] [-1:6] none
tree_sizes=2794 2867 2906 2878 2852 2877 2948 2924 2890 2898 2916 2906 2919 2916 2890 2872 2828 2879 2873 2885 2877 2880 2941 2926

Tree=0
num_leaves=31
num_cat=0
split_feature=8 2 14 3 1 10 8 2 2 9 7 2 13 4 8 10 2 2 2 1 8 10 12 10 9 10 10 16 1 10
split_gain=57.9909 16.4525 18.0749 7.68292 7.14541 5.15447 4.50471 3.83477 3.21804 2.89409 2.77247 2.27042 2.51766 2.05851 1.94803 1.69029 1.53275 1.46667 2.04848 1.41176 1.35126 1.74195 1.28379 1.32036 1.53403 1.25 1.16959 1.18596 2.00784 1.23509
threshold=8050941.0000000009 10.500000000000002 1.0000000180025095e-35 1.0000000180025095e-35 14.500000000000002 26806749.500000004 584007.00000000012 19.500000000000004 32.500000000000007 3616.0000000000005 1.0000000180025095e-35 145.50000000000003 1.5000000000000002 13.500000000000002 15398.000000000002 39906015.500000007 115.50000000000001 102.50000000000001 85.500000000000014 2.5000000000000004 372.50000000000006 175486869.50000003 14.500000000000002 97803809.000000015 203461.50000000003 13295012.500000002 37239262.000000007 1.0000000180025095e-35 5.5000000000000009 19567393.000000004
decision_type=2 2 2 2 2 2 2 2 2 2 2 2 2 2 2 2 2 2 2 2 2 2 2 2 2 2 2 2 2 2
left_child=1 6 3 4 8 10 -1 14 9 -3 13 16 -13 -6 19 -14 17 18 -7 -4 -11 22 23 24 26 -15 27 29 -29 -22
right_child=-2 2 7 -5 5 11 -8 -9 -10 20 -12 12 15 25 -16 -17 -18 -19 -20 -21 21 -23 -24 -25 -26 -27 -28 28 -30 -31
leaf_value=1.5636234045028687 1.7679222106933594 1.6532113790512084 1.6185540199279784 1.6659820199012756 1.5289660453796388 1.6094379425048828 1.6899098396301269 1.6532113790512084 1.6262615501880646 1.5737600326538086 1.6408994674682618 1.6532113790512084 1.6295998364686965 1.6295998364686965 1.6440953016281128 1.5982807636260987 1.5289660453796388 1.6388272762298584 1.5289660453796388 1.5910887122154236 1.6094379425048828 1.5838966608047484 1.5636234045028687 1.6262615501880646 1.5838966608047484 1.5289660453796388 1.6295998364686965 1.6262615501880646 1.5737600326538086 1.5289660453796388
leaf_weight=496 201 25 102 62 179 33 10.999999999999998 214 137 44 18 20 9.9999999999999982 10.000000000000002 43 41 27 10.999999999999998 22 34 19.000000000000004 13.999999999999998 9.9999999999999982 18 14.999999999999998 9.9999999999999982 24 17.000000000000004 9.9999999999999982 10.999999999999998
leaf_count=496 201 25 102 62 179 33 11 214 137 44 18 20 10 10 43 41 27 11 22 34 19 14 10 18 15 10 24 17 10 11
internal_value=1.6088 1.60578 1.60901 1.60464 1.6032 1.59848 1.59824 1.61777 1.60842 1.60449 1.59342 1.60517 1.6119 1.59172 1.61237 1.60601 1.60003 1.60413 1.6008 1.60944 1.6023 1.60473 1.60662 1.60812 1.60579 1.60694 1.60851 1.60461 1.61222 1.59777
internal_weight=1888 1687 1180 787 725 381 507 393 344 207 217 164 71 199 179 51 93 66 55 136 182 138 124 114 96 20 81 57 27 30
internal_count=1888 1687 1180 787 725 381 507 393 344 207 217 164 71 199 179 51 93 66 55 136 182 138 124 114 96 20 81 57 27 30
is_linear=0
shrinkage=1


Tree=1
num_leaves=31
num_cat=0
split_feature=8 2 1 2 10 8 11 6 2 10 14 8 14 12 1 8 11 6 10 6 8 10 10 1 6 10 2 1 9 8
split_gain=51.2767 14.8082 13.3382 8.17308 4.40932 3.68955 3.39374 3.24242 3.70792 2.98885 2.78076 2.68357 2.29241 2.07916 1.55239 1.45882 1.38789 1.51411 1.45089 1.31418 2.02313 1.5291 1.8992 1.27062 1.26999 1.65134 1.84879 1.34127 1.33333 1.51806
threshold=8050941.0000000009 10.500000000000002 15.500000000000002 164.50000000000003 26806749.500000004 254.00000000000003 19710541.000000004 1.5000000000000002 35.500000000000007 503728.00000000006 1.0000000180025095e-35 87647.000000000015 1.0000000180025095e-35 11.500000000000002 32.500000000000007 925.50000000000011 55180449.500000007 13.500000000000002 133118051.50000001 143.50000000000003 7820.0000000000009 63379200.000000007 38973005.500000007 16.500000000000004 3.5000000000000004 11831569.000000002 22.500000000000004 3.5000000000000004 77602.500000000015 1485.0000000000002
decision_type=2 2 2 2 2 2 2 2 2 2 2 2 2 2 2 2 2 2 2 2 2 2 2 2 2 2 2 2 2 2
left_child=1 11 7 6 5 13 -4 -3 9 -9 -10 -1 24 -5 15 -8 17 -14 -18 20 21 22 -6 -17 -11 27 -27 -26 -28 -30
right_child=-2 2 3 4 19 -7 14 8 10 12 -12 -13 16 -15 -16 23 18 -19 -20 -21 -22 -23 -24 -25 25 26 28 -29 29 -31
leaf_value=-0.043523811101913459 0.15056005477905277 0.041584764719009404 -0.041790943145751963 0.037849793434143068 0.045259093269705779 -0.047732187286019329 -0.076448302268981944 -0.036313515007495877 0.022658999860286713 0.042159974575042725 0.052741943597793585 0.062726454734802248 0.023044376373291021 -0.076448302268981944 -0.041790943145751963 -0.045814538002014162 0.042679100632667548 -0.010239717364311219 0.008708374202251434 0.041584764719009404 -0.0067132619023323077 0.097246789336204537 -0.010599319934844975 0.015729271769523625 -0.044030642509460455 0.0081914398819208142 0.012549252361059188 -0.01787787273526192 -0.043523811101913459 -0.0098801147937774628
leaf_weight=484 200 116 101 27 16.000000000000004 72 21 13.999999999999998 104 9.9999999999999982 69 17 64 22 19 10.999999999999998 46 78 50 19 46 21 10.999999999999998 56 18 62 9.9999999999999982 24 21 29
leaf_count=484 200 116 101 27 16 72 21 14 104 10 69 17 64 22 19 11 46 78 50 19 46 21 11 56 18 62 10 24 21 29
internal_value=0.00083423 -0.00205066 0.00105877 -0.00576923 0.000641026 -0.00599174 -0.0129808 0.00527972 0.003798 0.00129108 0.0099711 -0.00923154 0.00206311 0.00459184 -0.0067757 -0.00397727 0.0052521 0.00211268 0.00989583 0.00774336 0.00531915 0.0125 0.00462963 -0.000373134 -0.00229885 -0.00335366 -0.000409836 -0.0119048 -0.00666667 -0.01
internal_weight=1858 1658 1157 442 234 121 208 715 599 426 173 501 412 49 107 88 238 142 96 113 94 48 27 67 174 164 122 42 60 50
internal_count=1858 1658 1157 442 234 121 208 715 599 426 173 501 412 49 107 88 238 142 96 113 94 48 27 67 174 164 122 42 60 50
is_linear=0
shrinkage=0.05


Tree=2
num_leaves=31
num_cat=0
split_feature=8 2 0 2 3 8 2 0 9 9 12 9 2 0 0 8 10 6 8 11 6 6 2 9 13 0 12 2 2 10
split_gain=56.3947 12.4381 10.9521 9.65754 4.49391 3.64841 2.97921 2.94234 2.62585 2.61467 2.5878 2.47408 2.29616 5.33838 2.26741 2.05594 1.87656 2.18092 2.16891 1.73856 2.48966 2.02785 2.12144 1.84153 1.67011 1.6496 2.71575 1.90362 1.64902 1.64308
threshold=8050941.0000000009 11.500000000000002 337.50000000000006 154.50000000000003 1.0000000180025095e-35 584007.00000000012 87.500000000000014 197.00000000000003 3616.0000000000005 464651.50000000006 15.500000000000002 6233.0000000000009 29.500000000000004 69.500000000000014 649.50000000000011 46226.500000000007 47339786.000000007 7.5000000000000009 2235.5000000000005 23633740.000000004 16.500000000000004 10.500000000000002 5.5000000000000009 49447.000000000007 2.5000000000000004 120.50000000000001 3.5000000000000004 54.500000000000007 9.5000000000000018 29081777.500000004
decision_type=2 2 2 2 2 2 2 2 2 2 2 2 2 2 2 2 2 2 2 2 2 2 2 2 2 2 2 2 2 2
left_child=1 5 6 9 10 19 7 8 -3 -4 14 -10 13 16 -5 -11 17 -13 -19 21 -21 22 -1 -24 -22 26 -14 -27 -26 -16
right_child=-2 2 3 4 -6 -7 -8 -9 11 15 -12 12 25 -15 29 -17 -18 18 -20 20 24 -23 23 -25 28 27 -28 -29 -30 -31
leaf_value=-0.041347620546817787 0.14303205204010011 0.035154959619045266 -0.072625887155532851 0.044654546357691297 0.052439074650406842 0.059590131998062137 0.047452638790011409 -0.0090676317214965826 -0.030367050707340238 0.021526049867272381 -0.074061692904680981 0.021892157554626469 -0.022088027060031892 -0.033606502741575249 -0.019131077479571115 -0.074358755111694347 0.014655321016907696 0.0091722594201564811 -0.024111834317445759 0.024535918086767194 -0.021074364244937905 -0.041347620546817787 -0.0066902614235878066 -0.041347620546817787 -0.041347620546817787 -0.001974130377173422 0.031614497672766452 0.049805844403803354 0.014655321016907696 0.0048481673598289587
leaf_weight=71 208 81 146 13.999999999999998 66 12.999999999999998 36 53 10.999999999999998 11.000000000000002 28 58 10.999999999999998 50 77 12.999999999999998 121 81 53 15.999999999999998 143 91 93 9.9999999999999982 85 59 94 24 17 61
leaf_count=71 208 81 146 14 66 13 36 53 11 11 28 58 11 50 77 13 121 81 53 16 143 91 93 10 85 59 94 24 17 61
internal_value=0.000435356 -0.00259336 0.000348432 -0.00612981 0.000203252 -0.008859 0.00403005 0.0033046 0.00423795 -0.0152941 -0.00388889 0.00302491 0.00349365 0.0011708 -0.00131579 0 0.00359425 0.000520833 -0.00298507 -0.0095057 -0.0066092 -0.0123585 -0.0091954 -0.00461165 -0.00785714 0.00797872 0.0121429 0.00271084 -0.0127451 -0.00326087
internal_weight=1895 1687 1148 416 246 539 732 696 643 170 180 562 551 363 152 24 313 192 134 526 261 265 174 103 245 188 105 83 102 138
internal_count=1895 1687 1148 416 246 539 732 696 643 170 180 562 551 363 152 24 313 192 134 526 261 265 174 103 245 188 105 83 102 138
is_linear=0
shrinkage=0.05


Tree=3
num_leaves=31
num_cat=0
split_feature=8 2 14 3 0 11 2 6 2 8 1 2 8 2 6 11 6 11 6 13 4 0 6 11 2 6 1 8 6 8
split_gain=51.4195 13.9324 12.2103 4.68251 7.68742 3.62774 3.47829 3.20288 2.92033 2.69203 2.14388 2.24895 2.07525 2.1686 2.05148 1.78104 2.43171 1.85765 1.79643 1.62709 1.78603 1.60405 2.52465 2.25313 1.85921 1.91838 1.50767 1.50134 1.49927 1.42492
threshold=8050941.0000000009 11.500000000000002 1.0000000180025095e-35 1.0000000180025095e-35 337.50000000000006 30857101.500000004 145.50000000000003 2.5000000000000004 36.500000000000007 941104.50000000012 1.5000000000000002 19.500000000000004 30.500000000000004 519.50000000000011 90.500000000000014 29964122.500000004 74.500000000000014 251014213.50000003 21.500000000000004 1.5000000000000002 14.500000000000002 13.500000000000002 102.50000000000001 24476852.000000004 1.5000000000000002 4.5000000000000009 90.500000000000014 9118.5000000000018 10.500000000000002 298.50000000000006
decision_type=2 2 2 2 2 2 2 2 2 2 2 2 2 2 2 2 2 2 2 2 2 2 2 2 2 2 2 2 2 2
left_child=1 9 3 4 7 12 14 -3 10 21 -4 -12 -6 -14 -7 18 -17 -18 -9 -8 26 24 23 28 25 -1 27 -21 -23 -13
right_child=-2 2 8 -5 5 6 19 15 -10 -11 11 29 13 -15 -16 16 17 -19 -20 20 -22 22 -24 -25 -26 -27 -28 -29 -30 -31
leaf_value=-0.039280239519476901 0.1358804494380951 0.039095269945263855 0.024123421914875511 0.045918810757622129 0.009744436371326437 -0.068994592797756202 0.03926311811506749 -0.0073749883964657759 0.057640198957361291 0.060885456216335301 -0.0092087724730372418 0.039748843517899528 -0.070358608259446939 -0.018174523605592553 -0.019019342479109771 0.017240184771269564 -0.011343358846753832 0.025834478464163847 -0.076101529020071043 -0.018498973191715791 -0.037109081880375754 -0.020739851173758518 -0.040293902334570898 0.0055206356674432633 -0.039280239519476901 0.016209964103996746 0.019986722514778378 0.020226297396421424 -0.039280239519476901 0.018291224819049247
leaf_weight=9.9999999999999982 195 59 74 64 10.999999999999998 26 21 117 97 12.999999999999998 96 24 130 45 31 110 64 19 26 10.000000000000002 9.9999999999999982 74 30 77 257 26 21 12.999999999999998 51 74
leaf_count=10 195 59 74 64 11 26 21 117 97 13 96 24 130 45 31 110 64 19 26 10 10 74 30 77 257 26 21 13 51 74
internal_value=0.00044 -0.00238095 0.000744308 -0.00279923 -0.00396213 -0.00974843 -0.00340909 0.000696203 0.00828767 -0.00901487 0.00559701 0.00283505 -0.0142473 -0.0155714 -0.0127193 -0.00119048 0.00194301 -0.00451807 -0.00541958 0.00366667 -0.000925926 -0.00957143 -0.00646552 -0.00445545 -0.0120307 -0.00138889 0.00340909 -0.00543478 -0.0086 0.00816327
internal_weight=1875 1680 1142 777 713 318 132 395 365 538 268 194 186 175 57 336 193 83 143 75 54 525 232 202 293 36 44 23 125 98
internal_count=1875 1680 1142 777 713 318 132 395 365 538 268 194 186 175 57 336 193 83 143 75 54 525 232 202 293 36 44 23 125 98
is_linear=0
shrinkage=0.05


Tree=4
num_leaves=31
num_cat=0
split_feature=8 2 14 3 1 2 8 0 6 11 6 6 2 13 6 0 8 10 6 12 8 11 12 11 12 10 6 2 13 10
split_gain=51.2344 13.8526 12.5608 4.64805 7.08119 4.37659 3.91551 3.68793 3.24523 2.85101 3.13866 2.72972 3.10205 2.1742 2.14892 2.00806 1.87344 1.72528 3.22238 1.63651 1.63017 1.7622 1.54194 1.96078 1.49294 1.46944 1.4578 1.86928 1.68297 1.35973
threshold=8050941.0000000009 11.500000000000002 1.0000000180025095e-35 1.0000000180025095e-35 14.500000000000002 32.500000000000007 87647.000000000015 51.500000000000007 5.5000000000000009 24476852.000000004 23.500000000000004 143.50000000000003 106.50000000000001 2.5000000000000004 1.0000000180025095e-35 77.500000000000014 15398.000000000002 26806749.500000004 117.50000000000001 4.5000000000000009 12281.000000000002 166020786.50000003 10.500000000000002 41900362.500000007 6.5000000000000009 293110.00000000006 10.500000000000002 5.5000000000000009 2.5000000000000004 13295012.500000002
decision_type=2 2 2 2 2 2 2 2 2 2 2 2 2 2 2 2 2 2 2 2 2 2 2 2 2 2 2 2 2 2
left_child=1 6 3 4 5 8 9 16 -3 26 -11 14 -13 24 -6 29 25 -16 22 -9 -15 -22 23 -19 -12 -4 27 -1 -29 -10
right_child=-2 2 7 -5 11 -7 -8 19 15 10 13 12 -14 20 17 -17 -18 18 -20 -21 21 -23 -24 -25 -26 -27 -28 28 -30 -31
leaf_value=-0.037316227543503055 0.12908642696619035 0.021918029662780471 0.050077713232859977 0.046221871500704448 0.036426635817848156 0.021993505805954341 0.05356635258734227 0.023553156954403978 -0.024737251614555714 0.019253231028839937 -0.038329890358597053 -0.056268949498757714 0.041150213128700854 -0.037316227543503055 -0.066840677846474586 -0.040113790282495322 0.03160749895216898 0.027839567416794598 -0.044884910164419561 0.043560349009335059 0.013661165491715067 -0.071973586666733036 -0.065544863157868394 -0.0063320851558446916 -0.005912574994713083 -0.0012746027463208798 -0.056850274834185845 -0.024224732089191681 0.0085091341255605132 -0.00072728319849817429
leaf_weight=68 193 40 15.999999999999998 68 14.999999999999998 147 18 27 23 35 28 18 20 51 199 45 51 17 20 132 15.999999999999998 25 42 51 101 144 102 54 44 79
leaf_count=68 193 40 16 68 15 147 18 27 23 35 28 18 20 51 199 45 51 17 20 132 16 25 42 51 101 144 102 54 44 79
internal_value=0.000330863 -0.00244693 0.000649913 -0.00293367 -0.00412011 0.0011976 -0.00904059 0.00824324 -0.00387701 -0.00982824 -0.00605469 -0.00876963 0.00394737 -0.00825792 -0.0101744 -0.00731293 0.00390995 -0.0110182 -0.00653846 0.0139937 -0.0141304 -0.00670732 -0.00318182 0.00147059 -0.00406977 0.00125 -0.0134328 -0.0105422 -0.00612245 -0.00343137
internal_weight=1889 1696 1154 784 716 334 542 370 187 524 256 382 38 221 344 147 211 329 130 159 92 41 110 68 129 160 268 166 98 102
internal_count=1889 1696 1154 784 716 334 542 370 187 524 256 382 38 221 344 147 211 329 130 159 92 41 110 68 129 160 268 166 98 102
is_linear=0
shrinkage=0.05


Tree=5
num_leaves=31
num_cat=0
split_feature=8 2 14 1 2 6 8 2 6 2 8 2 6 6 10 2 2 2 8 8 16 12 10 10 10 6 8 8 2 1
split_gain=53.7498 15.8507 9.44717 4.07938 6.86733 4.13265 3.38588 2.69028 2.6004 2.89679 2.11054 2.08092 1.93366 3.00312 2.44126 1.88366 1.79581 1.98929 2.43652 1.68641 1.98395 1.94194 1.58402 1.51618 2.28513 1.69975 1.5159 2.25481 1.47059 1.44118
threshold=8050941.0000000009 12.500000000000002 1.0000000180025095e-35 14.500000000000002 651.50000000000011 157.50000000000003 941104.50000000012 22.500000000000004 5.5000000000000009 32.500000000000007 13089.500000000002 18.500000000000004 1.5000000000000002 22.500000000000004 37828849.000000007 97.500000000000014 7.5000000000000009 1.5000000000000002 1013.5000000000001 45038.500000000007 1.0000000180025095e-35 5.5000000000000009 11831569.000000002 59484267.000000007 133118051.50000001 5.5000000000000009 4427.5000000000009 27780.000000000004 2897.5000000000005 555.50000000000011
decision_type=2 2 2 2 2 2 2 2 2 2 2 2 2 2 2 2 2 2 2 2 2 2 2 2 2 2 2 2 2 2
left_child=1 6 3 8 5 12 16 10 -3 11 23 22 -5 -14 -15 -7 17 18 -1 20 -18 -22 -10 25 -25 -4 28 -28 29 -6
right_child=-2 2 7 4 26 15 -8 -9 9 -11 -12 -13 13 14 -16 -17 19 -19 -20 -21 21 -23 -24 24 -26 -27 27 -29 -30 -31
leaf_value=-0.036349320074647674 0.12263210561788083 0.035733389178428797 0.017922240762305908 0.0016406406118681105 0.012239401027940201 -0.066675223014403137 0.055162865776151426 0.038379528667584074 -0.032091250194136049 0.017528856786496939 0.029416345175477684 -0.021268971439344798 -0.063498643954150863 0.010962530812675592 -0.023926477361071868 0.041093767488058652 -0.02584841851963848 -0.035450416166327901 0.028505946456424881 -0.068324224192641683 -0.018491622010611008 0.013369861778970328 0.014014444175442675 0.043310600665850102 -0.018762417467790185 -0.013017643232005183 -0.017400735515956538 0.057179288295253185 0.058506158200248161 -0.053484120352969504
leaf_weight=15.999999999999998 215 78 31 30 17 11.000000000000002 14.999999999999998 184 9.9999999999999982 104 40 83 135 22 96 18 110 311 23 19 14.999999999999998 74 47 23 13.999999999999998 48 44 21 34 17
leaf_count=16 215 78 31 30 17 11 15 184 10 104 40 83 135 22 96 18 110 311 23 19 15 74 47 23 14 48 44 21 34 17
internal_value=0.00122047 -0.00177515 0.00173893 -0.00133638 -0.0044382 -0.00849359 -0.00844768 0.00867647 0.00295031 0.000409836 0.00384615 -0.00428571 -0.0103357 -0.0117589 -0.0059322 0.00948276 -0.0090669 -0.0112857 -0.000641026 -0.00550459 -0.00414573 0.00140449 0.00307018 0.000431034 0.00878378 -0.00348101 0.00507519 -0.000384615 0.0102941 0.00294118
internal_weight=1905 1690 1107 767 445 312 583 340 322 244 156 140 283 253 118 29 568 350 39 218 199 89 57 116 37 79 133 65 68 34
internal_count=1905 1690 1107 767 445 312 583 340 322 244 156 140 283 253 118 29 568 350 39 218 199 89 57 116 37 79 133 65 68 34
is_linear=0
shrinkage=0.05


Tree=6
num_leaves=31
num_cat=0
split_feature=8 2 14 3 0 2 12 0 8 8 8 6 2 6 8 6 1 6 6 6 0 2 10 11 10 0 8 6 10 1
split_gain=49.1602 9.48911 10.7736 4.37425 5.92268 3.45216 3.56887 2.4972 2.41764 2.01428 3.17053 1.98352 1.88863 1.86787 1.75037 1.66736 1.57857 1.57022 1.79893 1.42655 1.35445 2.27495 1.31765 1.3 1.19796 1.19271 1.18768 1.1484 2.22072 1.49334
threshold=8050941.0000000009 11.500000000000002 1.0000000180025095e-35 1.0000000180025095e-35 337.50000000000006 146.50000000000003 14.500000000000002 51.500000000000007 87647.000000000015 15398.000000000002 4729.5000000000009 143.50000000000003 88.500000000000014 90.500000000000014 45.500000000000007 4.5000000000000009 203.50000000000003 24.500000000000004 34.500000000000007 26.500000000000004 2.5000000000000004 5.5000000000000009 38973005.500000007 163354508.00000003 59484267.000000007 28.500000000000004 46226.500000000007 2.5000000000000004 12424474.000000002 8.5000000000000018
decision_type=2 2 2 2 2 2 2 2 2 2 2 2 2 2 2 2 2 2 2 2 2 2 2 2 2 2 2 2 2 2
left_child=1 8 3 4 12 6 13 9 20 10 23 14 27 -6 -7 -16 17 -17 -19 -18 -1 -22 -12 24 -4 -23 -15 29 -29 -3
right_child=-2 2 7 -5 5 11 -8 -9 -10 -11 22 -13 -14 26 15 16 19 18 -20 -21 21 25 -24 -25 -26 -27 -28 28 -30 -31
leaf_value=0.0035804688891578396 0.11650050033698678 0.039832751138173597 0.0098886973717168258 0.039686161136355869 -0.060692564250914086 0.080458280383879241 0.0086221539955458788 0.034919432123128695 0.04812989166916759 0.026567577935042282 -0.044211018226210749 0.035188828194268974 0.033554008198035973 -0.005824505993053692 -0.060692564250914086 -0.060323711756443313 0.01620502934985343 0.017047281477565956 -0.012902390518349977 -0.016319192596740455 -0.033677895358011516 -0.014294110956594731 -0.0092754487133723806 -0.0061266641252898492 0.03664812173238139 -0.068320141836211462 -0.066249280855879555 -0.017987917140493827 0.0022624007541965307 -0.010862992483542666
leaf_weight=33 201 34 89 69 87 9.9999999999999982 25 160 18 54 20 13.999999999999998 18 20.000000000000004 15.999999999999998 52 33 10.999999999999998 34 13.999999999999998 188 281 13.999999999999998 12.999999999999998 28 15.999999999999998 10.999999999999998 76 226 23
leaf_count=33 201 34 89 69 87 10 25 160 18 54 20 14 18 20 16 52 33 11 34 14 188 281 14 13 28 16 11 76 226 23
internal_value=0.00137712 -0.00140782 0.00115117 -0.00223157 -0.00340909 -0.00833333 -0.0141608 0.00806878 -0.00690299 0.00458716 0.00182927 -0.00380435 0.000862069 -0.0177966 -0.00529412 -0.0065625 -0.00486111 -0.00850515 -0.00166667 0.00265957 -0.00752896 -0.00819588 -0.0117647 0.00538462 0.00705128 -0.00547138 -0.00725806 6.96379e-05 -0.00115894 0.00657895
internal_weight=1888 1687 1151 773 704 327 143 378 536 218 164 184 377 118 170 160 144 97 45 47 518 485 34 130 117 297 31 359 302 57
internal_count=1888 1687 1151 773 704 327 143 378 536 218 164 184 377 118 170 160 144 97 45 47 518 485 34 130 117 297 31 359 302 57
is_linear=0
shrinkage=0.05


Tree=7
num_leaves=31
num_cat=0
split_feature=8 0 14 2 1 0 6 2 6 6 10 10 9 0 8 1 2 8 1 0 0 2 8 13 8 10 2 12 6 0
split_gain=51.1645 8.80271 6.84509 5.70064 3.40647 5.31825 4.11013 3.50563 3.74094 2.04429 2.46652 1.98171 1.91491 1.69647 2.13658 1.34598 2.1681 1.32458 1.38846 1.24955 2.36628 1.98797 1.73191 1.65202 1.32382 1.23509 1.22663 1.31139 1.29213 1.1027
threshold=5875011.0000000009 13.500000000000002 1.0000000180025095e-35 19.500000000000004 261.50000000000006 337.50000000000006 175.50000000000003 29.500000000000004 2.5000000000000004 28.500000000000004 37828849.000000007 316476.00000000006 80750.500000000015 2.5000000000000004 1013.5000000000001 28.500000000000004 83.500000000000014 366.00000000000006 737.00000000000011 77.500000000000014 44.500000000000007 20.500000000000004 1688.0000000000002 2.5000000000000004 11602.500000000002 173627.50000000003 37.500000000000007 4.5000000000000009 121.50000000000001 120.50000000000001
decision_type=2 2 2 2 2 2 2 2 2 2 2 2 2 2 2 2 2 2 2 2 2 2 2 2 2 2 2 2 2 2
left_child=1 13 4 -4 5 7 9 8 25 11 -11 -7 17 14 -1 16 29 -6 -19 20 23 22 -22 -10 -21 -3 28 -28 -5 -9
right_child=-2 2 3 26 12 6 -8 15 19 10 -12 -13 -14 -15 -16 -17 -18 18 -20 24 21 -23 -24 -25 -26 -27 27 -29 -30 -31
leaf_value=-0.033811973607053417 0.11067547532013744 0.026568239641860669 0.00014463420850918673 0.019274950405746505 0.030443844590241242 0.001326071927065864 0.039128823607536167 0.018504987466267133 -0.013602230041886477 0.01291593399857513 -0.03506778584816761 -0.057657936038368378 0.036402160677875599 -0.031994000590110941 0.026901625689145749 -0.027886406899512675 0.053664297943701346 0.0050083692673560283 -0.04355967886212421 -0.037157772234113144 0.039106484709607751 -0.016854901492295772 0.0053261573548430644 -0.064193307435179855 -0.0059947737937351532 0.060881470081881217 0.036440295704356175 0.048091406481513548 -0.010475900123870048 0.0012792189608561767
leaf_weight=11.999999999999998 209 19.000000000000004 301 105 20 17 10.999999999999998 67 61 15.999999999999998 98 132 62 270 25 21 17 10.000000000000002 15.999999999999998 27 12.999999999999998 37 19 49 9.9999999999999982 10.999999999999998 21 81 9.9999999999999982 123
leaf_count=12 209 19 301 105 20 17 11 67 61 16 98 132 62 270 25 21 17 10 16 27 13 37 19 49 10 11 21 81 10 123
internal_value=0.00119048 -0.00171029 0 0.00453668 -0.00274533 -0.00394385 -0.00948905 -0.000738397 -0.00487805 -0.0107414 -0.00570175 -0.0145973 0.00555556 -0.00936482 0.000675676 0.00372807 0.00495169 -0.00217391 -0.00961538 -0.00717593 -0.00544693 0.00181159 0.0109375 -0.01 -0.0155405 0.0116667 0.0107143 0.0147059 0.00717391 0.00342105
internal_weight=1890 1681 1374 518 856 748 274 474 246 263 114 149 108 307 37 228 207 46 26 216 179 69 32 110 37 30 217 102 115 190
internal_count=1890 1681 1374 518 856 748 274 474 246 263 114 149 108 307 37 228 207 46 26 216 179 69 32 110 37 30 217 102 115 190
is_linear=0
shrinkage=0.05


Tree=8
num_leaves=31
num_cat=0
split_feature=8 2 14 0 1 11 2 8 11 9 2 12 0 12 13 11 8 12 12 0 6 11 12 1 12 0 11 0 8 8
split_gain=50.2743 10.6187 7.72374 3.55168 6.01267 3.70166 2.64187 2.33321 2.21491 3.25077 2.08405 1.98127 2.20134 1.55576 1.58782 1.55813 1.497 1.23213 1.18874 1.91033 1.71621 2.93762 1.5285 1.16632 1.12522 1.47423 1.49085 1.91916 1.71388 1.45988
threshold=941104.50000000012 12.500000000000002 1.0000000180025095e-35 337.50000000000006 36.500000000000007 69211997.500000015 94.500000000000014 7645.0000000000009 9396238.5000000019 82989.000000000015 37.500000000000007 11.500000000000002 476.50000000000006 10.500000000000002 1.5000000000000002 27276951.500000004 298.50000000000006 4.5000000000000009 9.5000000000000018 204.50000000000003 11.500000000000002 37714338.000000007 11.500000000000002 3.5000000000000004 9.5000000000000018 2.5000000000000004 205830728.50000003 11.500000000000002 13379.000000000002 11738.000000000002
decision_type=2 2 2 2 2 2 2 2 2 2 2 2 2 2 2 2 2 2 2 2 2 2 2 2 2 2 2 2 2 2
left_child=1 24 3 6 11 7 18 13 9 -2 -4 -5 -13 15 -15 16 -6 -12 19 -3 -20 -22 -23 -24 -1 -26 27 -27 29 -29
right_child=8 2 10 4 5 -7 -8 -9 -10 -11 17 12 -14 14 -16 -17 -18 -19 20 -21 21 22 23 -25 25 26 -28 28 -30 -31
leaf_value=-0.030394300560605395 0.058100163335431602 0.0016847253830747479 0.010446111027900846 -0.054775039236449954 0.017162879265679162 0.027811619908967057 0.048970926570941348 -0.054406186741979182 0.10514170155413056 -0.0082610943792653883 0.017744382045567064 0.021219436413614613 -0.054964405176953605 0.011073943097687012 -0.027370348925861539 0.0358817450456443 -0.050616238449032618 0.042860822631862472 0.023165460878396119 -0.064725941813764634 -0.029390586767535198 0.021729111091648424 -0.010663620244420809 0.017843528733028691 0.024376614823403944 -0.029417598196071249 -0.037257254507131146 0.0033509831796766812 0.021340455735138982 -0.063434181197118619
leaf_weight=317 21 187 238 105 26 67 15.999999999999998 55 202 17 20 12.999999999999998 32 10.999999999999998 46 12.999999999999998 21 81 42 24 35 31 11.999999999999998 29 11.999999999999998 92 35 81 15.999999999999998 19
leaf_count=317 21 187 238 105 26 67 16 55 202 17 20 13 32 11 46 13 21 81 42 24 35 31 12 29 12 92 35 81 16 19
internal_value=0.00151357 -0.00155131 0.00131341 -0.00147059 -0.00482005 0.000104603 0.00199468 -0.00377907 0.0229167 0.0118421 0.00759587 -0.0126667 -0.00388889 0.000213675 -0.00570175 0.00583333 0.00159574 0.0136139 0.00111111 -0.00130332 0.0045302 0.00116822 0.00694444 0.000609756 -0.00708042 -0.00460784 -0.00545267 -0.00384615 0.000431034 -0.002
internal_weight=1916 1676 1104 765 389 239 376 172 240 38 339 150 45 117 57 60 47 101 360 211 149 107 72 41 572 255 243 208 116 100
internal_count=1916 1676 1104 765 389 239 376 172 240 38 339 150 45 117 57 60 47 101 360 211 149 107 72 41 572 255 243 208 116 100
is_linear=0
shrinkage=0.05


Tree=9
num_leaves=31
num_cat=0
split_feature=8 0 14 3 6 10 8 2 9 1 1 8 10 6 0 2 4 6 2 13 4 1 4 8 10 9 10 8 13 6
split_gain=50.0298 8.39345 6.77513 3.23132 3.55928 3.36394 2.55423 3.06535 2.46343 1.66327 2.50594 1.56448 1.53305 2.21316 1.51515 1.48328 1.72419 1.43605 1.40874 1.84169 1.32389 2.18525 2.487 3.40488 1.80526 1.91745 2.1709 1.59223 1.60502 1.48689
threshold=8050941.0000000009 18.500000000000004 1.0000000180025095e-35 1.0000000180025095e-35 1.5000000000000002 11831569.000000002 12783.500000000002 24.500000000000004 29800.500000000004 4.5000000000000009 9.5000000000000018 87647.000000000015 47339786.000000007 94.500000000000014 89.500000000000014 100.50000000000001 9.5000000000000018 45.500000000000007 5.5000000000000009 1.0000000180025095e-35 16.500000000000004 77.000000000000014 1.0000000180025095e-35 671.00000000000011 16779393.000000004 57294.500000000007 148045142.50000003 7820.0000000000009 1.5000000000000002 34.500000000000007
decision_type=2 2 2 2 2 2 2 2 2 2 2 2 2 2 2 2 2 2 2 2 2 2 2 2 2 2 2 2 2 2
left_child=1 11 3 4 14 8 7 12 15 -9 -11 18 -4 -14 -3 -6 -17 -5 19 -1 21 22 24 -24 -7 -26 -27 -23 -29 -25
right_child=-2 2 6 17 5 20 -8 9 -10 10 -12 -13 13 -15 -16 16 -18 -19 -20 -21 -22 27 23 29 25 26 -28 28 -30 -31
leaf_value=-0.0076734619843878086 0.099884616476424049 0.047750459738425975 -0.0070383723487357002 0.015427030501028338 -0.00036990867821711242 0.020749900498357111 0.031801891982492683 0.038693464793481555 -0.051704320029603769 -0.003765040437753631 0.046279061750818667 0.026493101064147841 0.023922536093474545 -0.011542081932095494 0.0090604689171287396 -0.05203628727462746 0.014674370030953378 0.063555689675701688 -0.013077475218049861 -0.028923420650801834 -0.021973724904053284 0.010491232532015549 -0.050298685169953374 0.016799372998173478 -0.058944417830266875 0.0052594917682310845 -0.011379578878640396 0.023263271772277095 -0.012821560435102831 -0.0181927803192584
leaf_weight=44 208 22 131 39 77 13.999999999999998 103 60 82 43 25 10.999999999999998 45 11.999999999999998 66 46 10.999999999999998 24 188 188 15.999999999999998 23 44 22 26 155 85 11.000000000000002 18 56
leaf_count=44 208 22 131 39 77 14 103 60 82 43 25 11 45 12 66 46 11 24 188 188 16 23 44 22 26 155 85 11 18 56
internal_value=0.00162269 -0.00122999 0.000835987 -0.00176225 -0.00264858 -0.00386297 0.00602625 0.00379747 -0.00902778 0.00976562 0.00441176 -0.00725058 -0.000265957 0.00657895 0.00681818 -0.00485075 -0.0109649 0.00912698 -0.0077381 -0.0103448 -0.00148936 -0.000991189 -0.00223881 -0.00819672 0.000357143 -0.00056391 0.000833333 0.00865385 0.000862069 -0.00192308
internal_weight=1895 1687 1256 837 774 686 419 316 216 128 68 431 188 57 88 134 57 63 420 232 470 454 402 122 280 266 240 52 29 78
internal_count=1895 1687 1256 837 774 686 419 316 216 128 68 431 188 57 88 134 57 63 420 232 470 454 402 122 280 266 240 52 29 78
is_linear=0
shrinkage=0.05


Tree=10
num_leaves=31
num_cat=0
split_feature=8 2 0 2 10 10 9 11 12 8 8 9 11 2 2 8 2 8 9 6 13 9 6 8 2 0 6 0 0 11
split_gain=48.0202 8.00447 5.34364 6.32201 2.54098 2.42236 2.6501 2.26581 1.87719 1.79873 2.22039 1.5149 1.91857 1.6399 1.47143 1.95165 3.46092 1.53368 1.77269 1.92128 1.73132 1.70455 1.57407 1.49211 1.33419 3.71567 2.30914 2.40341 2.30995 2.11368
threshold=941104.50000000012 11.500000000000002 387.00000000000006 148.50000000000003 47999399.500000007 7884706.0000000009 123299.50000000001 77435.500000000015 16.500000000000004 168.50000000000003 134.50000000000003 5760.0000000000009 4670173.5000000009 3490.0000000000005 5.5000000000000009 49.500000000000007 1.5000000000000002 45038.500000000007 92150.000000000015 10.500000000000002 2.5000000000000004 194869.00000000003 201.50000000000003 12938.000000000002 32.500000000000007 58.500000000000007 17.500000000000004 120.50000000000001 85.500000000000014 55180449.500000007
decision_type=2 2 2 2 2 2 2 2 2 2 2 2 2 2 2 2 2 2 2 2 2 2 2 2 2 2 2 2 2 2
left_child=1 14 7 -4 11 6 -2 -3 9 10 -9 -5 -13 -14 15 -1 -17 18 19 -16 21 -20 -19 -22 25 29 -26 28 -28 -11
right_child=5 2 3 4 -6 -7 -8 8 -10 24 -12 12 13 -15 17 16 -18 22 20 -21 23 -23 -24 -25 26 -27 27 -29 -30 -31
leaf_value=-0.06208577362326502 0.053870500115452628 0.027869102527060447 -0.049434472910896088 0.034734737684992516 0.024031109111046167 0.094890385652602841 -0.005262823658821936 -0.0042996182972807493 0.038850718615456019 0.0025544347577077468 -0.018359391490353139 -0.051746579954062094 -0.0078669986992762186 0.038940956697240854 -0.009198864357639714 0.023424025533489313 -0.027477249618261746 -0.064120349591624035 0.050420484662413723 -0.030226555457778782 -0.024591950743407531 0.0014652315702612662 0.0071244658002398431 0.016953191186987866 0.038566289027054397 -0.02162162954037098 -0.0073131929554137278 -0.00074851934585369877 0.028307973406544895 0.015826803843558074
leaf_weight=19 23 80 121 12.999999999999998 79 195 11.999999999999998 64 12.999999999999998 157 11.999999999999998 25 118 13.999999999999998 101 29 177 17.000000000000004 22 78 28 44 9.9999999999999982 9.9999999999999982 48 90 17 120 45 96
leaf_count=19 23 80 121 13 79 195 12 64 13 157 12 25 118 14 101 29 177 17 22 78 28 44 10 10 48 90 17 120 45 96
internal_value=0.00142515 -0.00156345 0.000854317 -0.00405405 0.000502008 0.0228261 0.0107143 0.00330189 0.00234139 0.00196456 -0.00526316 -0.00294118 -0.00429936 -0.00189394 -0.00658879 -0.00966667 -0.00825243 -0.00435484 -0.00326855 -0.00628492 0.00192308 0.00681818 -0.0157407 -0.00657895 0.00292321 0.000947522 0.00586957 0.0032967 0.0112903 0.00405138
internal_weight=1877 1647 1112 370 249 230 35 742 662 649 76 170 157 132 535 225 206 310 283 179 104 66 27 38 573 343 230 182 62 253
internal_count=1877 1647 1112 370 249 230 35 742 662 649 76 170 157 132 535 225 206 310 283 179 104 66 27 38 573 343 230 182 62 253
is_linear=0
shrinkage=0.05


Tree=11
num_leaves=31
num_cat=0
split_feature=8 2 14 2 0 2 6 2 2 6 11 10 8 8 6 10 0 0 13 6 10 10 6 6 10 6 10 8 10 0
split_gain=46.183 7.43083 6.46222 3.45002 3.84036 4.34847 3.23841 3.04662 2.49683 2.35978 2.01797 1.98527 1.79455 1.76933 2.67273 1.76205 1.75919 1.70046 1.69986 1.69145 1.75931 1.78883 1.59858 2.19301 1.58266 2.00123 1.97485 1.58037 1.55833 1.53277
threshold=11624080.500000002 10.500000000000002 1.0000000180025095e-35 2748.0000000000005 267.50000000000006 148.50000000000003 143.50000000000003 71.500000000000014 37.500000000000007 102.50000000000001 1972311.5000000002 8194651.5000000009 15398.000000000002 48139.500000000007 3.5000000000000004 47999399.500000007 13.500000000000002 387.00000000000006 1.0000000180025095e-35 2.5000000000000004 12424474.000000002 15915843.000000002 35.500000000000007 28.500000000000004 59484267.000000007 15.500000000000002 133118051.50000001 484.50000000000006 293110.00000000006 2.5000000000000004
decision_type=2 2 2 2 2 2 2 2 2 2 2 2 2 2 2 2 2 2 2 2 2 2 2 2 2 2 2 2 2 2
left_child=1 9 3 4 7 17 10 19 12 13 -7 -12 24 16 -15 27 29 -6 -14 28 -21 -22 23 -13 25 -4 -26 -5 -3 -1
right_child=-2 2 8 15 5 6 -8 -9 -10 -11 11 22 18 14 -16 -17 -18 -19 -20 20 21 -23 -24 -25 26 -27 -28 -29 -30 -31
leaf_value=0.005372396453351358 0.09014586636997271 0.018087114017608649 0.0081619879128860037 0.03923173643401201 -0.011651142892005618 0.024491136481486799 0.030147565984442227 0.031635853872524537 0.039834868620616318 -0.044702034827076069 -0.047786449003176378 -0.0017995663431374044 -0.00067066651340438323 0.04470465583136421 -0.020842604578892695 0.049446086651346199 -0.012739005530912718 -0.046962749265351281 0.029851529949265262 -0.015912792154237975 0.03643010488462313 -0.00021523960795561404 -0.009288440568406919 0.022608481086940233 0.035115645868369218 -0.021572759625605786 -0.0033161083543422291 -0.011993187516404165 0.055266676076628399 -0.026103387137348655
leaf_weight=29 189 40 103 17 47 11.999999999999998 18 20 92 75 32 55 12.999999999999998 12.000000000000002 9.9999999999999982 30 166 128 64 79 10.999999999999998 204 41 9.9999999999999982 32 61 22 20 10.999999999999998 212
leaf_count=29 189 40 103 17 47 12 18 20 92 75 32 55 13 12 10 30 166 128 64 79 11 204 41 10 32 61 22 20 11 212
internal_value=0.00157682 -0.00108043 0.00111876 -0.00151613 -0.00254237 -0.00634111 -0.000595238 0.0010274 0.00639535 -0.00615079 -0.003 -0.00471014 0.00415254 -0.00472028 0.00909091 0.00932836 -0.00546683 -0.0118571 0.0107143 -7.24638e-05 -0.00153061 0.000813953 -0.00141509 0.00346154 0.00183486 -0.000609756 0.00925926 0.00202703 0.00833333 -0.00819502
internal_weight=1855 1666 1162 775 708 343 168 365 387 504 150 138 295 429 22 67 407 175 77 345 294 215 106 65 218 164 54 37 51 241
internal_count=1855 1666 1162 775 708 343 168 365 387 504 150 138 295 429 22 67 407 175 77 345 294 215 106 65 218 164 54 37 51 241
is_linear=0
shrinkage=0.05


Tree=12
num_leaves=31
num_cat=0
split_feature=8 2 14 8 1 0 6 2 12 9 9 6 2 4 8 1 8 8 2 2 2 6 8 8 8 9 9 8 6 12
split_gain=48.9788 6.92857 5.98775 3.15731 2.84607 5.19782 4.57226 1.97811 1.74486 2.19298 1.89511 1.48894 1.67436 1.94359 1.44643 1.26368 1.83696 2.1686 1.98114 1.20629 2.32323 1.57551 1.48761 1.20165 1.07922 2.13652 1.55959 2.25424 1.60444 1.30667
threshold=11624080.500000002 11.500000000000002 1.0000000180025095e-35 87647.000000000015 261.50000000000006 387.00000000000006 165.50000000000003 37.500000000000007 8.5000000000000018 222762.00000000003 52520.500000000007 19.500000000000004 145.50000000000003 2.5000000000000004 2475.5000000000005 555.50000000000011 23879.500000000004 4833.5000000000009 2897.5000000000005 5.5000000000000009 1.5000000000000002 102.50000000000001 254.00000000000003 49.500000000000007 15398.000000000002 570380.00000000012 182257.50000000003 881.00000000000011 65.500000000000014 11.500000000000002
decision_type=2 2 2 2 2 2 2 2 2 2 2 2 2 2 2 2 2 2 2 2 2 2 2 2 2 2 2 2 2 2
left_child=1 3 4 19 5 -3 11 24 9 10 23 -7 14 -14 -13 -6 17 18 -17 20 22 -21 -1 -9 26 -26 27 -4 -28 -30
right_child=-2 2 7 -5 15 6 -8 8 -10 -11 -12 12 13 -15 -16 16 -18 -19 -20 21 -22 -23 -24 -25 25 -27 28 -29 29 -31
leaf_value=-0.05930427476034153 0.085638573051474071 -0.00010998855737711089 0.0066787518807984508 0.036959466510338455 0.012299853843321518 -0.044614611802083717 0.036529359147009062 -0.018605877205057398 0.034767022827451387 0.052727148663761839 -0.0062452966524040648 -0.049973017819203325 0.010521917108190715 -0.0486357757760029 -0.019242131420602816 -0.032962664146408659 0.055218115732771217 -0.030674225998740492 0.034937943526194018 -0.01114153934666925 -0.024798217780481226 -0.030825007173286224 0.022564940056200352 0.044399553496091926 0.028624201845108228 -0.022308573598944916 0.032545402596820282 -0.022395120502788957 -0.01159051260995151 0.032109411766135659
leaf_weight=9.9999999999999982 186 414 103 18 19 128 11.999999999999998 13.000000000000002 57 9.9999999999999982 9.9999999999999982 18 37 29 24 17 11.999999999999998 24 28 264 184 39 26 14.999999999999998 54 12.999999999999998 20 52 15.000000000000002 9.9999999999999982
leaf_count=10 186 414 103 18 19 128 12 13 57 10 10 18 37 29 24 17 12 24 28 264 184 39 26 15 54 13 20 52 15 10
internal_value=0.000658248 -0.00204478 0.000176367 -0.00670055 -0.0023622 -0.00354985 -0.00927419 0.00537634 0.0111905 0.00416667 -0.00131579 -0.0108051 -0.00648148 -0.00151515 -0.0142857 0.0055 0.00277778 -0.000362319 0.00611111 -0.00740918 -0.0102273 -0.00536304 0.00138889 0.00535714 0.00308989 0.00858209 0.00125 -0.00112903 0.00944444 0.001
internal_weight=1861 1675 1134 541 762 662 248 372 105 48 38 236 108 66 42 100 81 69 45 523 220 303 36 28 267 67 200 155 45 25
internal_count=1861 1675 1134 541 762 662 248 372 105 48 38 236 108 66 42 100 81 69 45 523 220 303 36 28 267 67 200 155 45 25
is_linear=0
shrinkage=0.05


Tree=13
num_leaves=31
num_cat=0
split_feature=8 2 14 2 0 6 2 8 9 9 8 2 2 0 6 0 8 11 6 8 8 10 10 1 8 9 6 6 12 0
split_gain=47.452 9.16675 4.17899 4.49 4.29819 3.29893 2.41783 2.31509 2.37024 1.92003 1.89996 1.8454 1.67251 1.72705 1.63514 1.59818 1.85744 1.57018 2.1248 1.58115 2.22997 1.56458 1.78647 1.47763 1.46031 1.55294 1.52696 1.5 1.49375 1.40819
threshold=11624080.500000002 11.500000000000002 1.0000000180025095e-35 2748.0000000000005 387.00000000000006 165.50000000000003 27.500000000000004 36.000000000000007 57294.500000000007 67905.000000000015 584007.00000000012 94.500000000000014 5.5000000000000009 28.500000000000004 5.5000000000000009 3.5000000000000004 254.00000000000003 55180449.500000007 95.500000000000014 29711.500000000004 464.00000000000006 22859132.500000004 20137403.000000004 11.500000000000002 44880.500000000007 91053.000000000015 10.500000000000002 201.50000000000003 8.5000000000000018 28.500000000000004
decision_type=2 2 2 2 2 2 2 2 2 2 2 2 2 2 2 2 2 2 2 2 2 2 2 2 2 2 2 2 2 2
left_child=1 10 3 4 11 7 17 -6 -9 -10 12 14 15 24 23 16 -1 19 -19 20 29 22 -16 -3 25 26 -14 -26 -28 -4
right_child=-2 2 6 -5 5 -7 -8 8 9 -11 -12 -13 13 -15 21 -17 -18 18 -20 -21 -22 -23 -24 -25 27 -27 28 -29 -30 -31
leaf_value=-0.057601046962386951 0.081356644398900363 0.033808761127350727 0.040908254008742033 0.038524789625860825 0.013262390052720341 0.032156038735549057 0.031903724307240831 -0.042383881211979529 0.0099239033021259263 -0.0078134021939832553 0.035778654883113291 0.025029051173877815 -0.0089590959920840766 -0.054725493995197154 -0.0071411224827689634 -0.023558306891457159 0.02143669305339034 0.027192991752852821 -0.0020257804563443339 0.056090632611485391 -0.021800755909279691 0.0022643807817433305 -0.066169734881621284 -0.022266886269949215 -0.057740428407574033 0.0072694506480290412 -0.027594875232706775 0.0084026661317578629 -0.025175620483446421 -0.0044851864680168444
leaf_weight=9.9999999999999982 199 66 23 66 14.999999999999998 21 150 123 10.999999999999998 133 17 25 98 13.999999999999998 84 181 32 54 22 14.999999999999998 60 204 10.999999999999998 18 15.000000000000002 104 25 9.9999999999999982 38 44
leaf_count=10 199 66 23 66 15 21 150 123 11 133 17 25 98 14 84 181 32 54 22 15 60 204 11 18 15 104 25 10 38 44
internal_value=0.00190678 -0.000814091 0.00172489 -0.000353925 -0.00151195 -0.0060231 0.00611413 -0.00744681 -0.0085206 -0.00416667 -0.00615809 0.00183824 -0.0066888 -0.00427632 0.000979112 -0.00997758 -0.00119048 0.00275229 0.00855263 -0.000352113 -0.00216535 -0.000752508 -0.00605263 0.00714286 -0.00344828 -0.00235849 -0.00543478 -0.015 -0.0115079 0.00410448
internal_weight=1888 1689 1145 777 711 303 368 282 267 144 544 408 527 304 383 223 42 218 76 142 127 299 95 84 290 265 161 25 63 67
internal_count=1888 1689 1145 777 711 303 368 282 267 144 544 408 527 304 383 223 42 218 76 142 127 299 95 84 290 265 161 25 63 67
is_linear=0
shrinkage=0.05


Tree=14
num_leaves=31
num_cat=0
split_feature=15 11 2 14 6 2 0 2 6 11 9 0 1 12 0 9 6 1 13 2 11 13 0 0 2 0 2 4 0 2
split_gain=40.4381 12.3056 7.6734 4.00914 3.04568 2.98207 2.92649 3.35244 2.98665 2.89378 2.58784 2.30871 2.10928 2.81896 1.87852 2.3396 1.8177 1.74582 1.62675 1.60556 1.67659 1.57485 1.53281 1.5126 1.5028 1.42364 1.07821 1.62552 1.46882 1.22119
threshold=1.0000000180025095e-35 10585091.500000002 11.500000000000002 1.0000000180025095e-35 8.5000000000000018 2748.0000000000005 286.00000000000006 71.500000000000014 175.50000000000003 990177.50000000012 15950.500000000002 6.5000000000000009 35.500000000000007 10.500000000000002 51.500000000000007 212325.00000000003 12.500000000000002 4.5000000000000009 1.5000000000000002 3878.5000000000005 50553774.500000007 1.5000000000000002 4546.5000000000009 191.50000000000003 50.500000000000007 138.50000000000003 146.50000000000003 1.0000000180025095e-35 937.50000000000011 109.50000000000001
decision_type=2 2 2 2 2 2 2 2 2 2 2 2 2 2 2 2 2 2 2 2 2 2 2 2 2 2 2 2 2 2
left_child=2 4 -1 5 9 6 7 23 12 10 11 -2 16 18 -5 17 -8 -16 -14 20 -7 -15 -20 24 -4 -19 27 29 -28 -18
right_child=1 -3 3 14 -6 19 8 -9 -10 -11 -12 -13 13 21 15 -17 26 25 22 -21 -22 -23 -24 -25 -26 -27 28 -29 -30 -31
leaf_value=-0.020601130228407441 -0.037958733986169717 0.077288812178955335 -0.00029165862606394535 0.0038978052140064556 -0.0041831280681673411 0.032046537996723315 -0.040264687151380554 0.033481701236966428 0.028412891285874865 0.045304836248439222 -0.041321264103469452 0.029307438490066395 -0.00245829370893943 0.0038143815023369389 0.026672139083999426 0.033839832080671983 -0.048795239833184435 -0.0073572845634139799 0.014271696660392619 -0.023603045642187948 0.075584608810073145 -0.042420003855497004 -0.019455419340033211 -0.027315820594632563 0.036420409516769198 0.030341365014602918 0.031459245811659466 -0.043310942000150246 -0.046651934381798522 0.026068127794064002
leaf_weight=515 9.9999999999999982 205 266 202 10.999999999999998 21 54 24 18 27 15.999999999999998 51 33 19 46 35 28 33 37 14.999999999999998 24 44 12.999999999999998 32 24 25 13.000000000000002 39 10.999999999999998 12.999999999999998
leaf_count=515 10 205 266 202 11 21 54 24 18 27 16 51 33 19 46 35 28 33 37 15 24 44 13 32 24 25 13 39 11 13
internal_value=0.00144433 0.0176563 -0.00183081 0.000584659 0.00456522 -0.00151099 -0.00247006 0.000722543 -0.00590062 0.00721154 0.00227273 0.00696721 -0.00707237 -0.00273973 0.00505865 0.00953237 -0.0110759 0.00576923 0.00331325 0.00916667 0.0138889 -0.0107143 0.009 -0.000621118 0.000517241 0 -0.00721154 -0.01 0.00208333 -0.00304878
internal_weight=1904 320 1584 1069 115 728 668 346 322 104 77 61 304 146 341 139 158 104 83 60 45 63 50 322 290 58 104 80 24 41
internal_count=1904 320 1584 1069 115 728 668 346 322 104 77 61 304 146 341 139 158 104 83 60 45 63 50 322 290 58 104 80 24 41
is_linear=0
shrinkage=0.05


Tree=15
num_leaves=31
num_cat=0
split_feature=8 2 6 11 11 0 0 6 2 2 6 11 8 6 11 2 14 6 6 6 8 4 1 0 12 13 0 0 12 13
split_gain=50.0747 6.01189 5.16267 7.52005 2.44914 2.28493 2.05853 3.15986 2.72176 2.15753 2.03666 2.01867 1.9554 1.70603 3.74861 2.27866 3.57327 2.28998 2.67593 1.88516 1.77912 1.62193 1.51515 1.48989 1.48308 1.38846 1.314 1.60009 1.34627 1.18798
threshold=941104.50000000012 5.5000000000000009 1.5000000000000002 24476852.000000004 10585091.500000002 2.5000000000000004 381.00000000000006 13.500000000000002 159.50000000000003 29.500000000000004 8.5000000000000018 603671.00000000012 288.50000000000006 70.500000000000014 57584311.000000007 37.500000000000007 1.0000000180025095e-35 141.50000000000003 117.50000000000001 37.500000000000007 1211.5000000000002 10.500000000000002 8.5000000000000018 87.500000000000014 13.500000000000002 2.5000000000000004 21.500000000000004 89.500000000000014 4.5000000000000009 1.0000000180025095e-35
decision_type=2 2 2 2 2 2 2 2 2 2 2 2 2 2 2 2 2 2 2 2 2 2 2 2 2 2 2 2 2 2
left_child=1 5 24 6 10 -1 7 11 -8 -9 -2 23 25 14 19 -15 17 18 21 -5 29 -17 -11 -4 26 -10 -3 -28 -29 -16
right_child=4 2 3 13 -6 -7 8 9 12 22 -12 -13 -14 15 20 16 -18 -19 -20 -21 -22 -23 -24 -25 -26 -27 27 28 -30 -31
leaf_value=0.0016966390796900876 0.043039594436017264 -0.019535121063463657 -0.046380832520355277 0.0073936166186365617 0.073424371570007571 -0.021350335035463932 -0.038251452793811529 -0.035202971377062346 -0.012326261329837912 0.015853371112091608 -0.003973971664758969 0.0047190788522192828 -0.037662306424421865 -0.0073044604189109411 0.017466259360830957 -0.0077258439207356592 0.050507295844933547 0.02895108955896733 -0.049196851653342602 -0.016095414553224198 0.025078096991397195 0.077945496197183273 -0.055659929945250555 0.023233702845298999 0.027842066565563074 0.041876614063868049 0.032530821461956273 0.02882429676387277 -0.002046468842916177 0.0029342389655085291
leaf_weight=39 30 17 27 184 200 194 71 96 26 10.999999999999998 10.999999999999998 220 62 150 9.9999999999999982 38 17 52 27 73 85 9.9999999999999982 22 9.9999999999999982 29 9.9999999999999982 51 21 48 57
leaf_count=39 30 17 27 184 200 194 71 96 26 11 11 220 62 150 10 38 17 52 27 73 85 10 22 10 29 10 51 21 48 57
internal_value=0.00142255 -0.00167471 -0.000456461 -0.00155008 0.0227178 -0.00912017 -0.0059009 -0.00388601 -0.010503 -0.0102713 0.0115854 -0.000680934 -0.00510204 0.00188478 0.00397311 -0.00102041 0.00347222 0.000590551 -0.005 0.000291829 0.0101974 0.00208333 0.000757576 -0.0114865 0.00783133 0.00416667 0.00565693 0.0075 0.00253623 0.00410448
internal_weight=1898 1657 1424 1258 241 233 555 386 169 129 41 257 98 703 409 294 144 127 75 257 152 48 33 37 166 36 137 120 69 67
internal_count=1898 1657 1424 1258 241 233 555 386 169 129 41 257 98 703 409 294 144 127 75 257 152 48 33 37 166 36 137 120 69 67
is_linear=0
shrinkage=0.05


Tree=16
num_leaves=31
num_cat=0
split_feature=8 2 14 10 2 8 10 9 6 2 9 2 8 2 8 8 2 2 9 11 6 6 6 13 8 13 2 16 8 2
split_gain=48.9046 5.55043 3.5789 2.74633 2.66324 2.47395 3.42851 2.41116 1.79034 1.59693 2.31396 1.58652 1.96202 1.77546 1.98163 1.52742 1.48674 1.49047 1.51853 1.48619 2.30179 1.76334 1.71411 1.63333 1.59849 1.75705 1.44996 1.45786 1.43642 2.12503
threshold=941104.50000000012 11.500000000000002 1.0000000180025095e-35 9138814.0000000019 2748.0000000000005 30.500000000000004 32248416.500000004 62436.000000000007 21.500000000000004 37.500000000000007 212325.00000000003 1.5000000000000002 1013.5000000000001 6.5000000000000009 264.50000000000006 47220.500000000007 22.500000000000004 35.500000000000007 110817.00000000001 24476852.000000004 92.500000000000014 10.500000000000002 4.5000000000000009 2.5000000000000004 1750.5000000000002 2.5000000000000004 4.5000000000000009 1.0000000180025095e-35 2326.0000000000005 3122.0000000000005
decision_type=2 2 2 2 2 2 2 2 2 2 2 2 2 2 2 2 2 2 2 2 2 2 2 2 2 2 2 2 2 2
left_child=1 11 4 7 5 -3 -7 -2 -8 -4 -11 12 -1 14 26 16 -10 -18 -19 21 24 22 -15 -24 25 -21 -13 -28 -6 -30
right_child=3 2 9 -5 28 6 8 -9 15 10 -12 13 -14 19 -16 -17 17 18 -20 20 -22 -23 23 -25 -26 -27 27 -29 29 -31
leaf_value=-0.032131645224999714 0.044075927257199089 0.016186940149615397 0.0039230613686876414 0.069753152991507195 0.035129246634455435 -0.016059644146513227 0.035827140384123025 0.0003777106738363956 0.0041831316465943905 0.025982781418794468 0.045859005791125118 -0.019745631983196951 0.028652081060411262 -0.015423426914814121 -0.021296481098784716 0.027680037756529496 -0.020257699741924207 -0.041515075731074561 0.00064451188332608216 0.016997952731054478 -0.028732049696991915 -0.025233153315275071 -0.017425186434013574 0.031519053282957031 0.023456535102215566 -0.017273472565935033 -0.027703721035638243 0.017801441191890113 0.054419119913406248 -0.022792574191010384
leaf_weight=15.999999999999998 18 70 254 196 32 340 17 25 40 74 25 34 22 46 179 14.999999999999998 41 27 161 28 41 49 15 15 32 17 17 23 9.9999999999999982 23
leaf_count=16 18 70 254 196 32 340 17 25 40 74 25 34 22 46 179 15 41 27 161 28 41 49 15 15 32 17 17 23 10 23
internal_value=0.00134069 -0.00169874 0.000287865 0.0224895 -0.00161082 -0.00249648 -0.00347114 0.0110465 0.000415282 0.00446176 0.00984848 -0.00589888 0.00394737 -0.00665323 -0.00958498 -0.000528169 -0.00139405 -0.0029476 -0.00106383 -0.00360082 0.000423729 -0.0074 -0.00263158 0.00666667 0.00551948 -0.000555556 -0.0027027 0.00375 0.00807692 0.000757576
internal_weight=1902 1663 1129 239 776 711 641 43 301 353 99 534 38 496 253 284 269 229 188 243 118 125 76 30 77 45 74 40 65 33
internal_count=1902 1663 1129 239 776 711 641 43 301 353 99 534 38 496 253 284 269 229 188 243 118 125 76 30 77 45 74 40 65 33
is_linear=0
shrinkage=0.05


Tree=17
num_leaves=31
num_cat=0
split_feature=8 0 9 0 2 10 6 8 13 6 6 10 13 13 12 10 2 9 0 10 0 12 10 0 12 13 12 1 9 10
split_gain=49.7083 5.01197 3.33785 3.47323 3.95342 2.51745 2.57398 2.15629 1.9389 1.93425 3.39035 1.58568 1.62152 1.5651 1.42505 1.39389 1.64839 2.02826 1.72626 1.41253 2.10067 1.38889 1.31656 2.13006 1.68503 1.25366 1.15345 1.15245 1.58324 2.6495
threshold=941104.50000000012 18.500000000000004 102546.00000000001 387.00000000000006 149.50000000000003 8194651.5000000009 7.5000000000000009 572.00000000000011 2.5000000000000004 72.500000000000014 177.50000000000003 91154608.500000015 5.5000000000000009 4.5000000000000009 3.5000000000000004 5124682.0000000009 17.500000000000004 32499.000000000004 28.500000000000004 19567393.000000004 66.500000000000014 14.500000000000002 1210825.0000000002 216.50000000000003 9.5000000000000018 2.5000000000000004 12.500000000000002 8.5000000000000018 10639.500000000002 11543074.500000002
decision_type=2 2 2 2 2 2 2 2 2 2 2 2 2 2 2 2 2 2 2 2 2 2 2 2 2 2 2 2 2 2
left_child=1 -1 3 8 21 6 -2 -6 15 11 14 12 -4 27 25 22 17 -17 -19 -18 -21 -5 23 24 -3 -11 -9 28 -10 -30
right_child=5 2 9 4 7 -7 -8 26 13 10 -12 -13 -14 -15 -16 16 19 18 -20 20 -22 -23 -24 -25 -26 -27 -28 -29 29 -31
leaf_value=-0.019169159110524782 0.03868381835135646 -0.019575461604875156 0.0049827180244585659 -0.035535897946795292 0.0048429472304536763 0.066265495341931852 -0.0062617200669476403 -0.0068189189380226008 0.0078286353982294776 -0.0025958617987354884 0.024850855574610309 0.026381314230166708 0.039589743389468315 0.039206914736470554 -0.0083684510109736879 -0.023338993212483651 0.011226548413604005 0.018269795026115834 -0.023213459725574384 0.041322404600645082 -0.055220193480549545 -0.0091487619589309521 0.035010716201236768 0.064290067268892775 0.028003934931089682 0.033428047677909724 -0.041689943572521856 -0.039277279314517723 -0.041089264164854533 7.5227006210698558e-05
leaf_weight=412 22 44 204 75 73 202 11.999999999999998 35 42 12 51 53 12.999999999999998 26 169 15.999999999999998 68 22 29 12.999999999999998 31 14.999999999999998 35 9.9999999999999982 27 14 22 38 38 56
leaf_count=412 22 44 204 75 73 202 12 35 42 12 51 53 13 26 169 16 68 22 29 13 31 15 35 10 27 14 22 38 38 56
internal_value=0.00142363 -0.00165855 -6.09261e-05 -0.00227273 -0.0075 0.0228814 0.0102941 -0.00192308 5.05051e-05 0.00300388 -0.000203252 0.00592593 0.00403226 -0.00375 -0.00320513 0.00262712 -0.000139665 -0.00634328 -0.00147059 0.00357143 -0.00340909 -0.0155556 0.00689655 0.00339506 0.000352113 0.00769231 -0.00921053 -0.00545977 -0.00330882 -0.00691489
internal_weight=1879 1643 1231 715 220 236 34 130 495 516 246 270 217 200 195 295 179 67 51 112 44 90 116 81 71 26 57 174 136 94
internal_count=1879 1643 1231 715 220 236 34 130 495 516 246 270 217 200 195 295 179 67 51 112 44 90 116 81 71 26 57 174 136 94
is_linear=0
shrinkage=0.05


Tree=18
num_leaves=31
num_cat=0
split_feature=8 6 0 11 6 9 6 10 8 9 6 6 6 6 14 9 9 0 0 0 0 9 13 13 8 8 13 13 10 13
split_gain=15.0252 5.61449 4.73091 3.47064 8.14687 3.31263 5.35637 2.1379 3.40192 1.96364 1.892 1.78346 1.67785 1.66702 1.61348 1.96169 1.57036 1.51042 2.088 1.50155 1.56914 1.4371 1.41698 2.20417 1.85618 1.5 1.38462 1.3064 1.28625 1.27842
threshold=941104.50000000012 38.500000000000007 19.500000000000004 321954102.50000006 17.500000000000004 102546.00000000001 1.5000000000000002 834753.50000000012 19399.000000000004 4361299.0000000009 65.500000000000014 50.500000000000007 17.500000000000004 179.50000000000003 1.0000000180025095e-35 11565.000000000002 1336.0000000000002 29.500000000000004 45.500000000000007 97.500000000000014 237.50000000000003 570380.00000000012 4.5000000000000009 2.5000000000000004 2271.0000000000005 985.50000000000011 2.5000000000000004 1.0000000180025095e-35 4549493.5000000009 1.5000000000000002
decision_type=2 2 2 2 2 2 2 2 2 2 2 2 2 2 2 2 2 2 2 2 2 2 2 2 2 2 2 2 2 2
left_child=2 3 12 4 29 6 17 -8 14 -3 11 22 16 21 15 -9 26 -4 -19 -20 -21 -12 23 24 -7 -25 -1 -14 -17 -2
right_child=1 9 5 -5 -6 10 7 8 -10 -11 13 -13 27 -15 -16 28 -18 18 19 20 -22 -23 -24 25 -26 -27 -28 -29 -30 -31
leaf_value=-0.050753768082628048 0.079595434800604298 0.062952220574835252 0.048543604205810734 0.079595434800604298 -0.0027171491227355516 0.023668281295139648 -0.033741315188825803 0.022706202579163316 0.054774835261254151 -0.0027171491227355516 0.0014270763886884753 0.028973916612447331 -0.0017711552648047137 0.017572952352798737 0.0019992538855401697 -0.033759103049455529 -0.00080367252990622422 -0.0040046748878227343 0.040754523102394739 -0.0076646640324781745 0.016379278770911415 -0.046350812114293087 0.034794605306158577 -0.042435596160213737 0.0043300665820812491 0.0041126764348544008 -0.00043287328904235701 -0.023042968119942255 -0.014631182546179067 0.053714359443096618
leaf_weight=13.000000000000002 29 10.000000000000002 14.999999999999998 63 21 21 46 24 13.999999999999998 11.999999999999998 185 58 50 48 158 43 174 20 41 38 46 39 32 27 69 27 12.999999999999998 191 281 96
leaf_count=13 29 10 15 63 21 21 46 24 14 12 185 58 50 48 158 43 174 20 41 38 46 39 32 27 69 27 13 191 281 96
internal_value=0.000709034 0.0126623 -0.000941423 0.0151914 0.0109589 0.000649351 -0.00151515 -0.00379859 -0.00288462 -0.0113636 0.00375494 0.00705128 -0.00538549 0.000919118 -0.00355731 -0.00545977 -0.002 0.0065625 0.005 0.0074 0.00357143 -0.000892857 0.00454545 0.00243056 0.00722222 -0.00555556 -0.0134615 -0.00819502 -0.00648148 0.0158
internal_weight=1904 231 1673 209 146 1232 726 566 520 22 506 234 441 272 506 348 200 160 145 125 84 224 176 144 90 54 26 241 324 125
internal_count=1904 231 1673 209 146 1232 726 566 520 22 506 234 441 272 506 348 200 160 145 125 84 224 176 144 90 54 26 241 324 125
is_linear=0
shrinkage=0.05


Tree=19
num_leaves=31
num_cat=0
split_feature=8 13 13 10 10 2 6 0 2 2 8 8 8 12 10 2 2 4 1 6 6 6 1 0 2 0 2 0 10 12
split_gain=12.188 6.66433 16.94 5.33377 4.875 4.86598 4.0625 2.00141 3.8793 2.6629 1.90265 3.00128 2.9014 1.49453 1.41517 1.94993 2.77323 1.61102 1.4876 1.35714 1.34349 1.85126 1.46606 1.18307 1.10272 3.0157 1.62537 2.29691 1.24212 1.18955
threshold=941104.50000000012 1.5000000000000002 2.5000000000000004 13516607.500000002 8362321.0000000009 12.500000000000002 8.5000000000000018 387.00000000000006 146.50000000000003 105.50000000000001 207.50000000000003 2475.5000000000005 10122.000000000002 16.500000000000004 13516607.500000002 538.00000000000011 370.00000000000006 7.5000000000000009 1216.0000000000002 12.500000000000002 143.50000000000003 56.500000000000007 77.000000000000014 28.500000000000004 44.500000000000007 162.50000000000003 69.500000000000014 302.00000000000006 12424474.000000002 10.500000000000002
decision_type=2 2 2 2 2 2 2 2 2 2 2 2 2 2 2 2 2 2 2 2 2 2 2 2 2 2 2 2 2 2
left_child=5 -2 3 -3 6 23 -4 9 10 13 -9 -12 -13 24 15 16 -10 20 -19 -5 21 22 -16 -1 -7 -26 28 -28 -27 -30
right_child=1 2 4 19 -6 7 -8 8 14 -11 11 12 -14 -15 17 -17 -18 18 -20 -21 -22 -23 -24 -25 25 26 27 -29 29 -31
leaf_value=-0.016159392840246679 0.075615663060574087 0.035702590971890248 0.030156879884498181 -0.0031625609558980639 0.060266502602680433 0.00043568137091527516 -0.0086343520357550826 0.0016132168388322211 -0.014338743736927652 0.032998062044921526 -0.035729813253085552 0.030805790121840166 -0.036469326935786632 0.034744991402619552 0.0033152153518488884 0.010405193736758779 -0.037433900597954504 -0.011752261735522641 0.029994020670243926 -0.002581291666598773 0.029639934632153725 -0.0060140091415221593 0.018718660715186398 -0.037778381230018206 0.038035834775744348 -0.050639352453023138 0.02525513797782333 -0.018017972480629009 0.016258016504745766 -0.048799139054695483
leaf_weight=545 65 9.9999999999999982 16.000000000000004 18 78 510 9.9999999999999982 21 36 21 38 13.999999999999998 33 10.999999999999998 19 42 19 44 45 38 11.999999999999998 17 27 22 55 14.999999999999998 45 36 21.000000000000004 9.9999999999999982
leaf_count=545 65 10 16 18 78 510 10 21 36 21 38 14 33 11 19 42 19 44 45 38 12 17 27 22 55 15 45 36 21 10
internal_value=0.00072636 0.011383 0.00617647 -0.0136364 0.01875 -0.000784077 0 0.00116865 -0.00183924 0.00269337 -0.00990566 -0.0132353 -0.00478723 0.00216927 0.00143678 -0.00335052 -0.00954545 0.00426829 -0.000280899 -0.0196429 0.00966667 0.00674603 0.0119565 -0.00454145 0.00187861 0.00521978 0.000984252 0.00524691 -0.00652174 -0.000806452
internal_weight=1893 235 170 66 104 1658 26 1091 367 724 106 85 47 703 261 97 55 164 89 56 75 63 46 567 692 182 127 81 46 31
internal_count=1893 235 170 66 104 1658 26 1091 367 724 106 85 47 703 261 97 55 164 89 56 75 63 46 567 692 182 127 81 46 31
is_linear=0
shrinkage=0.05


Tree=20
num_leaves=31
num_cat=0
split_feature=8 13 13 2 14 9 0 0 6 10 1 9 8 12 13 0 6 12 6 1 8 9 8 9 12 0 8 0 2 0
split_gain=13.2958 7.27765 22.4509 3.27517 2.52101 2.30769 2.30616 2.30516 1.82408 2.56123 1.92411 1.89149 1.77059 2.41112 1.7166 1.51791 1.69779 2.1826 1.38281 1.3455 1.62102 1.2311 1.60026 1.55883 1.21502 1.16267 1.11975 1.43792 2.09123 1.92986
threshold=19240265.500000004 2.5000000000000004 1.5000000000000002 11.500000000000002 1.0000000180025095e-35 850396.00000000012 2.5000000000000004 4.5000000000000009 1.0000000180025095e-35 2236344.0000000005 1216.0000000000002 23209.500000000004 9533.5000000000018 10.500000000000002 5.5000000000000009 84.500000000000014 55.500000000000007 8.5000000000000018 141.50000000000003 5.5000000000000009 15398.000000000002 456063.00000000006 29711.500000000004 118755.00000000001 8.5000000000000018 237.50000000000003 7645.0000000000009 60.500000000000007 29.500000000000004 123.50000000000001
decision_type=2 2 2 2 2 2 2 2 2 2 2 2 2 2 2 2 2 2 2 2 2 2 2 2 2 2 2 2 2 2
left_child=3 2 -2 6 8 -4 -1 -8 -5 11 12 24 14 -14 26 19 17 25 -15 20 -6 22 -9 -24 -10 -17 27 -11 -29 -30
right_child=1 -3 5 4 15 -7 7 21 9 10 -12 -13 13 18 -16 16 -18 -19 -20 -21 -22 -23 23 -25 -26 -27 -28 28 29 -31
leaf_value=0.020378271265535094 0.071834879907545376 0.057253177472546414 0.020607106694176515 0.014068229953209888 0.0016279059364761651 -0.0024522270832688432 -0.023351611535857675 -0.012672992992416211 -0.031355100103167853 0.01058070650134979 0.031477488983345826 -0.035562205568056775 0.011002539406141827 -0.010820977050881054 0.012776186129560463 -0.022323759520229781 0.045205639007916493 0.028348543447391395 0.030008985899059704 -0.0039409839785746305 0.017200188665950546 -0.02646966815488019 0.024924115073625065 -0.00076412676911084007 0.017428198969620525 0.040001722740726199 -0.037002192236689081 -0.026774094610551771 0.012559882696007675 -0.01519975005900244
leaf_weight=38 64 77 11.999999999999998 53 204 40 37 371 37 39 52 17 140 56 15.999999999999998 21.000000000000004 20 43 17 12.999999999999998 71 62 12.999999999999998 19 21 9.9999999999999982 42 37 31 198
leaf_count=38 64 77 12 53 204 40 37 371 37 39 52 17 140 56 16 21 20 43 17 13 71 62 13 19 21 10 42 37 31 198
internal_value=0.00065473 0.0130829 0.00517241 -0.000774732 0.000746924 -0.0192308 -0.00398148 -0.00488048 -0.000925926 -0.00160028 -0.000557325 -0.0103333 -0.00138889 0.00223005 -0.0035124 0.00405759 0.00957447 0.00608108 -0.00513699 0.00225694 0.003 -0.00392473 -0.00291563 0.0078125 -0.00603448 -0.00403226 -0.00425072 -0.00319672 -0.00451128 -0.00272926
internal_weight=1871 193 116 1678 1138 52 540 502 756 703 628 75 576 213 363 382 94 74 73 288 275 465 403 32 58 31 347 305 266 229
internal_count=1871 193 116 1678 1138 52 540 502 756 703 628 75 576 213 363 382 94 74 73 288 275 465 403 32 58 31 347 305 266 229
is_linear=0
shrinkage=0.05


Tree=21
num_leaves=31
num_cat=0
split_feature=8 13 13 0 9 6 10 10 6 0 8 1 8 8 11 13 9 9 10 6 10 9 6 6 9 2 8 6 6 1
split_gain=13.9921 7.3986 21.8391 2.36317 2.34214 2.10715 3.95262 1.57531 2.63561 3.15159 2.48016 1.3991 1.36364 1.31111 2.0539 1.33255 1.25459 1.45702 1.65047 1.21449 2.03115 1.49747 2.22926 3.78908 2.14215 2.05377 1.70423 1.62577 1.50362 1.39868
threshold=11624080.500000002 2.5000000000000004 1.5000000000000002 19.500000000000004 850396.00000000012 1.5000000000000002 10943478.500000002 924130.50000000012 6.5000000000000009 187.50000000000003 200.00000000000003 206.00000000000003 36.000000000000007 49.500000000000007 3819760.5000000005 2.5000000000000004 36227.000000000007 20527.000000000004 7884706.0000000009 16.500000000000004 26413425.500000004 150830.50000000003 70.500000000000014 46.500000000000007 139726.50000000003 10.500000000000002 13089.500000000002 27.500000000000004 177.50000000000003 95.500000000000014
decision_type=2 2 2 2 2 2 2 2 2 2 2 2 2 2 2 2 2 2 2 2 2 2 2 2 2 2 2 2 2 2
left_child=3 2 -2 13 -4 -5 7 12 9 10 -9 16 -7 15 -15 -1 17 -10 -19 20 -8 24 23 27 26 -24 -21 -23 29 -27
right_child=1 -3 4 5 -6 6 19 8 11 -11 -12 -13 -14 14 -16 -17 -18 18 -20 21 -22 22 25 -25 -26 28 -28 -29 -30 -31
leaf_value=-0.032185459140024263 0.068243135912168115 0.054390518598919108 -0.00072592043065529139 0.017156462974925797 -0.0023296157291053943 -0.00097088049359101434 0.0026232563859268534 -0.0066207785226807762 -0.030797808520500514 -0.027491173235405838 0.030000273458493994 0.0056959825142028579 -0.032493894781817627 0.0044241298200142221 -0.015616933457368289 -0.024611633199640905 -0.031809255681569074 0.0053407860369723559 -0.013237461486414588 -0.0092289565204518309 0.033427362907805083 0.032734834252348244 -0.046551660368410824 0.022145941965397861 -0.054001013189573933 -0.0027606421099274359 0.022456344971892989 -0.0098337324543422821 0.01499057850424549 0.032600021349522494
leaf_weight=13.999999999999998 64 81 14.999999999999998 150 38 15.999999999999998 103 28 33 35 36 11.999999999999998 44 51 349 23 38 30 22 218 28 21 14.999999999999998 82 9.9999999999999982 157 32 52 51 21
leaf_count=14 64 81 15 150 38 16 103 28 33 35 36 12 44 51 349 23 38 30 22 218 28 21 15 82 10 157 32 52 51 21
internal_value=0.000815944 0.0133838 0.00534188 -0.00067325 -0.0183962 0.000445705 -0.000322878 -0.00527211 -0.0034188 0.00277778 0.009375 -0.00796296 -0.0125 -0.00383295 -0.003 -0.0128378 -0.00955285 -0.00617647 -0.000961538 0.00151899 0.00591603 0.000644917 0.00256892 0.00725806 -0.00230769 -0.000409836 -0.0014 -0.0010274 0.000764192 -0.00140449
internal_weight=1869 198 117 1671 53 1234 1084 294 234 99 64 135 60 437 400 37 123 85 52 790 131 659 399 155 260 244 250 73 229 178
internal_count=1869 198 117 1671 53 1234 1084 294 234 99 64 135 60 437 400 37 123 85 52 790 131 659 399 155 260 244 250 73 229 178
is_linear=0
shrinkage=0.05


Tree=22
num_leaves=31
num_cat=0
split_feature=8 13 13 9 8 2 1 1 9 0 2 0 11 8 10 10 6 0 2 13 6 1 8 10 14 6 1 11 2 0
split_gain=12.1074 5.91057 19.9266 5.9841 3.20106 3.16649 2.49345 3.51019 2.40079 1.9771 1.90467 1.63966 1.51136 1.33307 1.4829 1.45235 1.95642 1.55522 1.61579 1.23599 1.25017 1.22429 1.68583 1.61368 1.21473 1.20299 1.2701 1.90649 1.6369 1.25149
threshold=941104.50000000012 1.5000000000000002 2.5000000000000004 304221.50000000006 11624080.500000002 11.500000000000002 14.500000000000002 261.50000000000006 62436.000000000007 28.500000000000004 44.500000000000007 104.50000000000001 218463791.50000003 52.500000000000007 4141599.5000000005 22859132.500000004 92.500000000000014 9.5000000000000018 3.5000000000000004 2.5000000000000004 1.5000000000000002 5.5000000000000009 46342.000000000007 249205924.50000003 1.0000000180025095e-35 118.50000000000001 3.5000000000000004 9725181.0000000019 17.500000000000004 66.500000000000014
decision_type=2 2 2 2 2 2 2 2 2 2 2 2 2 2 2 2 2 2 2 2 2 2 2 2 2 2 2 2 2 2
left_child=5 -2 3 -3 8 9 10 24 -4 13 21 -12 -13 19 -15 -16 17 18 -17 -1 -21 23 -23 25 -8 26 -7 -28 -29 -30
right_child=1 2 4 -5 -6 6 7 -9 -10 -11 11 12 -14 14 15 16 -18 -19 -20 20 -22 22 -24 -25 -26 -27 27 28 29 -31
leaf_value=-0.015525776485054089 0.064830979116559703 0.033679394532887409 0.043502020113293211 -0.0022131349426501193 0.051670992668973154 0.0013641607753766827 -0.022575859854464489 0.017430435632846908 -0.0047913288150567505 -0.041038302718648195 0.042012007910558216 0.012400418698960736 0.031368628002568691 0.0031285615525791788 -0.015972469123115018 0.0028533240748465196 -0.021792441245659745 0.012343815909098055 -0.015799066458839162 0.0064092835074194112 -0.048303839729336218 -0.0018351218522758006 -0.02756583169704226 0.0095748918878903865 0.044040504145176185 -0.012643421728028971 0.032567378650818594 -0.035302757111867866 0.029182783031183896 0.0073960268070953628
leaf_weight=21 61 9.9999999999999982 10.000000000000002 53 80 286 335 110 18 14.999999999999998 12.999999999999998 116 9.9999999999999982 68 146 37 85 91 31 17.000000000000004 11.999999999999998 100 11.999999999999998 11.999999999999998 18 14.999999999999998 26 21 24 32
leaf_count=21 61 10 10 53 80 286 335 110 18 15 13 116 10 68 146 37 85 91 31 17 12 100 12 12 18 15 26 21 24 32
internal_value=0.000941645 0.0116379 0.00687135 -0.0154762 0.0199074 -0.000559589 0.000929204 -0.00188985 0.00535714 -0.00377629 0.00288606 0.00809353 0.00634921 -0.00324803 -0.00240175 -0.00358974 -0.00122951 0.00204403 -0.00367647 -0.011 -0.00431034 0.00151515 -0.003125 0.00276442 -0.00432011 0.00222772 0.0027635 0.00752427 0.00357143 0.00803571
internal_weight=1885 232 171 63 108 1653 1130 463 28 523 667 139 126 508 458 390 244 159 68 50 29 528 112 416 353 404 389 103 77 56
internal_count=1885 232 171 63 108 1653 1130 463 28 523 667 139 126 508 458 390 244 159 68 50 29 528 112 416 353 404 389 103 77 56
is_linear=0
shrinkage=0.05


Tree=23
num_leaves=31
num_cat=0
split_feature=8 6 2 8 9 1 1 8 9 8 2 10 9 6 0 9 12 0 8 10 9 2 0 10 12 4 0 9 0 6
split_gain=11.6819 5.5809 4.992 4.48406 8.99817 2.62279 2.84249 2.16794 4.40497 1.63164 1.58602 1.54443 4.2003 2.07598 1.36889 1.51136 1.34301 1.28438 1.22 1.66967 2.68431 1.80717 3.03864 1.77941 2.00045 1.76 1.39675 1.39047 1.29894 0.979121
threshold=941104.50000000012 41.500000000000007 12.500000000000002 366113603.50000006 2233759.0000000005 14.500000000000002 222.00000000000003 185191462.50000003 954718.50000000012 4833.5000000000009 43.500000000000007 75975190.000000015 388512.50000000006 8.5000000000000018 104.50000000000001 581568.00000000012 11.500000000000002 12318.000000000002 36.000000000000007 10692739.000000002 29800.500000000004 146.50000000000003 286.00000000000006 2641092.0000000005 9.5000000000000018 8.5000000000000018 507.50000000000006 57294.500000000007 594.50000000000011 35.500000000000007
decision_type=2 2 2 2 2 2 2 2 2 2 2 2 2 2 2 2 2 2 2 2 2 2 2 2 2 2 2 2 2 2
left_child=2 3 -1 4 7 10 18 8 11 16 -4 12 13 -2 -12 -16 -8 -11 -7 20 23 22 29 -20 -25 27 -24 -23 -29 -21
right_child=1 -3 5 -5 -6 6 9 -9 -10 17 14 -13 -14 -15 15 -17 -18 -19 19 21 -22 25 26 24 -26 -27 -28 28 -30 -31
leaf_value=-0.014094968579784629 0.045607795399110911 -0.00210247819551761 0.0023918239039043168 0.061589430160731734 -0.00210247819551761 0.008858508104484842 0.034574698573950284 0.061589430160731734 -0.0048949901593442263 0.012977390432154956 0.027636918685453871 0.061589430160731734 -0.0055115658862416213 -0.0064877856692412529 0.0087233111864045369 0.031143075104529044 0.0054421252173452398 -0.05079725543746505 -0.02923169709739102 0.032305239708214618 -0.03106301753290169 -0.030658311788880434 -0.028299076130097679 -0.022517214054998281 0.0060311613970992946 -0.050950854981320397 -0.033107181563026361 0.036858928728684022 0.0067466542821765733 -0.0073000037064874686
leaf_weight=558 56 14.999999999999998 480 59 20 29 40 31 12.999999999999998 33 15.999999999999998 23 9.9999999999999982 11.999999999999998 116 9.9999999999999982 23 13.999999999999998 34 12.999999999999998 40 18 61 22 11.999999999999998 12.999999999999998 25 11.999999999999998 43 22
leaf_count=558 56 15 480 59 20 29 40 31 13 33 16 23 10 12 116 10 23 14 34 13 40 18 61 22 12 13 25 12 43 22
internal_value=0.000867592 0.0111925 -0.000642595 0.0131696 0.00893939 0.00134758 -0.00154185 0.0132759 0.0100877 0.00545455 0.00345659 0.0136139 0.0102564 0.0147059 0.00809859 0.00634921 0.0107143 -0.00159574 -0.00377907 -0.00468254 -0.00972222 -0.00205314 -0.00599174 -0.00367647 0.00441176 0.00348837 -0.0110465 0.00650685 0.0104545 0.00642857
internal_weight=1873 239 1634 224 165 1076 454 145 114 110 622 101 78 68 142 126 63 47 344 315 108 207 121 68 34 86 86 73 55 35
internal_count=1873 239 1634 224 165 1076 454 145 114 110 622 101 78 68 142 126 63 47 344 315 108 207 121 68 34 86 86 73 55 35
is_linear=0
shrinkage=0.05


end of trees

feature_importances:
Column_8=116
Column_2=113
Column_6=104
Column_0=82
Column_10=68
Column_9=52
Column_1=41
Column_13=37
Column_12=34
Column_11=33
Column_14=19
Column_4=10
Column_3=6
Column_16=3
Column_7=1
Column_15=1

parameters:
[boosting: gbdt]
[objective: quantile]
[metric: quantile]
[tree_learner: serial]
[device_type: cpu]
[data_sample_strategy: bagging]
[data: ]
[valid: ]
[num_iterations: 120]
[learning_rate: 0.05]
[num_leaves: 31]
[num_threads: 0]
[seed: 0]
[deterministic: 0]
[force_col_wise: 0]
[force_row_wise: 0]
[histogram_pool_size: -1]
[max_depth: -1]
[min_data_in_leaf: 10]
[min_sum_hessian_in_leaf: 0.001]
[bagging_fraction: 0.85]
[pos_bagging_fraction: 1]
[neg_bagging_fraction: 1]
[bagging_freq: 1]
[bagging_seed: 3]
[bagging_by_query: 0]
[feature_fraction: 0.85]
[feature_fraction_bynode: 1]
[feature_fraction_seed: 2]
[extra_trees: 0]
[extra_seed: 6]
[early_stopping_round: 0]
[early_stopping_min_delta: 0]
[first_metric_only: 0]
[max_delta_step: 0]
[lambda_l1: 0]
[lambda_l2: 0]
[linear_lambda: 0]
[min_gain_to_split: 0]
[drop_rate: 0.1]
[max_drop: 50]
[skip_drop: 0.5]
[xgboost_dart_mode: 0]
[uniform_drop: 0]
[drop_seed: 4]
[top_rate: 0.2]
[other_rate: 0.1]
[min_data_per_group: 100]
[max_cat_threshold: 32]
[cat_l2: 10]
[cat_smooth: 10]
[max_cat_to_onehot: 4]
[top_k: 20]
[monotone_constraints: ]
[monotone_constraints_method: basic]
[monotone_penalty: 0]
[feature_contri: ]
[forcedsplits_filename: ]
[refit_decay_rate: 0.9]
[cegb_tradeoff: 1]
[cegb_penalty_split: 0]
[cegb_penalty_feature_lazy: ]
[cegb_penalty_feature_coupled: ]
[path_smooth: 0]
[interaction_constraints: ]
[verbosity: -1]
[saved_feature_importance_type: 0]
[use_quantized_grad: 0]
[num_grad_quant_bins: 4]
[quant_train_renew_leaf: 0]
[stochastic_rounding: 1]
[linear_tree: 0]
[max_bin: 255]
[max_bin_by_feature: ]
[min_data_in_bin: 3]
[bin_construct_sample_cnt: 200000]
[data_random_seed: 1]
[is_enable_sparse: 1]
[enable_bundle: 1]
[use_missing: 1]
[zero_as_missing: 0]
[feature_pre_filter: 1]
[pre_partition: 0]
[two_round: 0]
[header: 0]
[label_column: ]
[weight_column: ]
[group_column: ]
[ignore_column: ]
[categorical_feature: ]
[forcedbins_filename: ]
[precise_float_parser: 0]
[parser_config_file: ]
[objective_seed: 5]
[num_class: 1]
[is_unbalance: 0]
[scale_pos_weight: 1]
[sigmoid: 1]
[boost_from_average: 1]
[reg_sqrt: 0]
[alpha: 0.5]
[fair_c: 1]
[poisson_max_delta_step: 0.7]
[tweedie_variance_power: 1.5]
[lambdarank_truncation_level: 30]
[lambdarank_norm: 1]
[label_gain: ]
[lambdarank_position_bias_regularization: 0]
[eval_at: ]
[multi_error_top_k: 1]
[auc_mu_weights: ]
[num_machines: 1]
[local_listen_port: 12400]
[time_out: 120]
[machine_list_filename: ]
[machines: ]
[gpu_platform_id: -1]
[gpu_device_id: -1]
[gpu_use_dp: 0]
[num_gpu: 1]

end of parameters

pandas_categorical:null
